<?xml version="1.0"?>
<MethodSetup Method="MLP::MLPBNN">
  <GeneralInfo>
    <Info name="TMVA Release" value="4.2.1 [262657]"/>
    <Info name="ROOT Release" value="6.38/00 [402944]"/>
    <Info name="Creator" value="ooconnor"/>
    <Info name="Date" value="Tue Feb  3 10:45:38 2026"/>
    <Info name="Host" value="Linux buildvm-x86-26.rdu3.fedoraproject.org 6.17.1-300.fc43.x86_64 #1 SMP PREEMPT_DYNAMIC Mon Oct 6 15:37:21 UTC 2025 x86_64 x86_64 x86_64 GNU/Linux"/>
    <Info name="Dir" value="/home/lar/ooconnor/larsoft_testing/srcs/sbndcode/sbndcode/Workshop/Analysis/output/TMVA"/>
    <Info name="Training events" value="296"/>
    <Info name="TrainingTime" value="3.20745230e-01"/>
    <Info name="AnalysisType" value="Classification"/>
  </GeneralInfo>
  <Options>
    <Option name="NCycles" modified="Yes">60</Option>
    <Option name="HiddenLayers" modified="Yes">N+5</Option>
    <Option name="NeuronType" modified="Yes">tanh</Option>
    <Option name="RandomSeed" modified="No">1</Option>
    <Option name="EstimatorType" modified="No">CE</Option>
    <Option name="NeuronInputType" modified="No">sum</Option>
    <Option name="V" modified="Yes">False</Option>
    <Option name="VerbosityLevel" modified="No">Default</Option>
    <Option name="VarTransform" modified="Yes">N</Option>
    <Option name="H" modified="Yes">True</Option>
    <Option name="CreateMVAPdfs" modified="No">False</Option>
    <Option name="IgnoreNegWeightsInTraining" modified="No">False</Option>
    <Option name="TrainingMethod" modified="Yes">BFGS</Option>
    <Option name="LearningRate" modified="No">2.000000e-02</Option>
    <Option name="DecayRate" modified="No">1.000000e-02</Option>
    <Option name="TestRate" modified="Yes">5</Option>
    <Option name="EpochMonitoring" modified="No">False</Option>
    <Option name="Sampling" modified="No">1.000000e+00</Option>
    <Option name="SamplingEpoch" modified="No">1.000000e+00</Option>
    <Option name="SamplingImportance" modified="No">1.000000e+00</Option>
    <Option name="SamplingTraining" modified="No">True</Option>
    <Option name="SamplingTesting" modified="No">False</Option>
    <Option name="ResetStep" modified="No">50</Option>
    <Option name="Tau" modified="No">3.000000e+00</Option>
    <Option name="BPMode" modified="No">sequential</Option>
    <Option name="BatchSize" modified="No">-1</Option>
    <Option name="ConvergenceImprove" modified="No">1.000000e-30</Option>
    <Option name="ConvergenceTests" modified="No">-1</Option>
    <Option name="UseRegulator" modified="Yes">True</Option>
    <Option name="UpdateLimit" modified="No">10000</Option>
    <Option name="CalculateErrors" modified="No">False</Option>
    <Option name="WeightRange" modified="No">1.000000e+00</Option>
  </Options>
  <Variables NVar="5">
    <Variable VarIndex="0" Expression="trackCount" Label="trackCount" Title="trackCount" Unit="" Internal="trackCount" Type="F" Min="0.00000000e+00" Max="5.00000000e+00"/>
    <Variable VarIndex="1" Expression="showerCount" Label="showerCount" Title="showerCount" Unit="" Internal="showerCount" Type="F" Min="0.00000000e+00" Max="7.00000000e+00"/>
    <Variable VarIndex="2" Expression="RecoVertexX" Label="RecoVertexX" Title="RecoVertexX" Unit="" Internal="RecoVertexX" Type="F" Min="-9.99900000e+03" Max="2.01214218e+02"/>
    <Variable VarIndex="3" Expression="RecoVertexY" Label="RecoVertexY" Title="RecoVertexY" Unit="" Internal="RecoVertexY" Type="F" Min="-9.99900000e+03" Max="2.03759918e+02"/>
    <Variable VarIndex="4" Expression="RecoVertexZ" Label="RecoVertexZ" Title="RecoVertexZ" Unit="" Internal="RecoVertexZ" Type="F" Min="-9.99900000e+03" Max="5.04029144e+02"/>
  </Variables>
  <Spectators NSpec="0"/>
  <Classes NClass="2">
    <Class Name="Signal" Index="0"/>
    <Class Name="Background" Index="1"/>
  </Classes>
  <Transformations NTransformations="1">
    <Transform Name="Normalize" UseOffsetOrNot="UseOffset">
      <Selection>
        <Input NInputs="5">
          <Input Type="Variable" Label="trackCount" Expression="trackCount"/>
          <Input Type="Variable" Label="showerCount" Expression="showerCount"/>
          <Input Type="Variable" Label="RecoVertexX" Expression="RecoVertexX"/>
          <Input Type="Variable" Label="RecoVertexY" Expression="RecoVertexY"/>
          <Input Type="Variable" Label="RecoVertexZ" Expression="RecoVertexZ"/>
        </Input>
        <Output NOutputs="5">
          <Output Type="Variable" Label="trackCount" Expression="trackCount"/>
          <Output Type="Variable" Label="showerCount" Expression="showerCount"/>
          <Output Type="Variable" Label="RecoVertexX" Expression="RecoVertexX"/>
          <Output Type="Variable" Label="RecoVertexY" Expression="RecoVertexY"/>
          <Output Type="Variable" Label="RecoVertexZ" Expression="RecoVertexZ"/>
        </Output>
      </Selection>
      <Class ClassIndex="0">
        <Ranges>
          <Range Index="0" Min="0.0000000000000000e+00" Max="4.0000000000000000e+00"/>
          <Range Index="1" Min="0.0000000000000000e+00" Max="7.0000000000000000e+00"/>
          <Range Index="2" Min="-9.9990000000000000e+03" Max="1.7073632812500000e+02"/>
          <Range Index="3" Min="-9.9990000000000000e+03" Max="1.9361378479003906e+02"/>
          <Range Index="4" Min="-9.9990000000000000e+03" Max="4.6981155395507812e+02"/>
        </Ranges>
      </Class>
      <Class ClassIndex="1">
        <Ranges>
          <Range Index="0" Min="0.0000000000000000e+00" Max="5.0000000000000000e+00"/>
          <Range Index="1" Min="0.0000000000000000e+00" Max="4.0000000000000000e+00"/>
          <Range Index="2" Min="-9.9990000000000000e+03" Max="2.0121421813964844e+02"/>
          <Range Index="3" Min="-9.9990000000000000e+03" Max="2.0375991821289062e+02"/>
          <Range Index="4" Min="-9.9990000000000000e+03" Max="5.0402914428710938e+02"/>
        </Ranges>
      </Class>
      <Class ClassIndex="2">
        <Ranges>
          <Range Index="0" Min="0.0000000000000000e+00" Max="5.0000000000000000e+00"/>
          <Range Index="1" Min="0.0000000000000000e+00" Max="7.0000000000000000e+00"/>
          <Range Index="2" Min="-9.9990000000000000e+03" Max="2.0121421813964844e+02"/>
          <Range Index="3" Min="-9.9990000000000000e+03" Max="2.0375991821289062e+02"/>
          <Range Index="4" Min="-9.9990000000000000e+03" Max="5.0402914428710938e+02"/>
        </Ranges>
      </Class>
    </Transform>
  </Transformations>
  <MVAPdfs/>
  <Weights>
    <Layout NLayers="3">
      <Layer Index="0" NNeurons="6">
        <Neuron NSynapses="10">
          -3.2734823730788304e-01 1.9745507293474178e+00 -3.8402545398352900e-01 1.8940676292105221e+00 -1.7744308660520234e+00 -1.4832785737283800e+00 -8.3562442889319299e-01 1.9297351335424311e+00 -1.6479766589188649e+00 -1.0246002540007131e+00 
        </Neuron>
        <Neuron NSynapses="10">
          -1.9774738250815327e+00 -2.7650596777045372e-01 -1.9658302524647835e+00 3.3064789774461943e-02 -1.3605126950096538e-01 6.0455117495074928e-01 -7.6471448988442736e-01 1.4360713481262204e+00 1.2044382559697253e+00 1.2061702393259190e+00 
        </Neuron>
        <Neuron NSynapses="10">
          -6.4815714203931329e-01 -6.7084340410914511e-01 1.1698041107171750e+00 2.6285647942986434e-01 -1.4905575810828167e+00 -3.0445539327879140e-01 1.8860110293598789e+00 -1.8613200242893859e+00 -1.6369974519331827e+00 2.6757512257447358e-01 
        </Neuron>
        <Neuron NSynapses="10">
          3.6782351941626773e-01 1.7164141673755262e+00 -1.0656761765646248e+00 -3.3159262866017565e-02 -7.8233427034730282e-02 -3.4588004983523862e-01 -1.4094043277184223e+00 9.6624715466359667e-01 -6.3567996293184281e-01 1.2384615577941480e+00 
        </Neuron>
        <Neuron NSynapses="10">
          9.0793766755373306e-01 9.3949842571846909e-01 3.2829260936849608e-01 1.4328694495181364e+00 -1.0477094209967253e+00 -1.7017015570037206e+00 2.6850697862467754e-01 -6.7686999560069427e-01 2.1046164829450151e+00 1.5820422727964973e+00 
        </Neuron>
        <Neuron NSynapses="10">
          1.3561123933823152e+00 1.3598933599479155e+00 -2.2744219541379267e+00 1.1774236456390132e+00 -2.2156195894529764e+00 -9.4733718432786085e-01 -1.5933843067983480e+00 -2.5778296464261672e+00 2.0171126022489561e+00 8.4041326514847148e-01 
        </Neuron>
      </Layer>
      <Layer Index="1" NNeurons="11">
        <Neuron NSynapses="1">
          -2.2776075953590325e+00 
        </Neuron>
        <Neuron NSynapses="1">
          7.7777312083251926e-01 
        </Neuron>
        <Neuron NSynapses="1">
          -1.7645417893247035e+00 
        </Neuron>
        <Neuron NSynapses="1">
          1.0216807360494449e+00 
        </Neuron>
        <Neuron NSynapses="1">
          1.2429973018915810e+00 
        </Neuron>
        <Neuron NSynapses="1">
          -7.6380764299944159e-01 
        </Neuron>
        <Neuron NSynapses="1">
          -1.5354797856657010e+00 
        </Neuron>
        <Neuron NSynapses="1">
          -9.4572713638502712e-02 
        </Neuron>
        <Neuron NSynapses="1">
          2.3875488631442958e+00 
        </Neuron>
        <Neuron NSynapses="1">
          -1.0079007843361823e-01 
        </Neuron>
        <Neuron NSynapses="1">
          -1.3349941721126208e+00 
        </Neuron>
      </Layer>
      <Layer Index="2" NNeurons="1">
        <Neuron NSynapses="0"/>
      </Layer>
    </Layout>
    <InverseHessian NElements="5041" NRows="71" NCols="71">
      <Row Index="0">
        1.3087220488609457e+04 -5.2010160176470381e+03 -6.6822361540339068e+02 -1.7141936535066685e+04 -7.5682510978814480e+02 6.4012386284590921e+03 5.6072391507779469e+02 -5.1250757186383344e+03 1.9252878538915110e+02 3.2161608150427710e+03 1.2937025414927602e+04 -9.3521527497071365e+03 1.5231514161389209e+03 1.3610794866210240e+03 3.3368984420533934e+03 9.4288442968804411e+03 1.0916763422906020e+03 6.5679215925431345e+02 2.4586622613614031e+02 6.4770794673237733e+03 8.5368586440810559e+03 -5.4049999344198832e+03 -1.5667024489754017e+03 6.3425120024860580e+03 -1.9140696923913592e+03 1.2966737672818410e+04 3.2103451897928589e+03 -6.7866371762901126e+03 3.0664234957818906e+00 -2.7983770601039605e+03 -6.7092344535222883e+03 -4.1060918445951338e+03 5.7886707003452807e+02 -6.6385262598273002e+03 -2.5981046764599796e+03 1.2384740484543159e+04 -1.2767470930222166e+03 -7.1508116052640835e+03 1.8404457155057617e+02 -1.6159043276484008e+03 1.3311093846820579e+04 -2.1696697470353974e+03 3.2013463870844816e+01 -4.3793949715215686e+03 -2.4577021641057127e+03 1.2453478977036904e+04 8.2422931989189419e+02 -6.7577022991529666e+03 5.7862172091441414e+02 -5.1820761644732011e+02 -1.0563533847016221e+04 -3.1813005172231410e+03 1.9650991564087940e+03 -5.5082212662787233e+03 -8.1102447163480429e+02 1.1095603238257427e+04 -1.8085026560546612e+03 -7.2530967315072194e+03 -4.3052994739889346e+02 -7.6215920913559967e+02 -3.4382662967183525e+04 7.5186505726635687e+02 -3.3325292723009302e+03 1.7280433647959262e+03 8.8088619613362425e+02 -6.0005496726764059e+03 3.1894522562225338e+03 3.6751850592112896e+03 3.3163855781878704e+02 -4.9418426787088447e+03 3.4776492662572244e+04 
      </Row>
      <Row Index="1">
        -5.2010160402382553e+03 8.6052363101116079e+05 -3.7436111709609821e+02 -5.8372727803546324e+04 4.4071632070654596e+02 3.1022311748012638e+04 -2.1054484294177400e+03 -1.7675815731342882e+03 -8.0863923073414958e+02 -1.7156408044934069e+04 -1.0132307673605490e+04 4.7928734749532669e+03 1.6855771793230379e+03 7.1594759569296675e+03 7.9926494197317224e+03 -4.8370850219952117e+03 4.4884065449661575e+03 1.5256481676055118e+03 8.7635988761554790e+02 -2.6771310235978453e+03 -1.2075963799084950e+04 1.0611655592443369e+05 2.1567655920931702e+03 1.5187575098162564e+04 1.3966871629392408e+03 -1.0604104437368573e+04 -1.2970133597866188e+03 -1.2494076194353693e+03 7.0183377481121454e+02 2.0046788830057631e+03 3.0320025632730249e+04 9.3066608427098501e+04 -1.1747125195958365e+03 -7.5900120251069660e+04 -3.5410620430909476e+03 -3.5781982443157467e+03 -3.8567535213947740e+03 -1.2900251817910466e+03 -2.8398113144498016e+03 -2.7783127235756256e+03 -1.5050321769390957e+04 1.5822235661388017e+05 2.8182637392487322e+02 2.0689408528662931e+04 -1.3072478070257639e+03 -2.5004430314894093e+04 -4.4402168304768902e+03 -1.3812142899092287e+03 -1.6543072838464741e+03 -5.5855011097777024e+03 -2.5243553220917238e+03 1.3763460035772802e+05 1.4610276613448514e+02 3.4194657573909579e+04 -5.0989558244837508e+02 -2.2054513752304221e+04 1.2629706961717606e+04 -1.3443083700798452e+03 4.5552197237083055e+03 -2.4604327764895279e+03 2.5871574770535361e+04 -6.8137445654362644e+04 -4.4279345233342865e+03 1.8294749279452008e+03 -2.4084067518274176e+04 -8.9857806162868001e+03 6.9713774381662847e+02 6.6217625780006929e+03 -3.4349477655197165e+02 1.0915575769713807e+04 4.9526565178732267e+02 
      </Row>
      <Row Index="2">
        -6.6822361509430630e+02 -3.7436111765852701e+02 2.2795466410674979e+02 2.7807907368627334e+03 3.3634499050203580e+01 -1.4160751513119069e+03 1.9964828871888267e+02 5.9784024636391041e+02 6.6913300989384892e+00 1.0242441031498652e+03 -1.3309370062609960e+03 5.9950070229900325e+02 -7.7097794831423505e+02 4.9007410622589708e+02 -5.1209843362959282e+02 3.4009354492333641e+03 -4.5984824918758915e+02 -3.0082775797737122e+02 2.2569408184634188e+01 1.3278761467464471e+03 5.4898296834700875e+02 2.3169286530102909e+03 -2.0306174646563835e+02 -6.5252295483482021e+02 1.6573398884046287e+02 1.1117256524417805e+03 -7.9005257212347351e+02 5.5549179087932873e+02 -1.5997338486325390e+02 -5.9387696725009732e+01 -1.3303227641683588e+03 1.0344476280409212e+03 -7.4961371247061166e+01 2.2091271401482359e+03 4.1917241635539597e+02 1.6817742613844805e+03 6.1112133954341220e+02 5.7540404989201579e+02 1.5314022609646847e+02 -5.0690616942974884e+02 -7.8325017142098955e+02 7.3213837338865540e+02 -1.3323806123735051e+02 4.2620649447598703e+02 3.0699851022003077e+02 1.6064123705754694e+03 5.5626269196623483e+01 5.5413881368720104e+02 -7.8487262114410754e+01 -1.7800140990261946e+02 1.2852552107235456e+03 9.1785574473802023e+02 -1.0398667630434868e+02 5.8079998709493964e+02 1.6053273381657158e+02 1.8768417846545476e+03 -4.2867040155543930e+02 5.8108930296119070e+02 1.0141936178080374e+02 -2.4347897154759448e+02 3.0705041963716785e+03 -5.8872456783371535e+02 1.7791906779226592e+03 -6.9984730038431735e+00 4.2807771095765816e+01 -1.3194620240249535e+03 -1.8571658674129862e+03 -2.1368727360198932e+02 9.0627672805397097e+00 -1.2078526797224401e+03 -2.8661696971522188e+03 
      </Row>
      <Row Index="3">
        -1.7141936603108828e+04 -5.8372727768430443e+04 2.7807907399982132e+03 3.7073975119092205e+05 -2.5487760747226355e+04 -1.1032988955516281e+04 -2.0336222105139345e+03 -7.0968615457293927e+03 -5.3013332457666547e+02 -3.7361447741989352e+04 -1.3662313339988003e+04 -3.7802377659251317e+04 -1.5267659715595910e+04 3.1948557116533273e+04 -1.5886034457743161e+04 7.6529555983593484e+04 8.6897247138904913e+02 6.2093010801113560e+03 -7.1401971805815333e+02 -4.0118765776631888e+04 -6.8399037070955907e+04 2.5663270146501120e+04 7.5129684232680702e+03 -3.8832858675953728e+04 1.0361580447884868e+04 1.0696107343803593e+04 -3.9775334627827076e+04 -3.7167121511464284e+03 -5.9174249443078443e+03 7.9123485601148277e+03 4.2086803793979052e+04 2.2616879688025787e+04 -6.2244752402973991e+03 9.7977729974611604e+04 1.7406618738383189e+04 2.5349756224680539e+04 2.5133478644315641e+04 -3.9770217514809920e+03 3.6666268864732324e+03 -1.7506695557427593e+03 4.3361481998554309e+03 -1.6377287961984446e+04 2.8573682012800537e+03 1.1508800409511954e+05 1.5721613095455992e+04 2.7650148471479089e+04 -2.1702412608551629e+04 -3.8227603804571554e+03 -9.9141799225391351e+03 1.1978435826644258e+04 2.2570310461347632e+04 3.1816267062044521e+04 -1.3787318606095410e+04 1.1797451766417973e+05 1.6281513695331050e+04 1.0005563362726214e+04 3.2503059861850201e+04 -3.8736573770195246e+03 1.0834826783113580e+04 1.3331922713210806e+03 2.5744645192914766e+04 -3.1223563999580774e+03 2.8607464059435650e+04 -8.8713232714461439e+04 -1.2630011409437349e+04 -2.6964834349728426e+04 -3.8323984995815939e+04 1.2707198978004519e+04 1.0562965875222153e+03 2.3155282282847817e+04 7.8131804473513712e+03 
      </Row>
      <Row Index="4">
        -7.5682511787454132e+02 4.4071631599235116e+02 3.3634499734763267e+01 -2.5487760773599501e+04 9.9508436549671704e+05 2.1584434802189789e+03 6.2583754104629588e+02 2.0785589239723049e+02 5.6274066997527370e+01 -6.1151965604734141e+02 -1.0831119691412314e+03 -3.1152124756580033e+03 -7.1116710574862691e+02 -5.5477923367925923e+03 -5.9221061785270576e+03 3.6312846728498189e+03 -1.2391909898608145e+02 -1.4379607896646485e+02 -1.4024179609592412e+02 3.6247732943797018e+02 -1.5046961884050543e+03 -2.1680954481896724e+03 4.1985521261690496e+02 -4.0454949863232476e+04 2.7619580612899736e+03 -2.4835560692788931e+03 -2.6795349303882613e+03 1.7228178537599524e+02 1.6708636520648355e+02 -5.9885436882169051e+02 6.9049643937547808e+02 -2.3333768951218808e+03 2.4372575641631539e+02 -3.4055398775133799e+03 4.7465497100066859e+03 -2.5760459628922235e+03 6.5152747742938664e+02 1.8789175287474063e+02 1.5169888425876240e+02 -9.8155536500620656e+01 1.2601664457104757e+03 -1.6667257723838266e+03 -3.0003782923776362e+02 1.4413969884079135e+04 5.4197267929311565e+03 -1.6595080921821864e+03 4.1066909403916492e+02 1.9008864991393057e+02 -1.7555200502700200e+02 7.7270161949150861e+01 -2.8840212895037621e+02 4.2987835736516718e+03 -8.7505002518951733e+02 1.7465426928002413e+04 5.6647407694852009e+03 -4.8921175208955538e+03 1.3638025420155063e+03 1.8550250580906868e+02 -2.5336152201940422e+02 -2.4402695490571205e+02 2.3397375408684347e+03 -3.3617173715888293e+03 1.5347330316132989e+03 -1.1326375852754658e+04 2.7048577717309072e+03 3.6530570217988416e+03 -2.2575778753646991e+03 -1.0555339290198890e+04 3.0076099160669082e+02 -1.8958746600093073e+03 9.5725824148653082e+03 
      </Row>
      <Row Index="5">
        6.4012386574017582e+03 3.1022311745965926e+04 -1.4160751514427143e+03 -1.1032988895720922e+04 2.1584434766144550e+03 9.2241267353671149e+05 -3.7506539435353106e+03 1.7767586683402769e+03 1.2004980240874647e+02 -2.1303206509640295e+03 6.0207543995095184e+03 -5.1851312015208081e+04 1.1220107812385559e+04 -3.0008541241773302e+04 3.1454544022337941e+03 6.4082491132833966e+04 3.1457449997436011e+03 -5.8842068937793374e+02 -6.9988651541576894e+02 -4.2619071720825741e+03 -1.8674096816666133e+04 -1.8656531300361654e+04 1.6447909879496185e+03 1.4279133246906425e+04 -3.5798953952749143e+03 5.0524974530642678e+04 1.3664343586091643e+04 2.5084126793408850e+03 2.1101562521003434e+03 -1.0302558142770868e+03 -2.8594833754502215e+03 -2.6304065334380353e+04 6.9934608141094839e+02 -8.0847904735761840e+03 -4.8043830664296111e+03 6.4212575716458028e+04 -8.4691620486918218e+03 2.4990769633539021e+03 -1.4065764586942967e+03 2.6497419279880705e+03 2.1010913826949127e+03 -1.7536921267894955e+04 -3.1603578185527113e+01 9.7555006003634262e+03 -3.1514135842457108e+03 5.6041789391567567e+04 3.8219319787651802e+03 2.5226310467496514e+03 2.8546020412618159e+03 1.2272260246776987e+03 1.2700290496081492e+04 -3.6447754976560464e+04 5.5795024528695139e+03 -7.2912257528739749e+04 -6.2616891401113462e+03 6.6470859920105082e+04 -4.2922141921506282e+03 2.6339663882330060e+03 -3.8969400679754071e+03 2.2370725455985521e+03 -7.3167948438177100e+03 5.4568427056493965e+03 -2.4159407335127788e+04 1.8027745127872815e+04 1.6924790651995296e+04 -2.6099502025680435e+04 2.6137770520948980e+04 6.2544986237221565e+02 -2.4154888306192959e+02 -8.0776000463770361e+03 -1.4576658019388586e+04 
      </Row>
      <Row Index="6">
        5.6072391564655118e+02 -2.1054484332019338e+03 1.9964828855763011e+02 -2.0336222039490287e+03 6.2583754049071956e+02 -3.7506539483018923e+03 1.7405254019233273e+03 1.0560697048194706e+03 1.4674669839303101e+02 2.6472853458699324e+03 -7.8111901457616477e+02 -9.9995362850711390e+03 -2.3470503458385310e+03 5.7975675629248201e+02 6.8209239991723200e+02 2.6842206436264532e+03 -8.9666274310691665e+02 -5.9752507056733157e+02 -1.0478838100498332e+02 2.0840627526038734e+03 -2.7439389454613529e+03 6.0729548519147747e+03 -1.1934872205934059e+03 3.3108530050144873e+03 -6.2813747986300473e+02 5.6234232407129766e+03 -2.6175861954616212e+03 9.4509136306444316e+02 2.9080077895617706e+02 -7.9261505423408562e+02 -1.9729730148931533e+03 1.1503777181422570e+03 -1.3441011113590153e+02 4.9642537052066227e+03 -2.3017898327960791e+02 5.0398047151622113e+03 2.3675655428131026e+03 1.0255041057685694e+03 2.4688678164123999e+02 -4.5221806599902629e+02 4.8769895017125364e+03 4.0483170326253339e+03 -3.7150031118950955e+02 4.2895538316416383e+02 -7.6855929578301857e+02 6.1274473486012639e+03 5.3894603991565964e+02 9.9620073465761379e+02 -4.6959938366387075e+02 8.6478629604164325e+02 9.8218692942978259e+02 -2.4622710000286872e+01 -6.7838801609111897e+01 -8.4106329358580715e+03 -8.7543923836182580e+02 6.4756570788043227e+03 -1.4149276132047914e+03 1.0203490165369585e+03 -1.6060829958135440e+02 -3.9818014426816808e+02 1.3322677128281839e+01 -1.5317196849664583e+03 5.4840592851785841e+03 3.1315622522796875e+03 1.2810334802453388e+03 -2.6753705961413284e+03 -6.7480396011163275e+03 -2.6546006790176189e+03 6.1806255652894811e+02 -3.8763395482963556e+03 -2.7530691081165501e+03 
      </Row>
      <Row Index="7">
        -5.1250757219470979e+03 -1.7675815490190494e+03 5.9784024630942599e+02 -7.0968615558556239e+03 2.0785589182960942e+02 1.7767586681450796e+03 1.0560697032903911e+03 9.9706806003676355e+05 -4.4740197751290634e+02 -7.7646228426607713e+03 2.8865220723673701e-01 2.8964952736409091e+03 -2.2620681989464638e+03 -5.2231621758365727e+03 -2.1488240656917724e+03 -6.4165684076757752e+03 -1.1871086838612468e+03 1.7373883472084999e+03 8.1609406588343745e+01 -8.7016738599156906e+03 5.2341423720158773e+03 7.4733895017014529e+03 -8.8952144453733047e+02 2.7796747711423236e+03 -6.3451315960831562e+02 -5.9017356248344340e+03 -9.5538881559665913e+02 -2.4086938283273930e+03 -1.1939351003062129e+03 2.5329390649606744e+03 -5.9951066448329384e+03 1.9891389037578663e+03 9.7337347181987559e+02 -3.5569586409153578e+02 -2.8819629427624227e+02 -5.0007924913651514e+03 8.0195923501338655e+01 -2.5238183583356440e+03 -1.8729398628005396e+02 1.0376038559074850e+03 -7.3910709616213580e+02 -3.5244315556817301e+03 -4.4605914448602101e+02 6.8273053457162735e+02 -3.2184884857074712e+02 -1.2696638203241951e+03 6.0592980090737922e+02 -2.4730866647183429e+03 7.8885523348185643e+02 1.1748456291863863e+03 7.0650703174414684e+02 -2.3504129549434765e+01 -1.1358714062238905e+03 -1.2474361150852445e+04 -3.7515239016612702e+02 -4.5020321164393990e+03 -1.1820795228392844e+03 -2.5341879054121673e+03 6.7045200048925608e+02 1.3600877539699959e+03 6.2475900536122708e+00 -2.2009724465262407e+03 4.4224216637503050e+03 4.1149095254061976e+03 1.8855640405317463e+03 5.0368068270117692e+03 -4.4756995722560750e+03 6.1741919321271043e+03 -1.2883801304142980e+03 4.8020753776583888e+03 7.2568965881485383e+03 
      </Row>
      <Row Index="8">
        1.9252878571913425e+02 -8.0863922754547320e+02 6.6913300218080192e+00 -5.3013332378036216e+02 5.6274066803910145e+01 1.2004980108535597e+02 1.4674669827839330e+02 -4.4740197725966573e+02 7.7272042147070920e+01 -1.1077254355952841e+03 -4.5985982449575386e+02 -7.5467768534647053e+02 -1.6061190712936690e+02 1.7927676336991254e+02 3.6342011934154061e+02 -4.6686598515845753e+02 -3.8864045239734963e+00 2.9036111403629184e+02 -2.9325437467051035e+01 -9.2532102213318581e+02 -6.8732765177486908e+02 -2.1736783329863135e+02 -1.0508144905917877e+02 6.7650962281483373e+01 -9.9293000164432783e+01 1.0655352682571106e+03 -2.9672425467333306e+02 -3.4114088839810120e+02 6.3355347700996461e+01 -3.0191088703044841e+02 1.8373908301782478e+02 1.1597790747740405e+02 -4.9844333993952894e+01 4.7254165029892368e+02 -9.2123718147504064e+01 4.2262110281626508e+02 2.5613319713137946e+02 -3.5481766179390252e+02 5.7626032565597050e+01 -4.5835981574952120e+02 -6.4313089828682052e+01 1.4028682269418975e+03 3.3023637797729720e+01 -2.0069883951899280e+02 -1.5477595801842608e+02 9.9062375054047720e+01 8.1980891677164436e+01 -3.4926594338713039e+02 -6.9444066838376429e+01 -3.3123869911705128e+01 5.8641115027296382e+02 -2.9478134657425500e+02 1.0126008410009732e+01 -5.9564675175632988e+02 -9.8806664524089172e+01 8.9581961120021117e+02 -7.6275796570320651e+01 -3.5474184991954826e+02 -8.5646699516304082e+01 -1.3341656648661046e+02 1.1210180209077514e+03 1.1111389341066590e+02 3.9343927911867502e+02 2.3895572651122049e+02 8.3928561472257968e+01 -4.7685632087768903e+02 -5.3447258586298790e+02 1.5606799214779853e+03 1.7079382174815143e+02 -7.6356883770175295e+02 3.1937783906022548e+02 
      </Row>
      <Row Index="9">
        3.2161608545465278e+03 -1.7156407943530987e+04 1.0242441016026667e+03 -3.7361447550721146e+04 -6.1151965171028132e+02 -2.1303207486599131e+03 2.6472853594658136e+03 -7.7646228400766850e+03 -1.1077254350657950e+03 9.2325902848962788e+05 -1.5017185662939446e+03 -1.8784766101141613e+03 -3.1890973315367337e+03 -1.2662106376975244e+04 4.7381638656876621e+03 1.4366825709450895e+04 -2.7116867633578618e+03 5.4152051793336868e+03 1.1916596221200450e+03 -4.1421222958662547e+03 2.0640484417600805e+04 1.1374514851033244e+04 -2.7007175708059399e+03 -7.6798277281823175e+01 -4.8454847216510825e+02 -9.1985973591314360e+03 1.8219287683394620e+02 -5.6486520852135873e+03 -2.4223875300350105e+03 -1.6166580713285948e+04 -2.2423460120794189e+03 -8.3435513348388122e+02 2.0892160181613558e+03 -1.2909440322329574e+03 5.6553163810175465e+02 -3.3643311265944467e+03 -2.3421412566735771e+03 -5.8278611266314983e+03 -6.2351070174600659e+02 -1.6551977540844557e+04 -1.2152943891005201e+04 -1.3313033344897012e+04 -3.3587065837551127e+03 -4.5531985305011858e+03 1.1887129665338871e+03 1.5844799861380088e+03 4.4727703256556388e+03 -5.9042297706857789e+03 4.5353227094520525e+03 -2.7021407280619227e+04 -7.4516732487446716e+03 1.7438131818698123e+04 1.6994133937610150e+03 -2.2054874199159985e+04 -2.2352686029908700e+03 -1.6149677834554634e+04 -4.9702711010197645e+03 -5.9855580603778362e+03 -7.8344924115023662e+02 -2.4213047817012761e+04 5.2067299236130521e+03 1.6472931039860232e+04 5.9338412863908816e+03 3.5550043196382103e+04 -3.0088823694292729e+04 -1.8719292871839796e+04 -6.0526472817192116e+03 1.7101790946939462e+04 -4.2901365859904899e+03 -1.0044334044608791e+05 1.4615942985899006e+04 
      </Row>
      <Row Index="10">
        1.2937025394209661e+04 -1.0132307742667263e+04 -1.3309370034053748e+03 -1.3662313182715998e+04 -1.0831119450754954e+03 6.0207543637720019e+03 -7.8111901153971758e+02 2.8865683078765869e-01 -4.5985982455850171e+02 -1.5017186750816181e+03 4.1457699248841498e+04 7.2758770867595422e+03 1.3172848851772874e+03 -4.8908509965821071e+02 -2.1754314424014115e+03 7.8597676474763548e+03 2.1697556788493894e+03 1.5425440740585327e+02 -9.7033928692748788e+01 -3.4893804855372723e+03 -1.2912931272669775e+04 -8.4849939300188726e+03 -2.8078852576800404e+02 7.8227856634652312e+02 -1.5624514034482804e+03 1.0342377258283879e+04 7.3618936026249721e+03 1.9986043089984082e+02 -4.7658494952727426e+02 2.1803522387194171e+03 -1.5503070239466853e+04 -1.0842453560268398e+03 1.4614886909045092e+03 -5.3135914786071753e+03 -2.3382987556128942e+03 9.8888142156992471e+03 -5.1640078928563353e+03 1.7702694356441498e+02 -2.9181108938409938e+02 2.1484554319520830e+03 4.3285731534709223e+04 -5.5055234124018407e+03 2.3374817622618657e+03 -4.1064169774375259e+03 -2.0756571032669517e+03 9.3399561228087096e+03 -1.9262462425493468e+03 7.9041357254056493e+01 1.7091502867359739e+03 -9.4379020147009578e+02 -5.0776941092539018e+03 -5.4165330683790335e+03 -2.7231762761425634e+03 -1.9979289390407162e+03 8.0073858073626695e+02 1.0813382852801020e+04 2.0445496253648778e+03 1.7308894198760390e+02 -8.7301115430563004e+02 1.9037902311544822e+03 -1.1012752046718393e+05 3.6202163069171729e+02 -6.5854463714954763e+03 -2.6674813054636652e+03 3.5455625704447320e+03 -4.2333484360361981e+03 9.2475995949589415e+03 -5.3564094904334605e+04 -1.1426724277141357e+03 6.9655476443438438e+03 5.2645186672730488e+04 
      </Row>
      <Row Index="11">
        -9.3521527640474378e+03 4.7928734507673362e+03 5.9950070788392566e+02 -3.7802377684606479e+04 -3.1152124717867337e+03 -5.1851312004132371e+04 -9.9995362752991514e+03 2.8964952704012394e+03 -7.5467768209021187e+02 -1.8784764251342276e+03 7.2758769652671763e+03 4.5899073389925121e+05 6.8535234236643410e+03 -2.8716504447961579e+03 4.5857279915469990e+03 1.1172332752580076e+05 7.4688355298754504e+02 1.4316813388466835e+02 -2.6709359592918912e+02 -1.9649803301208885e+02 5.6457438234157118e+04 -9.9189093663044805e+03 3.7555633777145622e+03 6.4272889072802704e+04 6.0657756267535151e+03 7.3255143607898965e+04 1.8548993727688634e+04 3.8230824860566136e+03 -2.4323002294181938e+03 1.0601026966109173e+04 -7.1912152770128101e+04 -2.2900350616984826e+04 9.4348077201411124e+03 -2.0984841907856215e+05 -3.1391714035901095e+03 3.4232649053641289e+04 -2.2653935019994995e+04 3.9644933253377676e+03 9.7484476557213293e+02 -3.5988211249895394e+03 -2.0619881882461486e+04 -2.5920176113409660e+04 -8.1353133456174874e+02 1.5003070377624812e+04 6.3945300675140170e+03 5.3700946949822595e+04 3.6926199926781724e+03 3.6489542219052091e+03 3.6799947468175014e+03 -4.9537637779414508e+03 2.6321864693787473e+04 1.5916187271339804e+04 -6.7235079839836080e+03 1.4074120482251386e+05 6.8909570793495222e+03 6.1350420703528915e+04 3.4967343228020836e+03 4.0075894945859909e+03 -2.6490909615850378e+03 2.3203345105050830e+03 -1.3244970962243466e+04 1.2658254797613845e+03 -1.9865432254329484e+04 -6.7881587023361280e+04 -5.6971090227872555e+03 -5.0598578485001890e+04 3.2247073246893000e+04 -1.6264110087315175e+04 -4.2100314322868344e+03 2.2252350073321417e+04 -4.9910094629275545e+03 
      </Row>
      <Row Index="12">
        1.5231514217162912e+03 1.6855771857228697e+03 -7.7097794866776974e+02 -1.5267659728606232e+04 -7.1116710625335156e+02 1.1220107822510146e+04 -2.3470503459996735e+03 -2.2620682012662292e+03 -1.6061190738413006e+02 -3.1890973004262196e+03 1.3172849069753429e+03 6.8535234348164913e+03 5.4934689064078284e+03 -3.2652242620654442e+03 1.1611143304005693e+03 -1.5235962852523577e+04 1.8799867888665331e+03 1.0068711386024952e+03 1.9890837101096258e+02 -2.7138333270891180e+03 5.5783734112221982e+03 -1.3494986284576882e+04 1.2489133024666003e+03 1.4544088319613940e+02 1.2448775644897643e+02 -1.1009351574229222e+04 6.4271040516491430e+03 -2.1689596193333373e+03 2.7028521748134193e+02 -3.0846532118452762e+02 3.7358872464409956e+03 -5.4811463738776156e+03 3.4564101290182833e+02 -1.5154138377350433e+04 -1.2202601428778885e+03 -1.2019559919882251e+04 -4.6310769135196642e+03 -2.3127968816012144e+03 -7.9898695510753464e+02 9.6699283343580828e+02 -6.0840436447130051e+03 -1.0171951842270932e+04 2.4801474106723623e+02 -5.3567213369836509e+03 -1.0620240194650796e+02 -1.0423554103760949e+04 2.2826023933228899e+02 -2.2194769280958394e+03 1.0554832434943116e+03 -8.2780580107763421e+02 -4.4292990766734938e+03 -3.3605552373552882e+03 2.0314707440803463e+03 4.1025501956688004e+03 -1.3106981525826052e+02 -1.4031525333562684e+04 5.4598831201194434e+02 -2.3152364084920846e+03 -2.7075020576871856e+02 2.5781430639767950e+02 1.9148668808682271e+02 4.4570917151810581e+03 -1.1793867799131993e+04 -1.1173661521379775e+03 -2.5550931377651314e+03 7.1070126389048410e+03 1.3467031295178962e+04 6.9458904145197484e+03 -7.3432950096284378e+02 4.0306961737896158e+03 5.3273944868874187e+03 
      </Row>
      <Row Index="13">
        1.3610794721422717e+03 7.1594759854221866e+03 4.9007410693348965e+02 3.1948557133389317e+04 -5.5477923322663628e+03 -3.0008541264283573e+04 5.7975675426886119e+02 -5.2231621714234352e+03 1.7927676361891281e+02 -1.2662106407136191e+04 -4.8908514836872928e+02 -2.8716504495346853e+03 -3.2652242586024822e+03 2.2723753698984536e+04 -3.7179988762289286e+04 -3.1170973407309983e+04 -1.0283802805662042e+03 2.6853632780313492e+03 -9.6793953595679341e+00 -1.2791697894982437e+04 2.3951021502870026e+02 1.0453742025825424e+04 5.0073079239513322e+02 4.3802982200956621e+03 7.1897616471032597e+03 2.7732582147681151e+04 -6.2703796141360854e+03 -4.7350484049369152e+03 -7.8704755188196850e+02 2.0366791195246642e+03 7.8876256104535023e+03 -2.3828256604752543e+04 -1.1412093093931176e+03 2.1089508721743186e+00 8.8645003288103908e+03 4.6247476231264642e+04 4.1414113606029277e+03 -4.9559351953566074e+03 7.0673638998268439e+02 2.2232435560636222e+03 4.2222749421990011e+03 1.0044255012967977e+04 4.9292858203135870e+02 6.3357149105861363e+03 7.3806498885007022e+03 2.8048038250945225e+04 -1.4341674591196002e+03 -4.7867096119840862e+03 -1.3931951924259492e+03 1.4133995797962016e+03 -1.0916259217569010e+04 5.8775182406354052e+03 -2.0198366758148095e+03 3.8703134983501732e+04 9.6984740649480555e+03 3.0860098962107440e+04 1.9439950681292382e+03 -4.9847180159837008e+03 1.2165248995968282e+03 1.0877551073687500e+03 -7.1596326252655774e+02 -4.2446883177574418e+03 7.5438540033461795e+03 -2.0436088040461975e+04 3.2397708997435429e+03 -2.0700719849439905e+04 -8.4700830155039002e+03 1.2516647350995436e+04 4.7263578456566620e+02 5.7502630816676619e+03 1.3903497221692502e+04 
      </Row>
      <Row Index="14">
        3.3368984258385608e+03 7.9926494512599020e+03 -5.1209843230873685e+02 -1.5886034467861915e+04 -5.9221061751499074e+03 3.1454543979425821e+03 6.8209239987029196e+02 -2.1488240639269352e+03 3.6342011937112056e+02 4.7381638585866895e+03 -2.1754314801540459e+03 4.5857279954203823e+03 1.1611143300314493e+03 -3.7179988767532057e+04 9.7717957926284918e+05 -1.1552956063084028e+04 1.7525965363982700e+03 9.7441972506046295e+02 -5.8173950751465782e+01 -6.6416606946498941e+03 -8.8738347342132984e+03 1.8696519956434691e+04 3.4490193978421989e+03 -4.8950247310747451e+04 4.1867561577511369e+03 -1.6793358301620916e+04 -5.5620879882487616e+03 -1.9404824816450491e+03 5.0479925623159158e+02 1.3408333256259648e+03 -5.6900313982296211e+02 6.8464030120967363e+03 2.1112788179344143e+03 -8.7880653655442584e+03 7.5051103084076894e+03 -1.2007637596002089e+04 -1.0395607895438689e+03 -2.0428463223278522e+03 -3.4078342764671561e+01 2.5989717060045805e+03 2.7539676668678876e+03 -6.0844169726464315e+03 -7.1109603868271097e+02 2.1484669197203566e+04 8.6041924197649350e+03 2.5774700532222050e+02 1.6446841587198680e+03 -1.9404438903718255e+03 -5.7498561074542340e+02 4.4529025546537960e+03 7.6379161127245170e+03 -4.2609199595965474e+03 -3.7793737312460034e+03 6.7825240314895200e+03 9.1988091982983970e+03 -4.5512189017227502e+03 5.8629676004352968e+03 -2.0267293313741684e+03 -2.2999614332887359e+02 2.7886737899649888e+03 5.8830809486725684e+03 -2.5411278798617368e+03 -1.7871589695884541e+03 -8.7769433458557578e+03 9.1751596475489987e+03 8.5728015153416654e+03 -3.9390223982054522e+02 -1.1432462979008205e+03 5.5147405727689011e+02 9.2941858868036743e+03 1.1888235793222926e+04 
      </Row>
      <Row Index="15">
        9.4288442682684399e+03 -4.8370849504192556e+03 3.4009354487967948e+03 7.6529556056927773e+04 3.6312846880899742e+03 6.4082491097575745e+04 2.6842206353851798e+03 -6.4165684009790421e+03 -4.6686598779440828e+02 1.4366825501136482e+04 7.8597676691133529e+03 1.1172332760106681e+05 -1.5235962852320701e+04 -3.1170973395149038e+04 -1.1552956045948929e+04 8.3315991626183083e+05 -6.9117219280884729e+03 1.7880484714508057e+03 7.3572479009746166e+02 -1.6777845054473437e+02 5.4051585290688090e+04 3.0208502880628963e+04 -2.4377042121163495e+03 1.9226686966446359e+03 -4.7329870596461478e+03 -4.9914617916373973e+04 -1.8235836301959866e+04 -7.6695345235411005e+03 -5.2468874281355929e+03 7.1170781325099852e+03 -3.4293926864794834e+04 2.4921472868725763e+04 2.1744731696163205e+02 3.4624503607011604e+04 -2.7432436673123302e+03 -7.0438421294004045e+04 9.1683461825783161e+03 -8.0603635536432266e+03 1.3661576015765395e+03 -7.4031026014441159e+02 3.1723217685115524e+04 5.0114788674173062e+04 8.7444557134856950e+02 7.3863762787061190e+04 -3.0793236767514682e+03 -6.6199696448767034e+04 -7.9880168818500852e+03 -7.7281403189226985e+03 -3.5623507076455599e+03 4.6822093993476774e+03 -4.1448434165124716e+04 -1.3947136244397712e+04 -9.2105300458768470e+03 -9.2075589023187393e+04 -2.7136910727536633e+03 -4.3926820672263217e+04 8.4468893602523349e+03 -8.2005398987531662e+03 7.7690495780548827e+03 4.4444132398705697e+03 -4.7999954437355198e+04 -5.1505381952731841e+03 3.3470888918559882e+04 4.8525537993127880e+04 1.3828994928614571e+04 4.5967751579898279e+04 -3.4814582991346688e+04 -4.7780987111863178e+03 -1.0405833633021984e+03 9.5265881080408399e+03 4.8246332348345408e+04 
      </Row>
      <Row Index="16">
        1.0916763402945071e+03 4.4884065473726087e+03 -4.5984824910223028e+02 8.6897247556580260e+02 -1.2391909736540401e+02 3.1457450001713387e+03 -8.9666274346670207e+02 -1.1871086843833327e+03 -3.8864047484657931e+00 -2.7116867674335372e+03 2.1697556835950236e+03 7.4688356564140213e+02 1.8799867882420476e+03 -1.0283802803470114e+03 1.7525965385995223e+03 -6.9117219311849776e+03 1.5133575475948567e+03 5.6839259755611420e+02 -6.1624908108113232e+01 -2.4888755293477261e+03 -3.8683522037023199e+03 -6.9259850272795211e+03 8.6533955674997299e+02 1.0342752616999137e+03 -1.5810562867482918e+02 -4.0862974592637170e+03 1.1533755313849319e+03 -1.0482135465599065e+03 1.2809193884257041e+02 4.5848101576031530e+02 5.3224271815334823e+03 -2.0099996191801022e+03 1.4900742061313736e+02 -5.4227562605783778e+03 -7.9611185098195051e+02 -6.3633115689785864e+03 -1.2540168317367300e+03 -1.1058587068617344e+03 -1.7973024809999728e+02 7.3838608431597822e+02 -6.2906444152846234e+02 5.1322375642658108e+02 5.1633001371621026e+02 2.8285791661643798e+03 -4.8911452538427193e+02 -7.9325878140102595e+03 -6.9779227884758075e+02 -1.0581139648691133e+03 6.4969944430274765e+01 -1.8633941703540768e+02 -6.1628283687662315e+02 -1.9353907219991527e+03 -1.5710614896473567e+02 1.9282807921393573e+03 -1.7511350327392620e+02 -6.7701863763729143e+03 2.3245843741787035e+03 -1.1069748469768092e+03 -9.2321383557553219e+01 5.3474946412511235e+02 -4.2952989635887197e+03 1.8613685534870856e+03 -4.6449916166448265e+03 -9.2744241743584598e+02 -4.7976043358932520e+02 4.0912871963384546e+03 4.6598353006209509e+03 9.7875689531889043e+02 -2.4835792439114712e+01 3.1999139976364804e+03 4.8897923914861931e+03 
      </Row>
      <Row Index="17">
        6.5679216072600684e+02 1.5256481528949635e+03 -3.0082775790112186e+02 6.2093010887909077e+03 -1.4379607788301655e+02 -5.8842069127888635e+02 -5.9752506964693021e+02 1.7373883474767208e+03 2.9036111416977474e+02 5.4152051757422742e+03 1.5425441067825886e+02 1.4316813330723880e+02 1.0068711366070120e+03 2.6853632815122687e+03 9.7441972640049062e+02 1.7880484762783208e+03 5.6839259727314243e+02 9.9885798723758757e+05 -9.5025029458496874e+01 6.2912168508119721e+03 -1.5968821712760855e+03 -3.5524789011286339e+03 4.9231947028279643e+02 -1.9071324894304362e+03 4.0754255217340938e+02 2.3824928859088777e+03 2.3028357437656564e+02 1.3513486428287924e+03 7.0318029345020580e+02 -1.7576649146468726e+03 2.3747049357284800e+03 -6.1111461767183164e+02 -5.2971939295776406e+02 6.9361406728942666e+02 2.5678001952052182e+02 1.9995303346286946e+03 6.9626407777557688e+01 1.4046593070030212e+03 2.1212697460024523e+02 -8.7898240815661848e+02 1.0885057525544544e+03 2.8998016617548747e+03 3.6360046633789096e+02 5.8532435124448466e+02 2.7147380587213729e+02 -2.6872996246389266e+02 -5.1356838456726234e+02 1.3904596981024370e+03 -5.5603152492295726e+02 -9.0463068452522930e+02 -1.3449584340072238e+03 4.5472530147743146e+02 3.1671947735745528e+02 7.6161928857754938e+03 3.4973357078378001e+02 1.6917129685854088e+03 8.9003020052830618e+02 1.4142321351859719e+03 -4.4793714297914005e+02 -9.0638976239106341e+02 -1.9544557051627771e+03 1.2621603968309578e+03 -1.9438990072545112e+03 -2.1569169421545680e+03 -1.3119769324687663e+03 -2.5472361829525234e+03 1.9921497062841618e+03 -4.4195088702799967e+03 8.7980615624947052e+02 -3.0502235220014936e+03 -3.0744215943544832e+03 
      </Row>
      <Row Index="18">
        2.4586622697412167e+02 8.7635988719534123e+02 2.2569408144978141e+01 -7.1401971992326480e+02 -1.4024179629203718e+02 -6.9988651453333853e+02 -1.0478838090660619e+02 8.1609406400471926e+01 -2.9325437460468578e+01 1.1916596253724856e+03 -9.7033927053489606e+01 -2.6709359671648372e+02 1.9890837100028341e+02 -9.6793956803599173e+00 -5.8173951040509564e+01 7.3572479056687791e+02 -6.1624908081268529e+01 -9.5025029322132468e+01 7.8239838717823034e+01 1.5613246283779299e+03 1.9465692955723907e+03 1.5668019518399342e+02 -8.5048722986118847e+01 -1.4492428177385491e+01 5.6197043974636017e+01 -6.6714403870105889e+02 4.2283632424565411e+02 6.0196813113758708e+01 -1.1558158323439005e+02 -1.4978636520003067e+02 -2.3612339300555382e+02 -3.1044896740832610e+02 3.7058124874479709e+01 -5.6841741813837120e+02 5.8227215066796361e+01 -5.7578097596683790e+01 -2.3398082156298798e+02 4.8591171265579760e+01 -1.0964321578571941e+00 -2.1960935920704651e+02 -1.0275117331140427e+03 -1.0645458767999542e+03 -8.6373281410134553e+01 -4.1478008082655992e+02 1.2215105825309649e+02 2.0905941185517383e+02 8.8350562023437760e+01 4.8280653352525405e+01 1.0853072786593165e+02 -1.8767549644921291e+02 -8.3608395412446873e+02 2.0566415420514591e+02 2.8519151652180147e+02 3.2618195532831226e+02 4.2370275095127681e+01 -4.5580749577461154e+02 -3.3611611074362361e+02 5.2392885597888380e+01 9.1838540266467433e+01 -1.2012015758505368e+02 4.4231385902809285e+02 8.4735754099210226e+01 -3.2910255498953654e+02 -3.3263078885470875e+01 -2.3956926679340768e+02 5.2078109393296437e+01 4.7490463248914392e+02 5.2002239632867600e+01 -1.1726527829746952e+02 -2.3889385460097728e+02 -3.2886502366720407e+02 
      </Row>
      <Row Index="19">
        6.4770794251628686e+03 -2.6771310274862917e+03 1.3278761464071565e+03 -4.0118766127679963e+04 3.6247731179127004e+02 -4.2619070226372805e+03 2.0840627274314520e+03 -8.7016738672852516e+03 -9.2532102401133852e+02 -4.1421222168146633e+03 -3.4893805984163191e+03 -1.9649780346535772e+02 -2.7138332697206670e+03 -1.2791697965991118e+04 -6.6416607263854239e+03 -1.6777874218672514e+02 -2.4888755292343299e+03 6.2912168509960175e+03 1.5613246336889761e+03 9.1902655347481836e+05 9.8518860441901052e+02 1.3873612734025228e+04 -3.2228228579078018e+03 1.7446264290906060e+04 -4.2509512699851875e+03 -9.1807489850526763e+03 4.7435455577816538e+03 -6.4840403222820933e+03 -1.7744771035204444e+03 3.6600614693162381e+04 -1.1760578613802714e+04 -1.7590328853672254e+03 2.4927928341358142e+03 -4.1541115170123339e+03 -3.8971311940316591e+03 -4.4834882651682783e+03 -1.9647369071042122e+03 -6.6293792706131935e+03 -9.8627215521909704e+01 3.3688562753245438e+04 -1.5650527824901743e+04 -2.8075056241954113e+04 -1.9576549542639125e+03 -1.0284133157115848e+04 -3.9027724498166863e+03 1.0571243958549909e+04 3.2459411863045780e+03 -6.6033739075884223e+03 3.0822758561090745e+03 3.7843122041685216e+04 2.3546207354136233e+04 -1.4319981447651406e+04 1.1439028760972942e+03 -6.1283048387741917e+04 -3.2312362679003427e+03 4.7857606785505777e+02 -8.6891054469497849e+03 -6.6721524611897767e+03 6.4550175321368033e+02 3.9135140573277633e+04 1.2558439369070738e+04 -3.8928824626099602e+04 4.8070782102162884e+03 -1.7984655228772255e+04 4.6649957127588474e+04 4.7064061241976531e+04 -3.6618748661606624e+03 2.4280862085665212e+04 -3.3671506506593614e+03 1.5411311261576158e+05 1.1063794303920899e+04 
      </Row>
      <Row Index="20">
        8.5368586502725957e+03 -1.2075963797420874e+04 5.4898296972315893e+02 -6.8399037115699262e+04 -1.5046962005938403e+03 -1.8674096789215073e+04 -2.7439389415807163e+03 5.2341423647403717e+03 -6.8732765003576060e+02 2.0640484555470757e+04 -1.2912931317478884e+04 5.6457438207962259e+04 5.5783734125148840e+03 2.3951020746554809e+02 -8.8738347557745874e+03 5.4051585244891932e+04 -3.8683522075573946e+03 -1.5968821671009064e+03 1.9465692962555440e+03 9.8518841476924717e+02 4.5090091340581217e+05 3.6735827486474067e+04 1.1569059912405350e+04 5.5387224234690730e+03 1.1485039621919159e+03 6.4422600798472558e+03 1.7675645259856756e+03 5.5251118326017822e+03 5.6619492718107303e+01 4.6307314850210150e+02 -1.7748111879663360e+04 8.7633104227104686e+03 2.1774851434217017e+03 -1.2939825912788932e+04 2.2294488885584487e+03 5.8744390695452297e+04 -1.1218146428123349e+04 5.8809895298480988e+03 -1.7189262230346603e+03 3.0063037946806289e+03 -9.6671096461875830e+04 -3.8117426613751886e+04 -6.9175900250105005e+03 -4.6690480450862095e+04 2.4493982936944608e+03 6.3856652289988589e+04 1.0595866066225499e+04 5.6270917410878465e+03 2.9515185279045090e+03 7.1771994142591138e+03 -3.3647375448145531e+05 1.0627688605911721e+04 -2.1438659646745464e+03 -4.5190099405979126e+03 8.5266710548147239e+02 3.7046500751482410e+04 -4.8204850689510222e+03 5.9340280243456364e+03 5.7542607838272124e+02 2.3282015513824299e+03 3.4339115946201178e+04 -1.1245399700023238e+04 -8.6069857914025342e+03 -1.6534248142530159e+03 1.9177761482808201e+03 -2.2492425613703443e+04 1.5841928817268199e+04 8.2937945516246764e+03 -4.5104384794991402e+03 1.1135779961715858e+04 -3.9759274147194308e+04 
      </Row>
      <Row Index="21">
        -5.4049999030903564e+03 1.0611655590296000e+05 2.3169286525744678e+03 2.5663270127124473e+04 -2.1680954512277385e+03 -1.8656531304052070e+04 6.0729548484103943e+03 7.4733895383775234e+03 -2.1736782808960379e+02 1.1374514992060838e+04 -8.4849940709534567e+03 -9.9189094539495709e+03 -1.3494986269551355e+04 1.0453742052075293e+04 1.8696519992795074e+04 3.0208502983044251e+04 -6.9259850263609460e+03 -3.5524789241552353e+03 1.5668019553178601e+02 1.3873612778134644e+04 3.6735827473194149e+04 6.9407474955313699e+05 -7.2206124515136707e+03 -1.0324631787101160e+05 2.8379897220770472e+03 8.1091158081808680e+04 -8.8022390465804820e+03 6.6571954262293693e+03 -9.9104232634620757e+01 2.2346006917375635e+03 -3.2680867301268707e+04 -1.5477622287523915e+05 -2.3374512700203413e+03 3.6547205253162414e+04 -2.0937993105823989e+03 2.5323396484076628e+04 1.1716548571810834e+04 7.1244808212220669e+03 1.9028027460458161e+03 -1.9938789398255758e+03 3.4078972394734155e+03 -1.3427938848174457e+05 -1.3837286135415220e+03 4.2107928504964453e+04 9.0371320539875887e+02 1.9635245475859105e+04 -5.9076599840519339e+02 6.7976853302065283e+03 -1.7055473071618228e+03 -1.6213661636045363e+03 -5.9260778903288301e+03 -2.0186388473364510e+05 1.1212261041095703e+03 3.8258551829950949e+04 4.1244376993555416e+03 4.0703806074566397e+04 -1.0199141798349170e+04 7.0708201290033758e+03 3.9678232570420187e+02 -4.2153407197686465e+02 1.2465153547760376e+04 1.0395229776397882e+05 3.0234038692506350e+04 -4.9780498981273966e+04 3.3422146869034892e+04 4.4311267628324276e+03 -3.3213347668032497e+04 -1.9416827379943392e+04 1.1507016517301404e+03 -3.3659348325436134e+04 -1.8070498942640890e+04 
      </Row>
      <Row Index="22">
        -1.5667024554402706e+03 2.1567655989265559e+03 -2.0306174602601806e+02 7.5129684223236281e+03 4.1985521355589299e+02 1.6447909897175873e+03 -1.1934872212137043e+03 -8.8952144570834935e+02 -1.0508144925741567e+02 -2.7007175752563344e+03 -2.8078853380586224e+02 3.7555633922257971e+03 1.2489133028931089e+03 5.0073079043231064e+02 3.4490193972032284e+03 -2.4377042273637853e+03 8.6533955607247003e+02 4.9231947076320648e+02 -8.5048722802258112e+01 -3.2228228548594925e+03 1.1569059921278929e+04 -7.2206124521528436e+03 3.2380978880076877e+03 -4.6654259663267294e+02 -1.2190289867994488e+02 -1.1024794677437228e+02 -1.1139904515782694e+03 -7.5573620147655538e+02 4.1080683945695188e+02 3.9213493913239932e+02 5.0515549516026094e+03 -2.3166912398139111e+03 -2.1793490781309384e+02 -1.5021243810912028e+02 -4.1288306036592212e+02 -3.8475874975511738e+03 -9.9528994781738584e+02 -7.9261213584430516e+02 -2.9161912423341892e+02 1.6913496641159290e+03 -4.5534524330877757e+03 2.1609333518853673e+03 4.5151864100369062e+02 8.6937961985075981e+02 -7.9166536570307971e+02 -8.5518313146500659e+03 -9.4223992586293002e+02 -7.6667790380364750e+02 -7.0788990933615537e+01 -9.0539755455796694e+01 -1.2441598147600787e+04 1.0482523460746379e+03 -2.4466505304668544e+03 5.5494077112226751e+03 -2.6935399049674902e+02 -7.7998796931228098e+03 4.0031436529456732e+03 -7.9489177213981748e+02 -1.6261078140846837e+02 9.4062184119295853e+02 1.6921609728165315e+03 4.5948447685444035e+02 -3.3079012886623850e+03 -2.0133832692827468e+03 -1.2171051078445448e+03 4.0727670241545161e+03 3.8869876181926129e+03 3.4148179340300967e+03 -3.1064825714537551e+02 5.9940368289900689e+03 7.9832507975780675e+02 
      </Row>
      <Row Index="23">
        6.3425120166107372e+03 1.5187575101722319e+04 -6.5252295603800167e+02 -3.8832858657015633e+04 -4.0454949871126737e+04 1.4279133242307158e+04 3.3108530051223115e+03 2.7796747789680958e+03 6.7650963035952373e+01 -7.6798284015036188e+01 7.8227857664070325e+02 6.4272889040674600e+04 1.4544088218762516e+02 4.3802982316683629e+03 -4.8950247305855504e+04 1.9226687558096019e+03 1.0342752642822697e+03 -1.9071324933767319e+03 -1.4492428955126343e+01 1.7446264329775702e+04 5.5387224033540042e+03 -1.0324631790300459e+05 -4.6654259264633129e+02 1.8731443097075145e+05 3.0300203777900679e+04 3.5329175269964486e+04 -5.1824088092503848e+02 2.2367066346413121e+03 4.1286741405829662e+03 -6.0440875828446297e+03 1.2001358753268636e+04 -9.2625116070314150e+04 2.5770050988130338e+03 -1.5357196379113491e+05 5.3607491036855034e+04 4.0294429665761081e+03 1.5773683063203780e+03 2.3234020502865314e+03 1.6283408818845003e+03 -6.9447345957619837e+03 9.8193075183487963e+02 2.6628911327242153e+04 -3.0123692865433813e+03 2.8552028617873410e+04 5.1607404744023341e+04 -1.4848567545915343e+04 2.6659184668945627e+03 2.2979387935874984e+03 -8.1968192615443149e+02 -4.8276252254448773e+03 -1.5829960873092234e+04 -2.5440775385618181e+03 7.6239821265404635e+02 -3.1278575528966023e+04 5.3589367910976442e+04 -1.5894254733825219e+04 -3.4634875724371404e+03 2.3214945084527135e+03 -4.5274599453408982e+03 -5.7313277819304494e+03 -2.9609806250437618e+03 1.2824823781871739e+04 7.3178181886524544e+02 1.7541433346476493e+04 8.9748350923507387e+03 -1.7722678264093570e+03 -5.2248155960562653e+03 -2.9124923240492349e+03 1.4980661240019144e+03 -1.7428648964696644e+04 -9.3861813002062117e+03 
      </Row>
      <Row Index="24">
        -1.9140696946964599e+03 1.3966871767263365e+03 1.6573398863252260e+02 1.0361580406583584e+04 2.7619580578118330e+03 -3.5798953805287601e+03 -6.2813748065725576e+02 -6.3451316088438034e+02 -9.9293000567889976e+01 -4.8454848463181406e+02 -1.5624513980523916e+03 6.0657756407081470e+03 1.2448775867387758e+02 7.1897616403065840e+03 4.1867561557953013e+03 -4.7329870817720657e+03 -1.5810562878012172e+02 4.0754255259037018e+02 5.6197044154447212e+01 -4.2509512505289167e+03 1.1485039794733748e+03 2.8379896762371063e+03 -1.2190289849315786e+02 3.0300203778212301e+04 9.9637967479765555e+05 2.7154202775688900e+03 3.7157932192602857e+02 -5.2012587674256065e+02 -5.5230349700485294e+02 2.1967545140283764e+03 2.1865692367043812e+02 -2.5833449730378925e+02 -4.3387877631687837e+02 4.3993526498829815e+03 -4.6178614107694157e+03 4.1356863020550009e+03 1.2837697345041306e+01 -5.4887843304872513e+02 -1.1234183025585867e+02 1.6881899857074022e+03 -3.4080025334644597e+03 -2.2847108157174462e+03 1.9610220672658670e+02 -1.2028839255951701e+04 -5.0808832025798038e+03 3.4475373329038848e+03 -6.4583323160113741e+02 -5.3616709166241344e+02 8.4944076628293033e+01 1.7986726632592508e+03 1.0139010795961176e+03 -5.5249410361491755e+03 4.7812094474447076e+02 -2.9041554258302709e+04 -4.4485728827017592e+03 5.1058913929902046e+03 2.0989836725179157e+02 -5.4936562039703131e+02 6.3747214682307822e+02 2.0894617595801828e+03 4.5337759675551897e+03 -8.8318908624540218e+03 -3.7925609109397556e+02 3.4668797981458274e+03 1.0686047042939503e+04 9.0429589707037157e+03 8.3327094545370710e+02 -9.8216792812335807e+03 -3.0034884294080939e+02 -1.7059719062703070e+03 1.2732706186822081e+04 
      </Row>
      <Row Index="25">
        1.2966737649571849e+04 -1.0604104447759353e+04 1.1117256511848263e+03 1.0696107349569909e+04 -2.4835560631190892e+03 5.0524974506004946e+04 5.6234232339376395e+03 -5.9017356216907501e+03 1.0655352663244848e+03 -9.1985974991554394e+03 1.0342377267548582e+04 7.3255143631368643e+04 -1.1009351567457481e+04 2.7732582137480989e+04 -1.6793358300043968e+04 -4.9914617898938712e+04 -4.0862974544762719e+03 2.3824928832054138e+03 -6.6714403886779110e+02 -9.1807487992020324e+03 6.4422600872197945e+03 8.1091158091581543e+04 -1.1024793655868916e+02 3.5329175249970540e+04 2.7154202813340817e+03 9.0221128411028767e+05 -1.6898730381640540e+04 -5.9541249825468694e+03 -3.6639634667959308e+02 -2.7903618701581727e+03 -1.7643827472271631e+04 4.5773545576843026e+04 2.5671942086113877e+03 1.0032552223411098e+04 5.8457931361705123e+03 -7.7836093081788684e+04 6.3227845999848996e+03 -6.2123509193658829e+03 2.1818613391792824e+03 -3.1807692283610813e+03 3.7341900973868091e+04 -1.3042267210248785e+04 -3.7085903832503282e+03 -2.5540314983178949e+04 5.7933538718073105e+03 -4.9109732851318084e+04 6.9602071224062438e+03 -5.8614998152905991e+03 -2.4307376925396052e+03 6.3888985745307273e+03 -1.9814412361250623e+04 5.6207160915426313e+04 -6.3849355677327703e+03 4.2492161482281284e+04 4.7907313671083539e+03 -8.9071781341866939e+04 -2.1258174104093632e+03 -6.2467804674804211e+03 -6.2517020312109707e+02 -3.7812257613274269e+03 -3.4808997552008732e+04 -7.1051576072883581e+03 2.4900217014959089e+04 8.8604264247324627e+03 -2.9779039191100332e+04 2.8385841173420507e+04 -2.8009146521081522e+04 6.9226995192287814e+03 2.2275293347845936e+03 1.0244971795579688e+04 2.6191070970246576e+04 
      </Row>
      <Row Index="26">
        3.2103452043252473e+03 -1.2970133699420985e+03 -7.9005257250697446e+02 -3.9775334626322147e+04 -2.6795349305223790e+03 1.3664343597247442e+04 -2.6175861936342826e+03 -9.5538881814479828e+02 -2.9672425455153370e+02 1.8219293046882376e+02 7.3618936397174839e+03 1.8548993739998390e+04 6.4271040473156754e+03 -6.2703796093917263e+03 -5.5620879840645939e+03 -1.8235836291844375e+04 1.1533755316668937e+03 2.3028357666730881e+02 4.2283632385362762e+02 4.7435454596816562e+03 1.7675645194722877e+03 -8.8022390433090040e+03 -1.1139904524680155e+03 -5.1824087284864981e+02 3.7157931591363740e+02 -1.6898730382551948e+04 1.3178943948761280e+04 -1.1882743553179221e+03 1.3248633964002920e+02 -9.9651167720745832e+02 -6.6762605092701269e+03 -2.3497681602690445e+03 1.0716067952838980e+03 -2.0630081345118386e+04 -1.1338710151782848e+03 -1.1426596345250189e+04 -7.6595003642590054e+03 -1.3256990770101547e+03 -8.4158962808061278e+02 -1.5076718424335704e+03 -3.3112121094610775e+03 -1.9207225384796249e+04 -3.6564082683709103e+01 -1.7211611271709084e+04 7.2827067881357925e+02 -4.2138636160753304e+03 1.7789738047468982e+03 -1.2953575012536021e+03 2.3977418426868858e+03 -3.2126946533650298e+03 6.6740380730384204e+03 -5.7400813974161538e+03 4.4870209925638992e+03 -1.2642530081454461e+03 4.2351226877528256e+02 -8.5658692723291788e+03 -4.8967411304124489e+03 -1.3288218120392412e+03 -1.0445090282548861e+03 -1.0302863904292462e+03 -1.4337578365248010e+04 6.0897513920921356e+03 -1.3948605527308659e+04 1.0472334482483111e+03 -2.5575215146975788e+03 3.2702493440274075e+03 1.7700785047775269e+04 -2.6859692281853841e+03 -1.3256543169551774e+03 -2.0001063678151913e+03 9.7311778870732651e+03 
      </Row>
      <Row Index="27">
        -6.7866371801902715e+03 -1.2494075997618820e+03 5.5549179087369384e+02 -3.7167121552677054e+03 1.7228178548743017e+02 2.5084126778657142e+03 9.4509136175314961e+02 -2.4086938282102346e+03 -3.4114088863721827e+02 -5.6486520924636861e+03 1.9986042687162990e+02 3.8230824905321438e+03 -2.1689596176689306e+03 -4.7350484075328131e+03 -1.9404824823866365e+03 -7.6695345289729885e+03 -1.0482135462053789e+03 1.3513486425280571e+03 6.0196813241204836e+01 -6.4840403083835263e+03 5.5251118396674283e+03 6.6571953970480245e+03 -7.5573620016238385e+02 2.2367066271081949e+03 -5.2012587523984257e+02 -5.9541249855855031e+03 -1.1882743541510144e+03 9.9794973671372083e+05 -1.0304285309082143e+03 1.9736276400493321e+03 -5.6420265275661368e+03 2.0973432876317524e+03 8.1961211092962799e+02 1.1803754184713962e+02 -2.0795960009333120e+02 -5.4420709249305783e+03 2.7184128106165906e+02 -2.1526314789354801e+03 -8.5171328161636779e+01 6.8516437681373418e+02 -1.7613114059274085e+02 -2.0402080151296677e+03 -2.4543936529097829e+02 1.2105020757961968e+03 -2.5493124858511374e+02 -2.3032416784080774e+03 2.9110583826574293e+02 -2.1004127292676130e+03 5.9466717152506692e+02 9.9281167594170802e+02 -5.2972019057935142e+02 2.1290491687748033e+02 -1.2635953659651339e+03 -9.9513016010699830e+03 -2.2432902283596616e+02 -4.8548792587498219e+03 -6.6575186874922611e+02 -2.1617932492949185e+03 5.7526605223525416e+02 1.0605723328800507e+03 -1.7705875476865981e+03 -1.7542212250374328e+03 4.2504503544494619e+03 3.6420232571490460e+03 1.3880834482253144e+03 4.7480929924050215e+03 -4.3651433640477371e+03 4.3190908848978952e+03 -1.0239769711583051e+03 3.8739764270926999e+03 7.1389192074015446e+03 
      </Row>
      <Row Index="28">
        3.0664260324920178e+00 7.0183378229657137e+02 -1.5997338517050255e+02 -5.9174249372982740e+03 1.6708636460284470e+02 2.1101562487882093e+03 2.9080077876475912e+02 -1.1939350997805595e+03 6.3355347679702390e+01 -2.4223875311154989e+03 -4.7658494326767686e+02 -2.4323002354765786e+03 2.7028521741880201e+02 -7.8704755087185822e+02 5.0479925702906621e+02 -5.2468874178797851e+03 1.2809193965590782e+02 7.0318029336631298e+02 -1.1558158335843177e+02 -1.7744771032151766e+03 5.6619486483861692e+01 -9.9104245808368432e+01 4.1080684033775481e+02 4.1286741388234159e+03 -5.5230349668704002e+02 -3.6639634122416146e+02 1.3248633855304593e+02 -1.0304285302352619e+03 1.0212584586767521e+03 -5.1635763397054802e+01 -1.2134668829879956e+02 -4.4376441505792172e+00 -1.6325067234480125e+02 -8.4169696407102242e+02 -8.3931766948163499e+02 -1.7661092666391569e+03 1.9799795570698996e+02 -1.0627286079749465e+03 4.0147195674032332e-01 -1.1874071734467143e+03 9.7810328718824894e+02 9.5911554767861526e+02 -1.2928085411195684e+02 -2.3563354206475701e+03 -1.0859591802694208e+03 -1.2133360867175279e+03 3.3719871214096327e+02 -1.0335032130001564e+03 -7.6560130531426353e+01 -1.4304931297632611e+03 -6.2862300741982108e+02 -1.5344856046746531e+03 -1.0820656076736697e+01 -5.3436016123800291e+03 -8.5730701286094495e+02 -7.3437576640935890e+02 -3.4738609141967868e+02 -1.0702227123174816e+03 -9.8373649500259626e+02 -8.9119350291128649e+02 1.0520170282898594e+03 1.4306938981398237e+03 -4.6542003558723854e+02 2.5663418105998653e+03 -6.5930819090329067e+02 2.4163164013254607e+02 2.2268162237948036e+02 3.8878647452889027e+03 3.8843909820603591e+02 -3.5666324384825111e+03 1.7835333606614179e+03 
      </Row>
      <Row Index="29">
        -2.7983770305514045e+03 2.0046789288028604e+03 -5.9387696353196304e+01 7.9123488125684089e+03 -5.9885435694179614e+02 -1.0302559248321268e+03 -7.9261503611234775e+02 2.5329390692189336e+03 -3.0191088572802960e+02 -1.6166580749798508e+04 2.1803523182876379e+03 1.0601026788703810e+04 -3.0846536274515393e+02 2.0366791672527797e+03 1.3408333458695561e+03 7.1170783437151695e+03 4.5848101578780108e+02 -1.7576649128943682e+03 -1.4978636898130821e+02 3.6600614661786589e+04 4.6307301191706210e+02 2.2346006643464425e+03 3.9213494187440745e+02 -6.0440875625354847e+03 2.1967545289227564e+03 -2.7903617353113113e+03 -9.9651174908358371e+02 1.9736276490363525e+03 -5.1635763032635850e+01 9.7313731712355209e+05 4.7275501956435328e+03 5.0742612979307160e+03 7.1439799953969896e+02 9.3261021657868514e+02 2.2825944222169383e+03 8.0428808427871263e+02 -8.4092356945783433e+02 2.0695864367187023e+03 -1.2107915964087156e+03 -1.9392128001546138e+04 2.8275717016344715e+03 9.6352702258891240e+03 7.0828816270539016e+02 3.5259592449232387e+03 2.3764007075050322e+03 -4.6666038094999349e+03 -1.0536125378810239e+03 2.0362586352792569e+03 -5.3642055270795197e+02 -2.3652352405789366e+04 -7.7366261977229151e+03 1.2305444473811676e+04 -1.9555610504147944e+03 2.3539357958829671e+04 1.1935026525644539e+03 -4.5343750597838516e+03 3.0277733485365170e+03 2.0413435549214482e+03 1.2535730106975757e+03 -2.7677081760168541e+04 -6.0106967758946339e+03 2.6082611159995049e+04 2.1866342308232106e+02 2.1805381661280921e+04 -3.3563336008861028e+04 -3.1025566102838282e+04 -1.2628696095796022e+02 -8.4368161161022326e+03 -1.6403875489099410e+03 -1.1080273537841463e+05 -2.3777683149011987e+03 
      </Row>
      <Row Index="30">
        -6.7092344833866809e+03 3.0320025777146162e+04 -1.3303227623797447e+03 4.2086803764498560e+04 6.9049643589346670e+02 -2.8594833769243560e+03 -1.9729730188408521e+03 -5.9951066468656063e+03 1.8373908275965186e+02 -2.2423459518931340e+03 -1.5503070318394690e+04 -7.1912152810458661e+04 3.7358872554431591e+03 7.8876255796158948e+03 -5.6900314987683669e+02 -3.4293926886986941e+04 5.3224271804148339e+03 2.3747049357891083e+03 -2.3612339160158444e+02 -1.1760578661734238e+04 -1.7748111867361353e+04 -3.2680867463098781e+04 5.0515549517906911e+03 1.2001358719240172e+04 2.1865693807322532e+02 -1.7643827509315634e+04 -6.6762605047448706e+03 -5.6420265306059155e+03 -1.2134668935969421e+02 4.7275502345581190e+03 2.7545328016617801e+05 -4.1104366239525834e+03 8.8339504600780529e+03 3.7503704847684166e+03 -1.4048532728781720e+02 -7.1428266000629825e+04 -7.7655930420495952e+03 -6.1009698146879673e+03 2.2900786328663162e+03 3.9277087836703286e+03 -8.6201900466118474e+04 1.0962357647777593e+04 1.4298734138575564e+03 3.5268651164450304e+04 1.0216113167726053e+02 -6.0814490557600395e+04 -3.7135783105989294e+03 -5.5169158824905753e+03 -1.8613101049760116e+03 6.1811849670149968e+03 -1.7657249004894041e+05 -3.5173130885275510e+04 -1.1970040878005715e+04 -7.2622510817182920e+03 6.8278814553214943e+01 -2.7054428124072379e+04 2.2111255120422509e+04 -5.9899295615851879e+03 -7.7093644690640349e+02 5.7950038153734058e+03 5.6870369333101575e+04 1.8986242417149118e+04 -9.2177434708831461e+03 -4.0249908194458549e+03 8.1970988357608039e+03 2.4281090004672147e+04 5.9256113890364140e+03 4.7431876553957729e+04 5.9661543795691432e+02 2.2206228467574714e+04 -1.5671169113676195e+04 
      </Row>
      <Row Index="31">
        -4.1060918286961078e+03 9.3066608471718588e+04 1.0344476278888912e+03 2.2616879686411576e+04 -2.3333769011569857e+03 -2.6304065346972562e+04 1.1503777155831813e+03 1.9891389275966212e+03 1.1597791088411725e+02 -8.3435503771573713e+02 -1.0842454560172118e+03 -2.2900350690771877e+04 -5.4811463650006317e+03 -2.3828256587819706e+04 6.8464030346048894e+03 2.4921472932340675e+04 -2.0099996181742547e+03 -6.1111463256180286e+02 -3.1044896742176223e+02 -1.7590328603695089e+03 8.7633104212153921e+03 -1.5477622297470894e+05 -2.3166912350821294e+03 -9.2625116062253510e+04 -2.5833447107309075e+02 4.5773545593548974e+04 -2.3497681694705661e+03 2.0973433066478055e+03 -4.4376352355650113e+00 5.0742613177359835e+03 -4.1104365172769685e+03 8.8078021262220084e+05 -3.4129766112896795e+02 6.8746136675940899e+04 2.9419910726435774e+03 2.4304402756139025e+04 2.1496386069527562e+03 2.2238728756783530e+03 6.5027988106740258e+02 -1.9664206572051626e+00 6.8817618930779281e+02 -1.2965686120536239e+05 -8.7377623256928018e+02 -2.4994371058917641e+04 1.3919124767270732e+03 3.2591621314052609e+04 1.0350922343179407e+03 2.1192754832892679e+03 -4.6726953175123521e+02 2.4848938907252887e+03 -5.3686638813334848e+03 -1.2355781784350838e+05 -3.8229946632359770e+02 -2.7566161624934604e+04 1.6631288684970787e+03 2.9150021780502109e+04 -3.0018916661141348e+03 2.2348304452355951e+03 -4.6558759806558919e+02 2.6452086247655097e+03 -4.6599134398609749e+01 5.3299136902493359e+04 1.0615823968880715e+04 -1.4495501848124164e+04 2.8747615446460557e+04 8.5478177976475436e+03 -1.0524249102784748e+04 -1.2378525866861217e+04 5.8071142380025435e+02 -1.4745283934315008e+04 5.2947062143835080e+02 
      </Row>
      <Row Index="32">
        5.7886706718769710e+02 -1.1747125167099766e+03 -7.4961370712651771e+01 -6.2244752329572766e+03 2.4372575687740755e+02 6.9934608042631589e+02 -1.3441011013348202e+02 9.7337347078323364e+02 -4.9844333896082617e+01 2.0892160270464374e+03 1.4614886853152275e+03 9.4348077195988662e+03 3.4564101065937609e+02 -1.1412093087403346e+03 2.1112788171679858e+03 2.1744731335720280e+02 1.4900741959192203e+02 -5.2971939235925674e+02 3.7058124838880531e+01 2.4927928166045458e+03 2.1774851451841241e+03 -2.3374512657107443e+03 -2.1793490833874023e+02 2.5770050984238860e+03 -4.3387877816476248e+02 2.5671942058665272e+03 1.0716067922288978e+03 8.1961211006934536e+02 -1.6325067239049764e+02 7.1439801145016099e+02 8.8339504606296832e+03 -3.4129765875333214e+02 2.2087846767865794e+03 -1.9776029647221276e+03 -5.4707063249818759e+02 4.3608271898027488e+03 -2.4359647440171188e+03 8.4937068869173527e+02 5.1740337675391243e+02 -7.4414900993421907e+02 -2.0854465515769552e+03 -1.7367429732387609e+03 -2.4275965873688529e+02 -6.7342548704350520e+01 -5.2472825863111325e+02 4.7557668746918353e+02 6.2498265861461675e+02 8.1954352982307319e+02 3.0778103777989338e+02 1.0576633780105840e+02 -8.9948101686420996e+03 1.3443483942895064e+03 -1.4188046957481513e+03 -3.6568552814956938e+03 -7.9223715710281613e+02 3.7724983804347721e+02 8.1572057628334460e+02 8.4705888450518250e+02 -6.1136605385676694e+02 3.1310315270477440e+02 -2.8487027999077609e+03 -1.2222161474731279e+03 -9.4340617058794214e+02 1.7361743395740409e+03 -8.9140622759232542e+01 8.0346446261565703e+00 1.2518873344304225e+03 -2.7788561811909403e+03 -2.2938237230773390e+02 1.4655096954271953e+03 -1.7108517644144536e+03 
      </Row>
      <Row Index="33">
        -6.6385262936633881e+03 -7.5900120209707602e+04 2.2091271407729100e+03 9.7977730063180657e+04 -3.4055398739415105e+03 -8.0847905092038054e+03 4.9642537040019088e+03 -3.5569587694481015e+02 4.7254164767010548e+02 -1.2909442185256339e+03 -5.3135914617948874e+03 -2.0984841906274806e+05 -1.5154138381796301e+04 2.1089489900914486e+00 -8.7880653819104627e+03 3.4624503556366864e+04 -5.4227562602942699e+03 6.9361407373845577e+02 -5.6841741825315353e+02 -4.1541113463622169e+03 -1.2939825900335723e+04 3.6547205241595744e+04 -1.5021243297925139e+02 -1.5357196382850231e+05 4.3993526408539255e+03 1.0032552238314231e+04 -2.0630081355864750e+04 1.1803753108105229e+02 -8.4169697266842820e+02 9.3261005966909579e+02 3.7503704203063680e+03 6.8746136613691255e+04 -1.9776029702006676e+03 3.2563075788166124e+05 -1.3040546879770089e+04 3.2818621593273652e+04 1.4933131950157209e+04 2.0373314610868692e+02 3.1597252754379970e+03 -5.6610180973354727e+02 1.6627102671286208e+04 4.9501653473774844e+04 1.0734534306422506e+03 -4.7417398076246929e+04 7.3527317861329066e+03 7.9220899208105257e+03 -3.1776123013517936e+03 1.5555285525973886e+02 -3.1541321539216997e+03 1.6943914411912992e+03 -4.1854991510410910e+03 9.5190762492798647e+04 -9.4093662599313921e+03 -1.0218753391433207e+05 6.2950369355134899e+03 3.2275227971915156e+03 1.8871439443141762e+03 2.0253855184093118e+02 4.1535110381310403e+01 -9.4440251250765868e+02 4.3075538744953883e+03 -6.0798038705112253e+04 3.2438985358008376e+04 5.8699234866200466e+04 1.4812182676708799e+03 -3.2849623957308850e+03 -3.5636782912642200e+04 1.0298518104778584e+03 1.9181181088244346e+03 -3.7922980498209026e+03 -2.1084417750487028e+03 
      </Row>
      <Row Index="34">
        -2.5981046824471559e+03 -3.5410620245936589e+03 4.1917241680831808e+02 1.7406618706976602e+04 4.7465497053780127e+03 -4.8043830589895952e+03 -2.3017898216153480e+02 -2.8819629344344139e+02 -9.2123718261638714e+01 5.6553162311529741e+02 -2.3382987654039171e+03 -3.1391714216001565e+03 -1.2202601439456216e+03 8.8645003221527732e+03 7.5051103046603967e+03 -2.7432436715576914e+03 -7.9611185245348247e+02 2.5678001868724823e+02 5.8227215126598821e+01 -3.8971311606452800e+03 2.2294489041105262e+03 -2.0937993661203946e+03 -4.1288306048174456e+02 5.3607491035954517e+04 -4.6178614076405065e+03 5.8457931380426162e+03 -1.1338710165011871e+03 -2.0795959992881399e+02 -8.3931766943719958e+02 2.2825943979725125e+03 -1.4048533981840592e+02 2.9419910425845010e+03 -5.4707063219761710e+02 -1.3040546841328214e+04 9.9188280748573854e+05 6.6436583435084613e+03 1.1431369638835986e+03 -2.1143880614638329e+02 1.6656358145915118e+02 1.7713793175221072e+03 -3.1284568349421024e+03 3.9990695910820723e+03 2.5154653988570499e+02 -1.2838470240976014e+04 -7.6776899576862343e+03 3.9907343309945500e+03 -9.0939820405672435e+02 -2.1461801785742864e+02 -1.1691476155902683e+02 1.8367272629379841e+03 6.9334475277144520e+01 -4.9375665734067152e+03 -9.6087514117332830e+01 -2.8510975109764015e+04 -6.7506424376137875e+03 7.8448022043300880e+03 7.0910315324417752e+01 -2.1468676722794771e+02 8.3346063774910363e+02 2.0613599544889294e+03 5.8494309677882884e+03 -9.6724100358214237e+03 2.5674282240291723e+03 3.1185116387274329e+03 1.0469445318888755e+04 7.9019829546219407e+03 -2.2629444334002255e+03 -1.0265736243984635e+04 -2.4433676963751486e+02 -2.4921258599979210e+03 1.1402096610185396e+04 
      </Row>
      <Row Index="35">
        1.2384740471878205e+04 -3.5781982523080951e+03 1.6817742600391812e+03 2.5349756210900785e+04 -2.5760459542828612e+03 6.4212575697380118e+04 5.0398047077440315e+03 -5.0007924801111221e+03 4.2262110210913306e+02 -3.3643312113927677e+03 9.8888141978892963e+03 3.4232649066066020e+04 -1.2019559909297055e+04 4.6247476225839724e+04 -1.2007637583113974e+04 -7.0438421266296646e+04 -6.3633115643760011e+03 1.9995303282737732e+03 -5.7578097528232320e+01 -4.4834881027061492e+03 5.8744390700201504e+04 2.5323396484454162e+04 -3.8475874893523733e+03 4.0294429535816671e+03 4.1356863232244505e+03 -7.7836093096112250e+04 -1.1426596340879985e+04 -5.4420709164432483e+03 -1.7661092689983552e+03 8.0428798060293775e+02 -7.1428265933316201e+04 2.4304402768502114e+04 4.3608271924614501e+03 3.2818621579549545e+04 6.6436583619552257e+03 9.0395770278440858e+05 3.6081083058428394e+03 -5.6274068741202354e+03 2.3372708420173803e+03 -4.5376759626942221e+03 3.3338198776800185e+04 -4.9336386806971859e+00 -3.5352374953745384e+03 -1.8522987555388434e+04 4.8959087022230960e+03 -6.8993431395336025e+04 5.3215462654918938e+03 -5.3452138763749972e+03 -2.0741102168787315e+03 4.3768587575402635e+03 -1.4552727288460475e+04 2.0084792354622612e+04 -5.3329133194569158e+03 7.7221142605202011e+04 7.4963281554648711e+03 -8.6237198290289612e+04 -5.1667290364206820e+03 -5.7278794488757849e+03 9.8093397193265810e+02 -3.2401855472703464e+03 -3.5833517370986112e+04 1.5693619844997411e+04 2.7751065086846596e+04 -1.2047162998632470e+04 -2.5892906253835812e+04 2.9241516835857889e+04 -2.8986578960646657e+04 3.5457934692162107e+03 7.9270301506737837e+02 1.1179149110671256e+04 2.6810040308481981e+04 
      </Row>
      <Row Index="36">
        -1.2767470934955491e+03 -3.8567535210924452e+03 6.1112133889478821e+02 2.5133478642401780e+04 6.5152747629320947e+02 -8.4691620566591155e+03 2.3675655413090908e+03 8.0195926666259766e+01 2.5613319710085170e+02 -2.3421412936680135e+03 -5.1640079007315508e+03 -2.2653935037446747e+04 -4.6310769096860840e+03 4.1414113596495808e+03 -1.0395607901717594e+03 9.1683461944614537e+03 -1.2540168302590794e+03 6.9626405507326126e+01 -2.3398082150685332e+02 -1.9647368370414479e+03 -1.1218146434102702e+04 1.1716548563701028e+04 -9.9528994642722614e+02 1.5773683045333855e+03 1.2837702509001247e+01 6.3227846115294815e+03 -7.6595003630467872e+03 2.7184128362401680e+02 1.9799795567886383e+02 -8.4092361977617838e+02 -7.7655930387579137e+03 2.1496386008950412e+03 -2.4359647460619140e+03 1.4933131945318057e+04 1.1431369631429170e+03 3.6081083174010782e+03 7.5595943119932390e+03 3.4131193639338017e+02 5.6190530158106890e+02 3.1922226009407314e+02 7.2090225842791260e+03 7.9987515340375212e+03 -1.2692073106462726e+02 1.0212795223900484e+04 1.5045375501876697e+02 7.7682617221473920e+03 -1.0634477843647301e+03 3.3882470700558042e+02 -1.6293249457738480e+03 9.2013046911642596e+02 1.3038238092813117e+04 -2.2845524199399665e+02 1.8792043751263964e+02 -2.3917944373611963e+03 2.1091823136529638e+02 9.1767277604296451e+03 -7.5917936927538335e+02 3.4272817387431860e+02 5.7760137617875444e+02 -7.6643573628086597e+02 9.2363006052047058e+03 -1.6460364628910684e+03 1.0582663233239819e+04 6.3416404981444884e+02 1.9446902836983102e+03 -4.3795177127555762e+03 -1.3479926748338099e+04 2.3876549874276534e+03 1.2601742177001918e+03 -6.3360201822904946e+03 -4.2048233507133118e+03 
      </Row>
      <Row Index="37">
        -7.1508116098879545e+03 -1.2900251617307222e+03 5.7540404986056808e+02 -3.9770217550048983e+03 1.8789175291405991e+02 2.4990769617794431e+03 1.0255041044660566e+03 -2.5238183581829071e+03 -3.5481766203572715e+02 -5.8278611345639220e+03 1.7702693936938886e+02 3.9644933304473234e+03 -2.3127968799820123e+03 -4.9559351980392021e+03 -2.0428463229608606e+03 -8.0603635589424521e+03 -1.1058587066045852e+03 1.4046593065857887e+03 4.8591171419294369e+01 -6.6293792549418285e+03 5.8809895375607884e+03 7.1244807913916593e+03 -7.9261213439074572e+02 2.3234020422028607e+03 -5.4887843155657174e+02 -6.2123509231671924e+03 -1.3256990758663874e+03 -2.1526314790541364e+03 -1.0627286086454749e+03 2.0695864264988340e+03 -6.1009698117671069e+03 2.2238728555145208e+03 8.4937068951645176e+02 2.0373315669363734e+02 -2.1143880647842889e+02 -5.6274068826439470e+03 3.4131193362763173e+02 9.9773653164426982e+05 -7.5595906184937050e+01 6.4812667270051315e+02 1.6309996394324116e+01 -2.0693233847045158e+03 -2.5680146324924391e+02 1.3607657927963110e+03 -2.6631548064440722e+02 -2.3397597727356342e+03 3.1238216518301897e+02 -2.2061311821001582e+03 6.0558433114578304e+02 1.0108230185448729e+03 -6.2093759118291200e+02 2.4113294902950324e+02 -1.3503981974590531e+03 -1.0586438906709613e+04 -2.3965572469881837e+02 -5.0235862642877591e+03 -6.8167818517645958e+02 -2.2714626380978152e+03 5.7656607894064746e+02 1.1037597948139360e+03 -1.7811792684129741e+03 -1.8689333271926030e+03 4.5420300448139260e+03 3.8711650774559921e+03 1.4694881006144751e+03 4.9519065209560167e+03 -4.6940745334718067e+03 4.5873744772977980e+03 -1.0413917131375290e+03 4.0185649852979086e+03 7.4521328203692810e+03 
      </Row>
      <Row Index="38">
        1.8404457181765429e+02 -2.8398113080092680e+03 1.5314022612325095e+02 3.6666268972446046e+03 1.5169888425316458e+02 -1.4065764646436182e+03 2.4688678212594715e+02 -1.8729398570023477e+02 5.7626032658166537e+01 -6.2351070387465006e+02 -2.9181109081462273e+02 9.7484475479213870e+02 -7.9898695619489820e+02 7.0673639141956528e+02 -3.4078342415272346e+01 1.3661576105131899e+03 -1.7973024798530801e+02 2.1212697435542941e+02 -1.0964322765283612e+00 -9.8627212358012912e+01 -1.7189262286550293e+03 1.9028027388670880e+03 -2.9161912385926041e+02 1.6283408813396577e+03 -1.1234182946748479e+02 2.1818613455654704e+03 -8.4158963123716069e+02 -8.5171327548067893e+01 4.0147202967341400e-01 -1.2107915992024864e+03 2.2900786343114451e+03 6.5027987664808143e+02 5.1740337614190241e+02 3.1597252843805218e+03 1.6656358195322309e+02 2.3372708460972685e+03 5.6190530367278018e+02 -7.5595905547961593e+01 8.4863186531531483e+02 -5.2748606812747312e+02 -8.3878250633346761e+02 -2.5114401409844868e+02 -1.0408432341769890e+02 2.5209823676197470e+03 -6.1535472536383168e+01 1.6726855315369503e+03 5.0522625003093680e+01 -9.8547442081908230e+01 -1.0713150800915201e+02 -1.9491131729779763e+03 2.1534222283659983e+02 -5.2954745543800300e+02 -6.1766427000936892e+02 -1.5724210540486210e+03 -1.2734184951478808e+02 2.9860353022296376e+03 -1.5666552124979501e+02 -8.2206420585513115e+01 -7.0558912476089222e+02 -1.1405182823362193e+03 6.7922724790516770e+02 5.5056249161517621e+02 1.6255123657389304e+03 1.5659342260559197e+03 -3.6705105246944834e+02 -2.3403877783370754e+03 -1.8937513000348235e+03 8.1074401089861499e+02 2.5815198323757488e+02 -4.7544176789324210e+03 -3.7630841458390194e+02 
      </Row>
      <Row Index="39">
        -1.6159042995869822e+03 -2.7783126850066974e+03 -5.0690616941726671e+02 -1.7506693234504164e+03 -9.8155525863163348e+01 2.6497418275195596e+03 -4.5221805010853984e+02 1.0376038591973484e+03 -4.5835981486800642e+02 -1.6551977582562569e+04 2.1484555167858925e+03 -3.5988212790359830e+03 9.6699279589277512e+02 2.2232435993072286e+03 2.5989717248708548e+03 -7.4031006524441182e+02 7.3838608506632170e+02 -8.7898240594565868e+02 -2.1960936268908654e+02 3.3688562729607569e+04 3.0063036705547056e+03 -1.9938789639604256e+03 1.6913496674320029e+03 -6.9447345783250912e+03 1.6881899989214289e+03 -3.1807691047364897e+03 -1.5076719065444267e+03 6.8516438488000495e+02 -1.1874071737682400e+03 -1.9392128005762155e+04 3.9277087453268759e+03 -1.9664401738064043e+00 -7.4414902015990265e+02 -5.6610167054241288e+02 1.7713793385784029e+03 -4.5376758660915639e+03 3.1922230396117504e+02 6.4812668133154511e+02 -5.2748606603713188e+02 9.7703223618695443e+05 7.1174275142507977e+03 4.0383214546974868e+03 8.1901009901770783e+02 1.1812273336677054e+03 1.7227253430151322e+03 -5.8663078932200879e+03 -9.3815897917802999e+02 7.1193928587454138e+02 -3.8985250452663854e+02 -1.9854352680725133e+04 -1.2667838917562796e+04 7.8009264235152286e+03 -1.2261895390531872e+03 1.9081973521805427e+04 7.9437274801017759e+02 -9.2678142427497896e+03 3.0647433844362931e+03 6.4371660468913615e+02 1.4801473592286807e+03 -2.5588335149775259e+04 -6.4938384771314286e+03 2.6514729990469295e+04 -2.0041811185508332e+03 2.1272288498938251e+04 -3.1533672852512609e+04 -2.5464353996828508e+04 1.8215098773670602e+03 -4.6752570295072273e+03 -1.9407035805300202e+03 -1.0189767983587029e+05 1.2683259357553529e+03 
      </Row>
      <Row Index="40">
        1.3311093814188614e+04 -1.5050321861161472e+04 -7.8325016865844736e+02 4.3361484036139445e+03 1.2601664766599424e+03 2.1010913227624260e+03 4.8769895022441269e+03 -7.3910708642005920e+02 -6.4313090417745116e+01 -1.2152944111831486e+04 4.3285731525572482e+04 -2.0619881739694392e+04 -6.0840436661982940e+03 4.2222750019817031e+03 2.7539677145602182e+03 3.1723217664762866e+04 -6.2906444536913978e+02 1.0885057477951050e+03 -1.0275117350041764e+03 -1.5650527545955032e+04 -9.6671096406699624e+04 3.4078974184410181e+03 -4.5534524200448150e+03 9.8193072658553069e+02 -3.4080025328670163e+03 3.7341900973984739e+04 -3.3112121536565974e+03 -1.7613113245693967e+02 9.7810327745239920e+02 2.8275715004478116e+03 -8.6201900363857858e+04 6.8817630941633251e+02 -2.0854465472724532e+03 1.6627102635818428e+04 -3.1284568251711607e+03 3.3338198815288022e+04 7.2090225923103008e+03 1.6310005307197571e+01 -8.3878250889082960e+02 7.1174273183774203e+03 1.7229808293951396e+05 1.7308979534423041e+04 5.8916261475642805e+03 6.6729910515725969e+03 -4.7231170142153278e+03 2.4359026601314152e+04 -6.6105095670045484e+03 -4.1390144323185086e+02 -3.2267049193175626e+02 1.0503676092235692e+03 3.3493775379414670e+04 2.6907675464802123e+03 -4.3049452708743956e+03 -1.5431419263716263e+04 -9.1195588642038911e+02 3.0998375641914296e+04 2.1531171669333617e+03 -1.2587535038590431e+01 -7.1629541780533555e+02 3.2596016477223020e+03 -1.2990985433778190e+05 -1.0344613341394670e+04 1.1878616187526291e+04 1.1570612604647249e+02 8.2183730709470728e+03 -1.2101777223776800e+04 -1.4924801589282230e+04 -6.3457372027118974e+04 1.3633456907373893e+03 7.4347371918467579e+03 6.3514633708689209e+04 
      </Row>
      <Row Index="41">
        -2.1696697471784719e+03 1.5822235664818177e+05 7.3213837272785474e+02 -1.6377287981726469e+04 -1.6667257768465788e+03 -1.7536921276923764e+04 4.0483170208899519e+03 -3.5244315232485533e+03 1.4028682297222695e+03 -1.3313033334475709e+04 -5.5055235500974813e+03 -2.5920176117501105e+04 -1.0171951818975051e+04 1.0044255029618649e+04 -6.0844169446994783e+03 5.0114788708700944e+04 5.1322375936782055e+02 2.8998016403913498e+03 -1.0645458759094427e+03 -2.8075056037703296e+04 -3.8117426585942798e+04 -1.3427938855487434e+05 2.1609333606733176e+03 2.6628911309020623e+04 -2.2847107801859383e+03 -1.3042267229625781e+04 -1.9207225379368600e+04 -2.0402079903432605e+03 9.5911555293108586e+02 9.6352701300365734e+03 1.0962357799815945e+04 -1.2965686120488412e+05 -1.7367429735002056e+03 4.9501653478427208e+04 3.9990696250107067e+03 -4.9336591742394376e+00 7.9987515246721214e+03 -2.0693233593404293e+03 -2.5114401457534041e+02 4.0383213663930073e+03 1.7308979343561456e+04 6.7866051028188574e+05 -3.6362628062741805e+02 -9.2897131182398502e+04 1.2581435197386309e+03 4.9067923264468860e+04 2.3840136291334725e+03 -2.0274406055742875e+03 -3.1711186226087129e+03 1.3652077382625808e+04 1.4038151783948648e+04 -1.6541979772089631e+05 -6.9726539263028581e+03 -8.7540300064502007e+03 5.6029206513294776e+02 -5.4067202866751177e+03 7.2089496814631839e+03 -2.0126916571706533e+03 5.5583653227012564e+02 6.9582724817823619e+03 7.2949601817293224e+03 7.7027572716781695e+04 2.0557979480423815e+04 -3.0377221213057463e+04 2.9759394799980324e+04 3.3190440316488268e+04 -2.5646246945351777e+04 4.5297901391344330e+03 3.3972469393682577e+03 4.5222603954336155e+03 6.1334474822048360e+03 
      </Row>
      <Row Index="42">
        3.2013458896472002e+01 2.8182637217481897e+02 -1.3323806083578717e+02 2.8573682109585679e+03 -3.0003782699594740e+02 -3.1603579133152380e+01 -3.7150031142875832e+02 -4.4605914504081011e+02 3.3023637604842861e+01 -3.3587065958192688e+03 2.3374817599524395e+03 -8.1353131848933117e+02 2.4801473993960570e+02 4.9292858372081537e+02 -7.1109603656741092e+02 8.7444556145588285e+02 5.1633001305918719e+02 3.6360046663880348e+02 -8.6373281394842252e+01 -1.9576549427418504e+03 -6.9175900167356303e+03 -1.3837286034290155e+03 4.5151864149011988e+02 -3.0123692905502112e+03 1.9610220681357896e+02 -3.7085903908969049e+03 -3.6564084091645782e+01 -2.4543936587187636e+02 -1.2928085519470699e+02 7.0828815385144844e+02 1.4298734165446949e+03 -8.7377622754555159e+02 -2.4275965815376739e+02 1.0734534269559783e+03 2.5154654083129208e+02 -3.5352374998384621e+03 -1.2692073154192011e+02 -2.5680146387964487e+02 -1.0408432368790849e+02 8.1901008981867926e+02 5.8916261431337334e+03 -3.6362627647183399e+02 1.5485632045458926e+03 3.8266143848279225e+03 5.2395807988743763e+02 3.0829002491843767e+00 -1.4987575998409063e+03 -2.7519442369509488e+02 2.3985057005281624e+02 -9.9934915551464019e+02 3.0439801776706008e+02 -3.7845349226652161e+02 -1.5055582159458045e+03 3.1361267415457860e+02 4.9391063167033894e+02 -4.3570140584724522e+03 2.1410384450199494e+03 -2.5548270783573389e+02 -1.1804919608125456e+02 7.1676723206369206e+02 -5.9771126066454426e+03 2.2671123193898893e+02 -1.0139564083284158e+03 -1.2228921025267454e+02 1.8575692764442874e+02 2.9058536716985432e+03 1.2061423637848329e+03 -2.0180292300865176e+03 -8.9262919799970177e+00 3.7799520066779355e+03 3.3720638460349860e+03 
      </Row>
      <Row Index="43">
        -4.3793949948307418e+03 2.0689408505532603e+04 4.2620649530877631e+02 1.1508800407412295e+05 1.4413969898190990e+04 9.7555005800077342e+03 4.2895538129702027e+02 6.8273053677380085e+02 -2.0069884043206685e+02 -4.5531986055485904e+03 -4.1064170073334826e+03 1.5003070394316281e+04 -5.3567213330880531e+03 6.3357148969717018e+03 2.1484669196792645e+04 7.3863762774664239e+04 2.8285791646425369e+03 5.8532434964179993e+02 -4.1478008011790098e+02 -1.0284133036789019e+04 -4.6690480444006622e+04 4.2107928563060297e+04 8.6937961836418845e+02 2.8552028617645985e+04 -1.2028839239592664e+04 -2.5540314986935729e+04 -1.7211611266332253e+04 1.2105020765933295e+03 -2.3563354240181952e+03 3.5259591558935354e+03 3.5268651153885003e+04 -2.4994371027604670e+04 -6.7342551091074824e+01 -4.7417398132583752e+04 -1.2838470223271255e+04 -1.8522987536350396e+04 1.0212795222285064e+04 1.3607657936215401e+03 2.5209823632170301e+03 1.1812272504457505e+03 6.6729910059924005e+03 -9.2897131147835171e+04 3.8266143823232596e+03 1.2997921052059482e+05 -3.8871764412482036e+04 1.2118886761953705e+04 -9.3777789698369470e+03 1.3840578245020006e+03 -2.7752572320484514e+03 1.9913191986261772e+03 6.9984169954505051e+03 1.9136964704606478e+04 -7.8543319554481241e+03 -3.9127205053719808e+02 -1.4538608907637048e+04 -3.0199921998707345e+04 1.6251455267461668e+04 1.3726674365252256e+03 1.8979847706893049e+03 -7.3923753462848254e+02 6.5333169296225897e+03 3.2244011750551563e+03 9.7013873080258782e+03 -4.6819223679789488e+04 -2.3948892500057478e+04 1.5801832499703221e+03 -1.7086577753610174e+04 -1.5756914084917953e+03 1.0336518812977615e+03 1.3633252393825846e+04 -5.7127174670925542e+03 
      </Row>
      <Row Index="44">
        -2.4577021679661702e+03 -1.3072477916576827e+03 3.0699851026370425e+02 1.5721613059669195e+04 5.4197267908707727e+03 -3.1514135747260298e+03 -7.6855929568530519e+02 -3.2184884904325008e+02 -1.5477595829174425e+02 1.1887129495446570e+03 -2.0756571048580809e+03 6.3945300741986430e+03 -1.0620240106543542e+02 7.3806498828597323e+03 8.6041924213198945e+03 -3.0793236954782624e+03 -4.8911452603535099e+02 2.7147380530834198e+02 1.2215105837222927e+02 -3.9027724203984253e+03 2.4493983115045703e+03 9.0371315845061326e+02 -7.9166536565798913e+02 5.1607404747998262e+04 -5.0808832007872988e+03 5.7933538738026400e+03 7.2827068144491932e+02 -2.5493124940636335e+02 -1.0859591804785518e+03 2.3764006851137965e+03 1.0216111869143788e+02 1.3919124500176840e+03 -5.2472825741288796e+02 7.3527317966956798e+03 -7.6776899567636865e+03 4.8959086869186140e+03 1.5045375236626614e+02 -2.6631548139452934e+02 -6.1535473357678029e+01 1.7227253228805494e+03 -4.7231170196044259e+03 1.2581434918210434e+03 5.2395807899325973e+02 -3.8871764426289912e+04 9.9020657748507685e+05 2.5481678937679826e+03 -1.0927952216626982e+03 -2.6047437205305323e+02 2.3099752468005681e+02 1.9460571941347989e+03 7.6689977064530831e+02 -6.4378060653633875e+03 7.6374035036771602e+02 -2.4294883503732934e+04 -7.2880508669977135e+03 6.7228929708831565e+03 -1.6563073144776718e+02 -2.6838231226801872e+02 1.0377823807178393e+03 2.0691796203422709e+03 5.9174804582090110e+03 -7.9457884484591104e+03 1.7822555800993359e+02 -6.5962311658782164e+02 9.4276603890878450e+03 7.8124532503446035e+03 5.1112997658254244e+02 -1.0249104030312361e+04 -4.9129216596535957e+02 -1.5894275670650768e+03 1.1669925486397517e+04 
      </Row>
      <Row Index="45">
        1.2453478976619081e+04 -2.5004430363902924e+04 1.6064123688085201e+03 2.7650148477391427e+04 -1.6595080838698195e+03 5.6041789377134817e+04 6.1274473444692958e+03 -1.2696638176143169e+03 9.9062374195051234e+01 1.5844799143103883e+03 9.3399561487728497e+03 5.3700946966691292e+04 -1.0423554098827452e+04 2.8048038251580481e+04 2.5774701493210159e+02 -6.6199696424938156e+04 -7.9325878094211630e+03 -2.6872996437549591e+02 2.0905941147979320e+02 1.0571244047025684e+04 6.3856652284823125e+04 1.9635245534324145e+04 -8.5518313083059838e+03 -1.4848567542094912e+04 3.4475373387559084e+03 -4.9109732850397355e+04 -4.2138636131174753e+03 -2.3032416753054713e+03 -1.2133360882391166e+03 -4.6666038727506530e+03 -6.0814490525575122e+04 3.2591621346517160e+04 4.7557668864047889e+02 7.9220898811974330e+03 3.9907343356920028e+03 -6.8993431374660169e+04 7.7682617151573768e+03 -2.3397597694098949e+03 1.6726855288608576e+03 -5.8663079514331184e+03 2.4359026622039266e+04 4.9067923322641174e+04 3.0829052101407797e+00 1.2118886756530279e+04 2.5481678993026726e+03 9.2723885109800706e+05 4.9772940390283475e+02 -2.1681856200043112e+03 -6.7849680830711623e+02 -3.0197126781602656e+03 -2.1856234408861841e+04 4.3142755860238743e+04 4.2500616871091006e+02 6.6040647617407973e+04 5.0165614606690651e+03 -6.8638851961571840e+04 -1.2504688427078312e+04 -2.4454204717874527e+03 5.0574041807403410e+02 -6.4497123864430469e+03 -3.4849387614350155e+04 2.5202508627752977e+03 2.5950827676175344e+04 -2.4437161403811565e+03 -2.8635264558348008e+04 1.5625129291894233e+04 -2.7276199066102177e+04 -5.0194152570933238e+03 5.3894580849846625e+02 -3.0952048142171825e+03 1.7980954455600520e+04 
      </Row>
      <Row Index="46">
        8.2422932855633553e+02 -4.4402168287220020e+03 5.5626268705922769e+01 -2.1702412616973805e+04 4.1066909048246453e+02 3.8219319805903215e+03 5.3894604059912854e+02 6.0592980142682791e+02 8.1980892047119596e+01 4.4727703529045102e+03 -1.9262462370207650e+03 3.6926199709991488e+03 2.2826023993337668e+02 -1.4341674597487745e+03 1.6446841560280882e+03 -7.9880168670093117e+03 -6.9779227808305552e+02 -5.1356838455796242e+02 8.8350561938572355e+01 3.2459411532967351e+03 1.0595866054021928e+04 -5.9076601082863635e+02 -9.4223992661766522e+02 2.6659184719984878e+03 -6.4583323361151270e+02 6.9602071331389889e+03 1.7789738057440613e+03 2.9110583899803169e+02 3.3719871389298339e+02 -1.0536125128284766e+03 -3.7135783124656300e+03 1.0350922288882011e+03 6.2498265817110359e+02 -3.1776122917105336e+03 -9.0939820598273946e+02 5.3215462715267495e+03 -1.0634477832748400e+03 3.1238216586410999e+02 5.0522626068599777e+01 -9.3815895498043392e+02 -6.6105095574609586e+03 2.3840136226150316e+03 -1.4987575997624167e+03 -9.3777789724242502e+03 -1.0927952241302119e+03 4.9772941074256232e+02 2.9052675259692237e+03 3.3130239471909590e+02 4.5221021773007988e+02 1.0598053933177507e+03 -1.2149153833320306e+03 -1.5379609549346123e+03 1.8793757978602625e+03 -8.3267410145362937e+03 -1.2436982713413659e+03 7.7506550598990088e+03 -4.0737015108266651e+03 3.0624745851755142e+02 -7.1497680096229760e+02 -8.4049093283514958e+02 5.5233265830798846e+03 2.9066445266392111e+02 1.9845348489105891e+02 2.0320841855134242e+03 2.4540011263178258e+02 -4.3187152330979825e+03 2.0129620555227848e+02 2.4373272529752057e+03 5.8330922195427632e+01 -5.1617694197749261e+03 -4.0604042752254327e+03 
      </Row>
      <Row Index="47">
        -6.7577023030828568e+03 -1.3812142694182476e+03 5.5413881363768485e+02 -3.8227603847643477e+03 1.9008865002286620e+02 2.5226310454399209e+03 9.9620073325766680e+02 -2.4730866645574570e+03 -3.4926594362286596e+02 -5.9042297780283261e+03 7.9041352931584697e+01 3.6489542261497991e+03 -2.2194769262746936e+03 -4.7867096146745134e+03 -1.9404438912118785e+03 -7.7281403245036490e+03 -1.0581139644111261e+03 1.3904596977233887e+03 4.8280653480687761e+01 -6.6033738929978572e+03 5.6270917481647921e+03 6.7976853004731820e+03 -7.6667790253787189e+02 2.2979387861887444e+03 -5.3616709023856674e+02 -5.8614998185708537e+03 -1.2953575000430985e+03 -2.1004127292736230e+03 -1.0335032136541668e+03 2.0362586259196978e+03 -5.5169158795416588e+03 2.1192754635325946e+03 8.1954353064851693e+02 1.5555286536351957e+02 -2.1461801804983043e+02 -5.3452138852342687e+03 3.3882470435039892e+02 -2.2061311821490526e+03 -9.8547442707597952e+01 7.1193927837710362e+02 -4.1390145045053214e+02 -2.0274406310246122e+03 -2.7519442306328028e+02 1.3840578238297094e+03 -2.6047437127458397e+02 -2.1681856232356804e+03 3.3130239390529368e+02 9.9784460490401648e+05 6.0274265121878125e+02 8.8800403323660350e+02 -5.0873408905870747e+02 1.9202285228055410e+02 -1.2649279605043250e+03 -1.0279027935568150e+04 -2.4289352396863367e+02 -4.7343351569995139e+03 -6.7307841649412717e+02 -2.2156986736059189e+03 5.7251210534623192e+02 1.0982807796239395e+03 -1.4556499806166707e+03 -1.8448250922689585e+03 4.3623913447692867e+03 3.7148659352465857e+03 1.4805669472941750e+03 4.7704302714125497e+03 -4.5338016247711221e+03 4.6136244531212878e+03 -1.0173417723406664e+03 3.9836787321953243e+03 7.1301259672653559e+03 
      </Row>
      <Row Index="48">
        5.7862172363485115e+02 -1.6543072897352811e+03 -7.8487262023383607e+01 -9.9141799185584368e+03 -1.7555200505291214e+02 2.8546020431831566e+03 -4.6959938279823450e+02 7.8885523280827329e+02 -6.9444066736717758e+01 4.5353227217122585e+03 1.7091502927897927e+03 3.6799947486403889e+03 1.0554832416687109e+03 -1.3931951903053919e+03 -5.7498561030338169e+02 -3.5623507059587519e+03 6.4969944063291436e+01 -5.5603152431920171e+02 1.0853072775513269e+02 3.0822758330209181e+03 2.9515185265357723e+03 -1.7055472983805612e+03 -7.0788991469921342e+01 -8.1968192351375410e+02 8.4944074795585038e+01 -2.4307376930210876e+03 2.3977418415489296e+03 5.9466717115568099e+02 -7.6560130202611361e+01 -5.3642053613221105e+02 -1.8613101064511320e+03 -4.6726952510287776e+02 3.0778103808639014e+02 -3.1541321523499291e+03 -1.1691476161678565e+02 -2.0741102163718574e+03 -1.6293249448190097e+03 6.0558433075435460e+02 -1.0713150714858318e+02 -3.8985248994646827e+02 -3.2267048340119072e+02 -3.1711186175577614e+03 2.3985057000393593e+02 -2.7752572326107515e+03 2.3099752376475226e+02 -6.7849680840120891e+02 4.5221021784905105e+02 6.0274265084888611e+02 8.4706296420946285e+02 1.0718172161361758e+03 -1.0291245768511144e+03 -1.1148942124440632e+03 2.9267316753706177e+02 -2.7641127361422691e+03 -7.5506078813301727e+01 -1.8519164148764298e+03 -9.4693796366504739e+02 6.0876052124798298e+02 -4.9976361544102394e+02 -4.3333968847447977e+02 -3.4844680981441029e+03 1.4060219163388922e+03 -2.3481932207749960e+03 1.0563020246932306e+03 -8.6234144124201680e+02 4.8844802780848659e+02 3.2484428237587567e+03 -2.9051238467846456e+03 -3.5059173764446791e+02 -1.3176988463017060e+03 -3.2005968757609384e+02 
      </Row>
      <Row Index="49">
        -5.1820758546897559e+02 -5.5855010644320100e+03 -1.7800141006711738e+02 1.1978436053838803e+04 7.7270171594107524e+01 1.2272259172742561e+03 8.6478631258553719e+02 1.1748456341847777e+03 -3.3123868642167054e+01 -2.7021407309981703e+04 -9.4379012557203532e+02 -4.9537639620326154e+03 -8.2780583778430321e+02 1.4133996210172154e+03 4.4529025711748545e+03 4.6822096089026891e+03 -1.8633941592163237e+02 -9.0463068342208862e+02 -1.8767549994492879e+02 3.7843122013876215e+04 7.1771992774865939e+03 -1.6213662002048877e+03 -9.0539752717472311e+01 -4.8276252046294430e+03 1.7986726786741347e+03 6.3888987129201123e+03 -3.2126947185658419e+03 9.9281168553056341e+02 -1.4304931286597093e+03 -2.3652352405844664e+04 6.1811849288193625e+03 2.4848938636844232e+03 1.0576632592170429e+02 1.6943915899912504e+03 1.8367272849599503e+03 4.3768588634038970e+03 9.2013051594908472e+02 1.0108230302631855e+03 -1.9491131706224276e+03 -1.9854352675209695e+04 1.0503677994702593e+03 1.3652077467595756e+04 -9.9934914679592282e+02 1.9913192827315288e+03 1.9460572149332147e+03 -3.0197126101229296e+03 1.0598053692476028e+03 8.8800404317840002e+02 1.0718172006907535e+03 9.6779773048919195e+05 -1.3274770769856317e+04 1.1410011226692244e+04 2.0160015090956676e+02 2.1909727997537419e+04 7.4012175424223460e+02 9.7910193599944432e+02 9.7372874846822924e+02 9.5174967979639769e+02 1.8857879153088552e+03 -2.6439418579077465e+04 5.6147008781140630e+02 2.3961864795539452e+04 2.4725795518404539e+03 1.9198264970779550e+04 -3.1189555466965827e+04 -3.1974444766251305e+04 -3.6544785685501611e+03 -2.3797765002939923e+03 -1.0450173299943503e+03 -1.0586231843968159e+05 -2.6577790738008584e+03 
      </Row>
      <Row Index="50">
        -1.0563533799117664e+04 -2.5243553889408067e+03 1.2852552053877309e+03 2.2570310382953030e+04 -2.8840213686431525e+02 1.2700290513246582e+04 9.8218692880614071e+02 7.0650703410804272e+02 5.8641114921471490e+02 -7.4516732795875287e+03 -5.0776939796812367e+03 2.6321864648016635e+04 -4.4292990703032829e+03 -1.0916259225297083e+04 7.6379161082670325e+03 -4.1448434077910963e+04 -6.1628282860974775e+02 -1.3449584344625473e+03 -8.3608395479566843e+02 2.3546207382026827e+04 -3.3647375453752989e+05 -5.9260778910665540e+03 -1.2441598148176232e+04 -1.5829960841902670e+04 1.0139010828567552e+03 -1.9814412314755638e+04 6.6740380948917245e+03 -5.2972018633790140e+02 -6.2862300526797526e+02 -7.7366262217604672e+03 -1.7657249011232692e+05 -5.3686638760152055e+03 -8.9948101695262103e+03 -4.1854991698631384e+03 6.9334471314054099e+01 -1.4552727246350987e+04 1.3038238083856188e+04 -6.2093758648633957e+02 2.1534222043181080e+02 -1.2667838932206621e+04 3.3493775536192232e+04 1.4038151811264121e+04 3.0439802579416573e+02 6.9984169591787431e+03 7.6689977185276803e+02 -2.1856234366830715e+04 -1.2149153909619608e+03 -5.0873408528696746e+02 -1.0291245733943579e+03 -1.3274770801912018e+04 4.6714119128853851e+05 2.1241242732922845e+04 1.7182833771115085e+04 2.1953169348079959e+04 -3.7279840070927457e+02 -3.5078486281256373e+04 -1.8192489837918372e+04 -7.6774284180998802e+02 8.0547560923841957e+02 -1.0639674590032082e+04 8.8875140416825961e+03 1.0478577480055255e+03 8.1848487926542330e+03 6.3321435538989244e+03 -1.6258032469127604e+04 8.3214806338210656e+03 -1.0016526245767989e+04 -4.3441191843535544e+03 2.8985877812099448e+03 -3.9356037121066118e+04 8.4186311248240108e+03 
      </Row>
      <Row Index="51">
        -3.1813004965836299e+03 1.3763460045202123e+05 9.1785574508562809e+02 3.1816267072484465e+04 4.2987835629399051e+03 -3.6447754984844622e+04 -2.4622716623757697e+01 -2.3504092052578926e+01 -2.9478134187183696e+02 1.7438131976181525e+04 -5.4165332174665527e+03 1.5916187211412558e+04 -3.3605552228233296e+03 5.8775182686697881e+03 -4.2609199265434290e+03 -1.3947136160959839e+04 -1.9353907213365992e+03 4.5472527778148651e+02 2.0566415466423587e+02 -1.4319981411114801e+04 1.0627688614836195e+04 -2.0186388488761641e+05 1.0482523520790173e+03 -2.5440775563169664e+03 -5.5249409999886411e+03 5.6207160898232396e+04 -5.7400814054283073e+03 2.1290494646909065e+02 -1.5344855944580800e+03 1.2305444512829185e+04 -3.5173130718767410e+04 -1.2355781785358844e+05 1.3443483944503366e+03 9.5190762589984544e+04 -4.9375665310128024e+03 2.0084792312169040e+04 -2.2845524060370099e+02 2.4113297933340073e+02 -5.2954744882164368e+02 7.8009264580325689e+03 2.6907673585976008e+03 -1.6541979777017585e+05 -3.7845349870948166e+02 1.9136964668105560e+04 -6.4378060307622654e+03 4.3142755790148105e+04 -1.5379609469530687e+03 1.9202288228506222e+02 -1.1148942204175310e+03 1.1410011274451914e+04 2.1241242711353232e+04 7.6239231594757701e+05 -4.1594154352632559e+03 -8.7709093660832383e+04 -4.4571338562623932e+03 6.8633615078973817e+04 5.1030240462208794e+03 2.4673820272088051e+02 3.1695449754685524e+03 1.2005016581628646e+04 9.8254994098792522e+03 9.6975750052178089e+04 7.8162573862805639e+03 -1.0938320220500740e+04 6.0844560585437859e+04 1.6702396549366935e+04 -8.0717558536350080e+03 8.8637796741123366e+03 -7.2456574327310227e+02 7.9669216215881829e+02 -1.0177956928669182e+04 
      </Row>
      <Row Index="52">
