<?xml version="1.0"?>
<MethodSetup Method="MLP::MLPBNN">
  <GeneralInfo>
    <Info name="TMVA Release" value="4.2.1 [262657]"/>
    <Info name="ROOT Release" value="6.38/00 [402944]"/>
    <Info name="Creator" value="ooconnor"/>
    <Info name="Date" value="Fri Jan 16 12:37:33 2026"/>
    <Info name="Host" value="Linux buildvm-x86-26.rdu3.fedoraproject.org 6.17.1-300.fc43.x86_64 #1 SMP PREEMPT_DYNAMIC Mon Oct 6 15:37:21 UTC 2025 x86_64 x86_64 x86_64 GNU/Linux"/>
    <Info name="Dir" value="/home/lar/ooconnor/larsoft_testing/srcs/sbndcode/sbndcode/Workshop/Analysis/output/TMVA/testing"/>
    <Info name="Training events" value="2000"/>
    <Info name="TrainingTime" value="1.99610400e+00"/>
    <Info name="AnalysisType" value="Classification"/>
  </GeneralInfo>
  <Options>
    <Option name="NCycles" modified="Yes">60</Option>
    <Option name="HiddenLayers" modified="Yes">N+5</Option>
    <Option name="NeuronType" modified="Yes">tanh</Option>
    <Option name="RandomSeed" modified="No">1</Option>
    <Option name="EstimatorType" modified="No">CE</Option>
    <Option name="NeuronInputType" modified="No">sum</Option>
    <Option name="V" modified="Yes">False</Option>
    <Option name="VerbosityLevel" modified="No">Default</Option>
    <Option name="VarTransform" modified="Yes">N</Option>
    <Option name="H" modified="Yes">True</Option>
    <Option name="CreateMVAPdfs" modified="No">False</Option>
    <Option name="IgnoreNegWeightsInTraining" modified="No">False</Option>
    <Option name="TrainingMethod" modified="Yes">BFGS</Option>
    <Option name="LearningRate" modified="No">2.000000e-02</Option>
    <Option name="DecayRate" modified="No">1.000000e-02</Option>
    <Option name="TestRate" modified="Yes">5</Option>
    <Option name="EpochMonitoring" modified="No">False</Option>
    <Option name="Sampling" modified="No">1.000000e+00</Option>
    <Option name="SamplingEpoch" modified="No">1.000000e+00</Option>
    <Option name="SamplingImportance" modified="No">1.000000e+00</Option>
    <Option name="SamplingTraining" modified="No">True</Option>
    <Option name="SamplingTesting" modified="No">False</Option>
    <Option name="ResetStep" modified="No">50</Option>
    <Option name="Tau" modified="No">3.000000e+00</Option>
    <Option name="BPMode" modified="No">sequential</Option>
    <Option name="BatchSize" modified="No">-1</Option>
    <Option name="ConvergenceImprove" modified="No">1.000000e-30</Option>
    <Option name="ConvergenceTests" modified="No">-1</Option>
    <Option name="UseRegulator" modified="Yes">True</Option>
    <Option name="UpdateLimit" modified="No">10000</Option>
    <Option name="CalculateErrors" modified="No">False</Option>
    <Option name="WeightRange" modified="No">1.000000e+00</Option>
  </Options>
  <Variables NVar="4">
    <Variable VarIndex="0" Expression="var1+var2" Label="myvar1" Title="myvar1" Unit="" Internal="myvar1" Type="F" Min="-9.23118687e+00" Max="7.07192516e+00"/>
    <Variable VarIndex="1" Expression="var1-var2" Label="myvar2" Title="Expression 2" Unit="" Internal="myvar2" Type="F" Min="-3.70671988e+00" Max="4.02912045e+00"/>
    <Variable VarIndex="2" Expression="var3" Label="var3" Title="Variable 3" Unit="units" Internal="var3" Type="F" Min="-5.15695810e+00" Max="4.15070820e+00"/>
    <Variable VarIndex="3" Expression="var4" Label="var4" Title="Variable 4" Unit="units" Internal="var4" Type="F" Min="-6.31600189e+00" Max="4.52105665e+00"/>
  </Variables>
  <Spectators NSpec="2">
    <Spectator SpecIndex="0" Expression="var1*2" Label="spec1" Title="Spectator 1" Unit="units" Internal="spec1" Type="F" Min="-9.63254642e+00" Max="9.05203056e+00"/>
    <Spectator SpecIndex="1" Expression="var1*3" Label="spec2" Title="Spectator 2" Unit="units" Internal="spec2" Type="F" Min="-1.44488201e+01" Max="1.35780458e+01"/>
  </Spectators>
  <Classes NClass="2">
    <Class Name="Signal" Index="0"/>
    <Class Name="Background" Index="1"/>
  </Classes>
  <Transformations NTransformations="1">
    <Transform Name="Normalize" UseOffsetOrNot="UseOffset">
      <Selection>
        <Input NInputs="4">
          <Input Type="Variable" Label="myvar1" Expression="var1+var2"/>
          <Input Type="Variable" Label="myvar2" Expression="var1-var2"/>
          <Input Type="Variable" Label="var3" Expression="var3"/>
          <Input Type="Variable" Label="var4" Expression="var4"/>
        </Input>
        <Output NOutputs="4">
          <Output Type="Variable" Label="myvar1" Expression="var1+var2"/>
          <Output Type="Variable" Label="myvar2" Expression="var1-var2"/>
          <Output Type="Variable" Label="var3" Expression="var3"/>
          <Output Type="Variable" Label="var4" Expression="var4"/>
        </Output>
      </Selection>
      <Class ClassIndex="0">
        <Ranges>
          <Range Index="0" Min="-5.1623420715332031e+00" Max="5.7821455001831055e+00"/>
          <Range Index="1" Min="-3.7067198753356934e+00" Max="4.0291204452514648e+00"/>
          <Range Index="2" Min="-3.1826326847076416e+00" Max="3.6047577857971191e+00"/>
          <Range Index="3" Min="-2.9492409229278564e+00" Max="3.8494880199432373e+00"/>
        </Ranges>
      </Class>
      <Class ClassIndex="1">
        <Ranges>
          <Range Index="0" Min="-9.2311868667602539e+00" Max="7.0719251632690430e+00"/>
          <Range Index="1" Min="-3.4577968120574951e+00" Max="3.4579715728759766e+00"/>
          <Range Index="2" Min="-5.1569581031799316e+00" Max="4.1507081985473633e+00"/>
          <Range Index="3" Min="-6.3160018920898438e+00" Max="4.5210566520690918e+00"/>
        </Ranges>
      </Class>
      <Class ClassIndex="2">
        <Ranges>
          <Range Index="0" Min="-9.2311868667602539e+00" Max="7.0719251632690430e+00"/>
          <Range Index="1" Min="-3.7067198753356934e+00" Max="4.0291204452514648e+00"/>
          <Range Index="2" Min="-5.1569581031799316e+00" Max="4.1507081985473633e+00"/>
          <Range Index="3" Min="-6.3160018920898438e+00" Max="4.5210566520690918e+00"/>
        </Ranges>
      </Class>
    </Transform>
  </Transformations>
  <MVAPdfs/>
  <Weights>
    <Layout NLayers="3">
      <Layer Index="0" NNeurons="5">
        <Neuron NSynapses="9">
          1.2386672511906958e+00 1.9886054390063626e+00 7.5809993487465244e-01 8.4349697727330836e-02 -1.9464825350403319e+00 -1.2579485228120397e+00 -9.7017303257109411e-01 2.2159576574968027e+00 -2.2029815306918379e+00 
        </Neuron>
        <Neuron NSynapses="9">
          3.7474839730577206e-03 -1.4055862653796090e+00 -5.0329107469008660e-01 -7.6101090989684461e-01 -3.1814609995232407e-01 -1.0894479093925347e+00 4.5287299652833968e-01 -1.6632772024065889e-02 1.4413447042577163e+00 
        </Neuron>
        <Neuron NSynapses="9">
          6.4942982351603618e-01 1.3668109995370041e+00 -2.8951851678433815e-01 -7.4997414003758178e-01 -5.4923663784475862e-01 5.4701396654720247e-01 -1.9262821228909197e+00 -4.6538196712922447e-01 1.0870209657592864e+00 
        </Neuron>
        <Neuron NSynapses="9">
          -1.8426473108537342e+00 -1.5577515993808650e+00 5.9240516851444580e-01 1.8554805812701869e+00 4.3638171288293552e+00 1.0552041529164093e+00 -8.4722373012570629e-02 2.7627988976763895e-01 7.6883238696404854e-01 
        </Neuron>
        <Neuron NSynapses="9">
          -7.3869440111845291e-02 2.2436613011262629e+00 -9.8289240127421296e-01 6.3916376341153636e-01 -7.0482251487852920e-01 8.5280608798721388e-02 9.2579994387086129e-01 1.2206593077996633e+00 -1.7582940362933985e-01 
        </Neuron>
      </Layer>
      <Layer Index="1" NNeurons="10">
        <Neuron NSynapses="1">
          -2.4334734375017164e+00 
        </Neuron>
        <Neuron NSynapses="1">
          6.6225020065482687e-01 
        </Neuron>
        <Neuron NSynapses="1">
          7.2321962643073598e-02 
        </Neuron>
        <Neuron NSynapses="1">
          1.1042682883331649e+00 
        </Neuron>
        <Neuron NSynapses="1">
          5.0262400250703445e+00 
        </Neuron>
        <Neuron NSynapses="1">
          2.3210611884780552e+00 
        </Neuron>
        <Neuron NSynapses="1">
          1.9701970579939472e+00 
        </Neuron>
        <Neuron NSynapses="1">
          -1.1805774316023325e+00 
        </Neuron>
        <Neuron NSynapses="1">
          9.1322285550588012e-01 
        </Neuron>
        <Neuron NSynapses="1">
          -1.2145990382056440e+00 
        </Neuron>
      </Layer>
      <Layer Index="2" NNeurons="1">
        <Neuron NSynapses="0"/>
      </Layer>
    </Layout>
    <InverseHessian NElements="3025" NRows="55" NCols="55">
      <Row Index="0">
        5.5193190861180312e+02 -3.7666583368414541e+02 2.6791852216336056e+03 2.3684318227516306e+02 2.5953642042364010e+01 -1.8901951491984324e+01 3.3350526621045049e+01 1.3176566255031048e+02 5.4186459930078804e+01 1.6720248432938671e+00 -1.5327973936021601e+02 -6.7908302444832611e+02 5.3269983013969700e+01 4.3755406841449886e+00 -2.6921293170260800e+01 -6.0001465602637829e+00 -1.2778327064526046e+01 -4.9552189159128881e+00 1.6948593254688649e+02 -1.3143572024305487e+02 -1.0817511997674853e+03 6.2935704495938666e+01 6.0930962938928399e+00 2.7225005526804669e+00 2.7472331483017964e+01 6.8686643719014754e+01 -1.2701234724025928e+01 -6.3546017647527594e+02 5.8826932976200771e+02 -5.9438382219735740e+02 -3.4454143055173120e+02 -4.0121074461535777e+01 3.1550335059825002e+01 -4.6834845398458697e+01 -1.8117158732080412e+02 -4.2819955092295551e+01 2.9532765206275712e+01 -1.5230435192555383e+01 -1.2896117371099213e+03 -4.7997533182578167e+01 1.7387543897924500e+00 -2.7787473023766811e+00 -2.3597377582537429e+00 -2.0025769413024648e+00 8.5464000036783716e-01 9.3152311222525714e+02 -6.1143277375257128e+01 -2.8466401273468819e+01 1.6282505884363530e+02 1.0801815151870473e+02 -9.5520113379434861e+01 3.3231649941024081e+01 2.1803763211309274e+01 1.9051699204840816e+01 1.9851696187979178e+02 
      </Row>
      <Row Index="1">
        -3.7666583367083672e+02 6.0704267793347635e+03 8.7415398055369167e+02 7.8332780611138674e+02 -6.7673965522863506e+00 3.6254756046221111e+01 -9.2495899533236255e+01 -7.5640760155604767e+01 -1.2499123693744155e+01 5.3999651119466755e+01 -1.5687036026323283e+03 1.6907066819339917e+01 2.8290369928790579e+02 4.4409289344109165e-01 2.1423616481254047e+02 9.9835544253650479e+00 -8.6739740606265485e+01 -4.7945484392896290e+01 1.2354642332009135e+02 2.8682766321885265e+03 -8.5816966468633309e+03 3.4086632350355814e+02 2.9586826124526433e+00 -2.0520012830928444e+01 -4.9777968894329000e+01 -1.6293243986400898e+02 4.2013026663549631e+01 -3.1114165759998968e+01 -6.1313443152840928e+03 1.3313661855644614e+04 -1.3428188550946895e+03 3.9489424253170284e+00 -1.6105654738371183e+02 1.3614744083236889e+02 2.8892593148757484e+01 1.4209965716297437e+00 6.2546094048682335e+00 1.8658540575342702e+03 -5.2329540726834375e+03 1.1375972947547012e+02 5.1685034877564737e+00 7.4980217914976350e+01 -3.4548653739410540e+00 -3.9642078490095372e+01 -1.6245567971241986e+01 3.1707264030607070e+02 -2.1525664743557395e+03 -1.0059209860525764e+03 9.4737001100764746e+02 -9.9106008453115976e+01 7.5670858424221842e+02 -3.2125416281645883e+01 -4.3030561661106253e+02 1.9745172130022866e+01 9.4996158723622182e+02 
      </Row>
      <Row Index="2">
        2.6791852214611486e+03 8.7415398149314478e+02 2.2114319043190894e+05 1.0944679483748954e+04 3.1750762460379332e+02 2.0456133362540221e+01 -6.3183155866098943e+01 1.5434171337592124e+02 7.1767383462832993e+02 6.1793845346044657e+02 -2.5046607935648126e+02 -6.1996805286500448e+03 2.4750471950437686e+03 9.9543178424224280e+01 1.5676522917235710e+02 -4.7514258364311246e+01 -1.0786685325314747e+03 3.8696854461126537e+02 -1.0990401180781882e+03 1.3767117184506496e+03 -9.5240762710769304e+03 1.4979791493560838e+03 3.4679373071238587e+01 -1.6807650653753979e+02 -2.7367598377850538e+02 -8.2570080670524999e+02 3.7057594056953110e+02 -1.4312743915076476e+03 -2.4358367567912983e+03 -1.5861219407992257e+05 -1.3091767000555883e+04 -6.1742950904114605e+02 7.9870767332711239e+01 3.0977934981429644e+02 1.6537815735002457e+03 -1.0275381044306112e+03 -3.1382027462021051e+02 -8.0000721817684507e+01 -4.0057401680821684e+04 2.6149145473484259e+02 3.7779760042057262e+01 1.8639985820855941e+01 6.0221228003337473e+00 2.3074648526728788e+02 2.1013844496959791e+01 -4.2963306209580269e+03 -1.1438026728980076e+03 -5.8363574310356034e+03 4.0939131450647965e+03 1.1432952922800866e+03 8.6372255827810341e+02 -2.5463846557414041e+02 -3.7580881454389214e+02 -3.7006243103929319e+02 -4.6549233810299856e+03 
      </Row>
      <Row Index="3">
        2.3684318226948037e+02 7.8332780614119622e+02 1.0944679483525460e+04 1.5336770945837818e+03 2.5208396189344004e+01 -1.9656534083689795e+01 -2.0636825885298851e+01 -3.0920960203964114e+01 9.0130764643194979e+01 1.2558946324362699e+01 -5.9390387144874126e+02 -1.8562731495257805e+02 1.8480641989767068e+02 1.0539126763006948e+01 4.2210602359416271e+01 -5.3140774011486567e+00 -1.4612448587998890e+02 -6.9988270477575938e+01 5.6447772385714956e+01 5.0291721423899617e+02 4.0321679731522352e+02 4.0523419870625310e+02 1.6541488846800608e+01 -3.4577342212899133e+01 1.6990869390619672e+01 -1.7153708736005889e+01 -5.7426960185559160e+01 -2.4010730049356528e+02 -4.1678802345468205e+02 -7.9901506655031681e+03 -1.9299185261352256e+03 -5.2415779192771993e+01 3.7938621014298661e+01 3.7644212645682657e+01 -6.6406857685998915e+01 -3.7047980633226729e+01 -1.0708275837712607e+02 6.1186848000816713e+02 -1.0391074757860051e+03 8.7051620784365639e+01 9.0001538319751475e+00 1.5907022875364131e+01 -1.1035591995444296e+01 -7.3080985747994589e+01 -1.2866252935295023e+01 3.8322826982815172e-01 -5.3295767130951936e+02 -1.4602538976026730e+02 6.6238004462292474e+02 5.0367222490323968e+01 1.9467567920498175e+02 5.5295923548440250e+01 -2.9751399060398694e+02 1.1033622424427114e+02 -9.9946409258730583e+01 
      </Row>
      <Row Index="4">
        2.5953642043491641e+01 -6.7673965505272387e+00 3.1750762460845488e+02 2.5208396190831682e+01 1.5940879732610677e+01 -4.3801954677391786e+00 7.7570337103497566e+00 1.8082630493289329e+01 -1.0638176003659661e+01 1.1927022338880808e+00 -3.5320850596508301e+01 -1.3545872361184729e+02 -1.8193207703211115e+01 2.3319094762388970e-01 1.2057331771497868e+00 -1.4855827122377412e+00 2.6834456397446806e+00 4.2765910952087935e+00 2.4519783726513090e+01 -1.5978850391241849e+01 7.7487214802857977e+01 1.3927173433720480e+01 5.2368011635064269e+00 -1.2616793246525277e+00 1.0865553977043072e+01 1.5237238587482155e+01 3.2102163260818650e+00 -5.5294442977851375e+01 6.7245644225991072e+01 -2.7967370596570532e+02 -1.7466194476496351e+01 -2.3762436299711990e+01 4.8710622104550660e+00 -1.1664518141462729e+01 -3.7953689346614354e+01 8.9750786640809519e+00 -3.4592125968460881e+00 3.3223610523869830e+01 -1.6106567740934807e+02 2.2598912654232919e+00 1.3986325203303065e+00 -6.4935909952744064e-02 -1.8055541240256376e+00 -2.9245481030192382e+00 -1.0663891330272512e+00 6.7415344794415290e+01 -1.1456775358211736e+01 -4.0375821385815769e+01 -4.3618257489851878e+01 4.5028928597697124e+01 3.5891520811875530e+00 1.7410545675460785e+01 2.2375944344362537e+00 -9.3134657179912850e+00 1.2473087745968966e+01 
      </Row>
      <Row Index="5">
        -1.8901951486583950e+01 3.6254756046567259e+01 2.0456133360321729e+01 -1.9656534081005034e+01 -4.3801954672697470e+00 1.0558845756699135e+02 3.5124923281013789e+00 -5.6269839220545634e+01 1.2072996584846814e+02 -1.3892806556011355e+00 -5.2067607866019245e+01 5.6337962669571561e+02 -7.6736852339082846e+00 -1.7363901156201260e+00 1.3909859514447447e+01 2.5528441477230941e+00 -1.6152225580507729e+01 -1.1809374857967210e+01 -6.5661635374527023e+00 8.2624712134693254e+01 -1.3673414864432613e+02 -2.8143557875016114e+01 -1.1137709885257976e+00 -3.5296767318891412e+01 1.8119723716932772e+00 9.5494361508227188e-01 -7.8441183148206775e+01 2.0194623859295888e+01 -3.0485535667050243e+01 7.0404714245705591e+01 1.0451804644070666e+02 7.4505070998059342e+00 -7.3004510589382789e+01 -1.7430881492324879e+00 8.0551828208077367e+01 -4.8208339099326899e+01 1.2124573938839482e+00 3.4653986869434675e+01 4.4660644124031484e+02 2.6901848097851936e+01 -7.6922468330509730e-01 6.6214541181925313e-01 -1.0315242863170793e+00 6.3929246029932756e+00 5.8125249077656935e+00 -4.5874451895182744e+01 -6.0290986130166260e+01 1.0359024001315078e+01 -4.6185937282603703e+01 -1.4070795887742648e+01 1.6220752224551381e+02 6.5379259326147565e+00 -3.3318606046841630e+00 6.8754603420994798e+01 4.4513100482447705e+01 
      </Row>
      <Row Index="6">
        3.3350526619810687e+01 -9.2495899531781205e+01 -6.3183155848152325e+01 -2.0636825885092701e+01 7.7570337103517648e+00 3.5124923276358015e+00 2.7784079013750222e+01 -1.1097540842572371e+01 -3.6328750960519685e+00 -1.0587454282861570e+01 -1.9633213530743818e+00 -2.7564179343752994e+02 1.4517939142300513e+00 -1.0232274879918084e+00 1.0126834336887702e-01 -8.6909570163764349e-01 -1.0973432163656625e+00 4.6246586242155789e+00 2.5511570342316375e+01 -7.8870127665373616e+01 1.8848068550908826e+02 1.7884691655410784e+01 5.8672562094259435e+00 -1.7053438096897697e+00 1.5032244258498555e+01 -7.9504449877933792e-01 2.7293221122705034e+00 -4.9168602744554718e+01 1.5967672030239680e+02 1.5796433838788755e+02 3.8879187476809474e+00 -1.2211155002335392e+01 -1.3401095736253013e+00 -3.4748349570636151e+01 7.6270714057573947e+00 3.5280036735980365e+00 -6.1924925366467143e-01 -1.0532493218475132e+01 -4.5561647391123250e+02 -1.0673719326848246e+01 -6.1658077569345826e-01 -6.4616570604476475e-01 -6.5817562419105013e-01 -2.1359910128231010e+00 -1.0608615196206865e+00 7.8076481084673929e+01 2.1126050258981238e+01 -1.6850231559094205e+01 1.4024405888421549e+01 3.0794116908039776e+01 4.9151735638510559e+00 2.0571636879815220e+01 -4.6772557627112281e+00 -7.2422993981236701e+00 -4.3136363766046584e+00 
      </Row>
      <Row Index="7">
        1.3176566256851896e+02 -7.5640760177774752e+01 1.5434171351522491e+02 -3.0920960192390975e+01 1.8082630494352536e+01 -5.6269839222650454e+01 -1.1097540841365374e+01 9.3749865610747827e+02 3.9031325206291150e+01 3.3541851045198143e+01 -1.1850593618769022e+01 1.6050415079640948e+03 -1.4989126477466593e+02 8.2913702436216745e+00 4.6297180856356341e+00 -1.0406455650413132e+01 1.9678463991595169e+02 -2.6896497959509471e+01 5.7542247171784275e+01 -1.0785306443164689e+02 1.2628685980591929e+02 1.6458162247205461e+01 1.8635474506342729e+00 7.3543638816466901e+00 2.1147587583793939e+01 1.6882615579948299e+02 -1.3845165200623061e+01 -1.4310140226743360e+02 1.9712183809332402e+02 -2.6797072224679175e+02 -1.4929557292728262e+02 -2.0790673495785239e+01 3.7833365726947747e+01 6.7726839929904727e+00 -8.4914893731994948e+02 -4.4054093046707337e+01 -2.9968304490886126e+01 -5.2430086737853401e+00 6.5693378786781727e+02 -1.4579140378154167e+02 4.6655231164429143e+00 -4.5473465616772826e+00 -7.2672503473398198e+00 1.5697282229966916e+02 -1.0020108699751505e+01 2.4773091811335223e+02 -8.6594751997563044e+00 1.2118602546974444e+02 -4.9957856028365006e+02 3.6179971677320069e+01 -2.4516543055315861e+01 3.0990674437212078e+01 5.8053158521431465e+02 5.8700365894692219e+01 7.8476315738686218e+00 
      </Row>
      <Row Index="8">
        5.4186459930606510e+01 -1.2499123701689346e+01 7.1767383465639705e+02 9.0130764646692711e+01 -1.0638176003797122e+01 1.2072996584832974e+02 -3.6328750953921012e+00 3.9031325206333626e+01 4.7503628412307739e+02 -1.4111450924956166e+01 2.1861370871346210e+01 -5.1284594815456546e+02 4.8482135422728652e+00 5.8239879506047076e+00 -1.1477147098850264e+01 -1.9775062237604812e+00 3.2105711302627782e+01 -1.0187399048554829e+02 -4.1240072954517061e+01 7.3819542196093664e+01 -1.3011831959729366e+03 -1.2471637184175188e+01 1.2321530262162312e+00 -5.9679006475794331e+01 3.9662805737601698e+00 4.7072307369447394e+01 -1.8513726224888075e+02 -1.5237220760450670e+01 -7.3063882842953205e+01 -8.6945437674535356e+01 -2.7549266558032537e+02 1.1379170787869739e+01 -6.0355476012022031e+01 7.0658507744934216e+00 -8.9902454900134913e+01 -3.0011555704146701e+02 3.5948080259087867e+00 -2.8195690045031931e+01 6.8307175910397575e+02 -7.4323091475236083e+01 5.7821046860236125e-01 1.4777055366725422e+00 -3.2018331175849268e+00 5.0456617079324237e+00 1.8855878189710978e+01 2.1763567306870961e+01 -2.8746606296467093e+01 7.7119058391157267e+01 1.2311551439835215e+02 -5.4958213032106343e+01 1.5199190207181823e+02 9.9071923537547022e+00 4.9942917013247623e+01 2.6501784621682651e+02 -3.2720481265374430e+00 
      </Row>
      <Row Index="9">
        1.6720248459847538e+00 5.3999651124800096e+01 6.1793845350828747e+02 1.2558946329150970e+01 1.1927022341508025e+00 -1.3892806551084993e+00 -1.0587454282869235e+01 3.3541851046381083e+01 -1.4111450922906263e+01 9.1794790264056005e+01 9.3643192072441025e+01 1.0593834604641836e+03 2.6331377368123481e+00 1.4183149269006534e-01 -1.6442118341255526e+01 -8.7032909878600506e-01 -1.7621378639047752e+01 5.0718562910788618e+00 -9.6782194244503863e+00 3.4185635295193606e+00 -1.6453970234547128e+02 -8.8233707244962744e+01 -3.3743798131530616e+00 8.6376413533089522e+00 -8.7045167692163861e-02 3.4222963764397338e+00 -1.9112805000423947e+00 -5.7015561162479194e+01 -2.1563290399284722e+02 1.7533853296360394e+02 1.7549499039823445e+02 6.2606397809725696e+00 1.6050843276196041e+00 1.1948660494929760e+01 5.0300828721036694e-01 1.8563540560396465e+01 4.5332538679928533e+01 -1.0891630948749983e+02 9.0585233558538150e+01 4.0465202503407511e+01 -5.6041266404227152e-01 -7.2963417540913866e-01 -8.3762541280795944e-01 1.3177554952783542e+01 -1.0131501359860451e+00 -8.0147462633634660e+01 6.5366918436752528e+01 -1.1121746900977760e+02 -2.0245974554982445e+02 -2.3840625925240872e+01 -7.1060205941693212e+01 8.9066032782152149e-01 1.8287203426998161e+01 -6.7848473226804913e+00 2.4332644240039606e+01 
      </Row>
      <Row Index="10">
        -1.5327973938749267e+02 -1.5687036025643206e+03 -2.5046607876663967e+02 -5.9390387141874101e+02 -3.5320850594923854e+01 -5.2067607859125637e+01 -1.9633213549950139e+00 -1.1850593621075859e+01 2.1861370868097378e+01 9.3643192076991028e+01 1.7323498126972136e+03 8.8247613040421129e+02 -6.2273966043030981e+01 3.3733889088344204e-01 -7.4208332943343819e+01 -2.5354893256719873e+00 3.4707992546746937e+01 4.2344072492956123e+01 -2.5496614809161693e+02 -1.2421927222033264e+03 6.6464822418960637e+01 -5.0749239158227630e+02 -2.0510622611959441e+01 1.2796316178461273e+01 -1.3780446523540810e+01 2.3253766899814039e+00 2.9330361398947161e+01 3.0371408442119827e+02 7.1167378185223788e+02 -1.9677799887005635e+03 1.0779849272190529e+03 6.8680159928819975e+01 6.2738436808017241e+01 -1.0082381653596947e+01 7.3807751294811339e+01 -6.3462567084626151e+01 1.3768545068866251e+02 -1.1385657299385746e+03 1.8793875414552865e+03 -1.1736142680382137e+01 -7.6378753431215793e+00 -9.2814662169605011e+00 8.9575770807299495e+00 3.9236663331130863e+01 3.6127997516082013e+00 -6.5745429638129963e+02 1.4553787566796198e+03 1.1543169913994655e+02 -5.0724822451550250e+02 -1.3656817044437457e+02 -3.4657916786995145e+02 -5.2925274357202397e+01 1.1397224418002281e+02 -3.3915170129322760e+01 -8.4891124853865438e+02 
      </Row>
      <Row Index="11">
        -6.7908302401083347e+02 1.6907066095069240e+01 -6.1996805276345212e+03 -1.8562731495639085e+02 -1.3545872359512396e+02 5.6337962667206943e+02 -2.7564179339798568e+02 1.6050415080054481e+03 -5.1284594809169789e+02 1.0593834604918154e+03 8.8247613067297789e+02 7.0126401081852324e+04 -1.3540126787088320e+03 -3.7962558917049634e+01 2.6966937062957334e+02 5.6338986442683861e+01 7.5680245883182579e+01 1.0901508094050909e+02 -5.0345697532454574e+02 -8.9205232659290778e+02 2.8953075181674758e+04 -3.5666321414227714e+03 -1.9341421710514578e+02 -2.6079363406363831e+02 7.0325786957581542e+01 6.2498498353378352e+01 -2.6807333263788087e+02 1.1358750306053564e+03 -4.9301028110471088e+02 -8.0226459275856483e+04 8.0742178202542409e+03 3.6922911147106339e+02 -3.1482095347265033e+02 2.3870186868871673e+02 -1.8837285695801677e+02 7.1403658325418576e+02 2.6413763583169975e+02 -1.7707817945777583e+03 6.9626398780810661e+04 2.1693155900618090e+03 -6.1744494576635240e+00 -5.6029837538818470e+01 -1.7957312732796709e+01 5.2000357872707559e+02 -5.5028823883082794e+00 -4.1282938826117088e+03 5.9520671301309210e+02 6.1009200431864483e+03 -8.6438642671797279e+03 -4.0134286822675494e+02 1.6832002268599604e+03 1.4042799917880075e+01 1.8857305801315306e+03 -8.6824790588316318e+01 3.8403647748154403e+03 
      </Row>
      <Row Index="12">
        5.3269982982246177e+01 2.8290369932317543e+02 2.4750471949092866e+03 1.8480641989074786e+02 -1.8193207704489367e+01 -7.6736852313212243e+00 1.4517939117861314e+00 -1.4989126477536161e+02 4.8482135389862160e+00 2.6331377359152786e+00 -6.2273966053942786e+01 -1.3540126786325491e+03 3.4935287273058282e+02 2.2830432715470703e+00 -3.9318699895242530e+00 -7.5173902155247507e-01 -8.2434114795212338e+01 1.3569070821848449e+01 -5.4120762810119935e+01 2.6486916636949354e+02 -2.7570009370560679e+03 1.5031177363689122e+02 -1.0270283704753643e+01 8.0900120225160652e+00 -3.1331480360532961e+01 -1.0785235183411420e+02 2.0974512735343495e+01 6.6035152350374332e+01 -5.4034116546431869e+02 4.7208767487420746e+03 -5.6990515783405203e+02 2.4513519060331337e+01 -5.7959707812149581e+00 1.2680004624485539e+01 2.0723024028872453e+02 -1.6755271684642075e+01 -1.3432841555661739e+01 -1.5635166123139030e+01 -5.1613569088634049e+03 -4.7365905436908506e+01 -1.0258538212124180e+00 1.0110704480658624e+01 5.5435923266945455e+00 -2.7717745862181044e+01 -2.1730639173632937e-01 1.4920190871949956e+02 -2.0468440889599128e+02 -3.2095792806511110e+02 8.1663249852674915e+02 -2.6320553521761781e+01 -2.4395415605866212e+01 -5.3256142320091897e+01 -1.8075831088317341e+02 -1.8027218030479190e+01 -1.8866820697290797e+02 
      </Row>
      <Row Index="13">
        4.3755406839160020e+00 4.4409289360200077e-01 9.9543178423543736e+01 1.0539126763084194e+01 2.3319094759063175e-01 -1.7363901156275399e+00 -1.0232274880035603e+00 8.2913702434067460e+00 5.8239879505631080e+00 1.4183149262213179e-01 3.3733889088287583e-01 -3.7962558918459592e+01 2.2830432717464912e+00 7.4018577375292194e-01 -7.7255745228597694e-01 -4.7463237333680219e-01 1.8955964535299099e+00 -2.4120485114881167e+00 -1.2755327307780386e+00 3.7420649522462668e+00 -4.0271409483731539e+01 6.1844091338857643e+00 2.7923571526826835e-01 2.3506780647565820e-01 5.2471424351291165e-02 4.1811172629441415e+00 -1.9891657226786892e+00 -2.6472347280159152e+00 -4.4216305773165629e+00 -6.5487388273503612e+01 -3.0403072688175406e+01 -9.1653293520599133e-01 1.6525452482327778e+00 1.4485540131598071e+00 -1.2884689690650546e+01 -4.9146061564295049e+00 -1.0736160228846714e+00 -6.3025835430338173e-01 3.7328043913094291e+00 -5.8055490692499596e+00 2.3263036475948343e-01 -2.0951987613222117e-02 -2.7820076911322983e-01 9.3335744007569499e-02 2.3019863667514739e-01 3.4699812637618330e+00 -2.4209013450851549e+00 -2.1831236068628002e-01 9.8629629306557334e+00 -3.9476200685797735e-01 -3.7842812101216565e+00 4.0489781660727253e-01 3.7264199557519442e+00 4.7820626969792688e+00 -4.6136337890678902e+00 
      </Row>
      <Row Index="14">
        -2.6921293166534809e+01 2.1423616481503362e+02 1.5676522914684455e+02 4.2210602360480948e+01 1.2057331773616689e+00 1.3909859514108632e+01 1.0126834352828365e-01 4.6297180864748952e+00 -1.1477147099003279e+01 -1.6442118341660656e+01 -7.4208332950424847e+01 2.6966937066046557e+02 -3.9318699911899984e+00 -7.7255745228121153e-01 3.1165382489463415e+01 1.2298673958162594e+00 -1.2531523451801689e+00 -4.1298020079935860e+00 2.5791350380307847e+01 5.9559385457034296e+01 -2.7538723547038842e+02 3.0545782358736107e+00 1.4124106006965405e+00 -1.2835753287510974e+01 2.2021373070513524e+00 -8.6296231138168196e+00 7.7669668556016092e-01 -8.9279654611148906e-01 -1.1717495245857390e+02 2.7670109482442064e+02 -2.4794404035258626e+01 -1.6130907818920890e+00 -1.5360792189429967e+01 -6.1687402917161105e-01 7.2124079316168945e+00 1.0119312436891565e+01 -8.5138785785500222e+00 9.5002272836952400e+01 5.4266858548224860e+01 7.5946495011346276e+00 5.0177630199428669e-02 2.6622746442037295e+00 -4.8794212922054347e-01 2.8980850414928323e+00 -1.2355727249773327e+00 3.8111697669794047e+01 -9.3735516763124849e+01 -1.8766993043515978e+01 -7.2205496837847125e+00 -3.9180010491720907e-01 1.2621708152463954e+02 5.2698808634908474e+00 -3.1272310487640436e+00 2.1509318972356084e-02 3.7770150127386636e+01 
      </Row>
      <Row Index="15">
        -6.0001465598888020e+00 9.9835544248400758e+00 -4.7514258367163194e+01 -5.3140774013144876e+00 -1.4855827122252336e+00 2.5528441477629693e+00 -8.6909570161164573e-01 -1.0406455650210688e+01 -1.9775062236311858e+00 -8.7032909876412168e-01 -2.5354893257664202e+00 5.6338986447738819e+01 -7.5173902190210740e-01 -4.7463237333837049e-01 1.2298673958114257e+00 1.5193553630776289e+00 -2.0974982801700399e+00 1.6059282961695207e+00 -2.9179150224246886e+00 1.2389238190791730e+01 -2.1576358945393046e+01 -1.1065391278846064e+01 -9.6795292625466045e-01 -2.9610014419056624e-01 -1.5270212374443841e+00 -5.8610587406699608e+00 1.4084637315760862e+00 9.7309021654291961e+00 -1.5548560249441039e+01 -2.4262654418891287e+00 2.2604525941328554e+01 2.5870872258804551e+00 -2.3072865462426382e+00 -2.9123393792364394e-01 1.4151203862411794e+01 6.2976943817687192e-01 5.7007500653978349e-01 2.3526613932745151e+00 1.0237320606654418e+02 5.6235624006537162e+00 -1.7011218540628142e-01 2.9810606941012008e-02 9.1181203726891868e-01 -1.1737607423588519e+00 3.1539116108611442e-01 -1.2312824197556123e+01 -4.9255221374642790e+00 5.7618259131750218e+00 -3.8785785597795979e+00 -3.1576443637046818e+00 6.5387656633436277e+00 -3.7978886395934968e+00 -3.6586144927079181e+00 -2.1689993390471809e+00 6.2670685388421825e+00 
      </Row>
      <Row Index="16">
        -1.2778327056034051e+01 -8.6739740620353317e+01 -1.0786685324994223e+03 -1.4612448587879214e+02 2.6834456400871467e+00 -1.6152225581158604e+01 -1.0973432157397502e+00 1.9678463991692684e+02 3.2105711303224716e+01 -1.7621378638912311e+01 3.4707992551903658e+01 7.5680245880265829e+01 -8.2434114796287815e+01 1.8955964535896692e+00 -1.2531523456642337e+00 -2.0974982802651931e+00 9.5481214663826705e+01 -1.2670247225055896e+01 5.1836137864455418e+00 -4.4476636906408658e+01 3.0307138016371169e+02 -1.8116433415675605e+01 3.1401068812690287e+00 9.2271724183433523e-01 5.2967344742860547e+00 5.0373964863870270e+01 -6.5232166686815134e+00 3.0101950109763642e+00 1.1022378646744050e+02 -5.4301087449831198e+02 7.2974150355950982e+01 -5.5307753979259333e+00 9.2034840143084526e+00 -2.7835925599958262e+00 -2.0975613626125036e+02 -3.3786057323967029e+01 -3.6716051508675323e+00 -2.0855611426587529e+01 1.0906500848424823e+03 -6.4511275056959619e+01 8.2466100745533855e-01 -3.3139891461430215e-01 -9.3055588450016025e-01 3.3217790005234050e+01 2.3415201494529603e+00 1.0074680560742264e+01 2.6454870145549176e+01 1.0277966396387581e+02 -2.0130760265805520e+02 3.2154518198139215e-01 -1.1862567350053002e+01 6.5449141409260889e+00 1.7114982800453143e+02 2.6694782294857866e+01 3.8198937956294095e+01 
      </Row>
      <Row Index="17">
        -4.9552189174897432e+00 -4.7945484385480995e+01 3.8696854462129517e+02 -6.9988270476672326e+01 4.2765910953254789e+00 -1.1809374857650951e+01 4.6246586238837954e+00 -2.6896497959133427e+01 -1.0187399048533706e+02 5.0718562915660925e+00 4.2344072489705411e+01 1.0901508094753740e+02 1.3569070821560587e+01 -2.4120485114805472e+00 -4.1298020077403086e+00 1.6059282962039281e+00 -1.2670247224937690e+01 5.8351349768537730e+01 -7.5305367747723659e+00 6.7600520688683901e+00 2.7132938554139844e+02 -2.1980920774059921e+01 -1.5558069211561096e+00 7.1350219359641720e+00 -6.7718770362185481e+00 -2.9870068011846556e+01 5.4671795675798080e+01 1.3991212937777131e+01 -9.0178810887913414e+00 -1.7462677385544407e+02 1.4764001146915615e+02 -4.8114007419167439e+00 6.1570692594850840e+00 -6.1916933120048423e+00 6.3295687255121095e+01 4.6247481770646900e+01 7.8910709963987156e+00 -3.2351041620127397e+01 -6.8768622514401363e+02 2.3740895051793039e+01 -5.6796330766546843e-01 -1.7886106379386824e-01 3.3230359124484052e+00 1.3072206344474573e+00 -2.2961767616550626e+00 -3.4448622019921856e+01 2.7925410656975128e+01 -6.9333341088845216e+01 -2.9820313659643134e+01 2.7227108439297076e+01 -3.3656740952961485e+01 -1.4062259702804187e+01 -1.1211706207395192e+01 -8.7689831656311910e+01 -1.6180722896936601e+01 
      </Row>
      <Row Index="18">
        1.6948593255694087e+02 1.2354642331738251e+02 -1.0990401180459387e+03 5.6447772388965873e+01 2.4519783726862258e+01 -6.5661635418053468e+00 2.5511570343185703e+01 5.7542247167754795e+01 -4.1240072956555920e+01 -9.6782194257324861e+00 -2.5496614809261928e+02 -5.0345697548110729e+02 -5.4120762799816077e+01 -1.2755327306493704e+00 2.5791350378449412e+01 -2.9179150226110018e+00 5.1836137839982257e+00 -7.5305367741436484e+00 2.6237692901217713e+02 -4.2737508106416499e+01 1.9051594159566591e+03 2.1556116796690574e+02 1.6526845837105455e+01 -1.2978517398691345e+01 2.6445173944161088e+01 3.2459839956524888e+01 3.4269048125298696e+00 -4.2662349547701047e+02 2.9696508225524940e+02 8.3376742694594031e+02 -1.6456078871545787e+02 -3.7036041180229766e+01 8.1944952556860109e+00 -3.8701018062458374e+01 -1.0393304300463160e+02 4.1111310035209435e+01 1.4754500487938202e+01 2.4163524430505478e+02 -8.2522470714943029e+02 -2.0328748462737298e+01 4.8293568722722302e-01 4.6391772929559094e-01 -1.6603674002200144e+00 -6.0858385674752355e+00 -2.1069410409779437e+00 5.6815326855985927e+02 -1.3158253051926945e+02 -1.3564666493777685e+02 -9.2278356432385081e+01 6.1282123215254046e+01 9.5431832937828375e+01 4.3456523278550520e+01 -4.9696836449073736e+00 -8.1266971117869957e+00 1.8785566126668408e+02 
      </Row>
      <Row Index="19">
        -1.3143572024614650e+02 2.8682766321644522e+03 1.3767117177215819e+03 5.0291721420846341e+02 -1.5978850393510186e+01 8.2624712135406426e+01 -7.8870127666885651e+01 -1.0785306441841749e+02 7.3819542200428316e+01 3.4185635254949531e+00 -1.2421927222307258e+03 -8.9205232599723968e+02 2.6486916634010163e+02 3.7420649519992537e+00 5.9559385454766669e+01 1.2389238191281223e+01 -4.4476636895739830e+01 6.7600520637751202e+00 -4.2737508110793556e+01 2.8521648486294725e+03 -5.2223471787025974e+03 3.6183020022639232e+02 -1.6614621117722503e+01 -2.7546148639681149e+00 -5.2998926915914168e+01 -5.7699383978022524e+01 -9.0883116208153751e+00 1.3063229241296602e+02 -3.7833363078576549e+03 7.8932753598210020e+03 -1.2068182438852621e+03 1.7131520793826866e+01 -1.1809128792698300e+02 1.0423387664573855e+02 7.5604833182002494e+01 -1.0506010971398005e+02 -5.1518408848258503e+01 1.2711225161465106e+03 -3.8379741330407514e+03 6.3726273262544815e+01 6.9685368695203582e+00 2.7794115983540131e+01 4.0150980674955647e+00 -2.0339736984062760e+01 2.1528401426918187e+01 8.0685042049999055e+01 -1.5807901750552201e+03 -5.2471847010690271e+02 1.0300181099966333e+03 -4.9328858803168714e+01 2.8059403357136125e+02 -7.6666614366845010e+01 -1.8210260446000098e+02 5.1946038361985387e+01 5.3293558741590266e+02 
      </Row>
      <Row Index="20">
        -1.0817511994106903e+03 -8.5816966475051740e+03 -9.5240762707505419e+03 4.0321679719402664e+02 7.7487214825609001e+01 -1.3673414870076394e+02 1.8848068554371446e+02 1.2628685984594154e+02 -1.3011831960293669e+03 -1.6453970229111764e+02 6.6464822718040068e+01 2.8953075181750355e+04 -2.7570009371764886e+03 -4.0271409484602742e+01 -2.7538723549989078e+02 -2.1576358949373496e+01 3.0307138017465525e+02 2.7132938556324422e+02 1.9051594161196685e+03 -5.2223471793182325e+03 1.3987392411527541e+05 4.4548369862669460e+03 1.2933176695077719e+02 -5.0342072741646973e+01 2.6720733244578838e+02 3.6626824208534697e+02 1.5069850737303744e+02 2.2751748695924175e+02 1.3545547049098997e+04 -1.7267003081623587e+05 -5.2491682661809864e+02 -1.8510561952363969e+02 4.2719413133917658e+02 -2.5205829655939851e+02 -3.7824875012359314e+02 1.1072494688655279e+03 -6.0515278555246186e+02 7.7926983586709775e+02 6.2102411196061854e+04 1.2777048586974443e+03 4.5723186781881324e+00 -1.5192203204248008e+02 3.1037977286147402e+00 -6.5401308784067623e+01 -2.0196244909005145e+01 -6.7571118503317957e+03 3.5548651619052775e+03 7.1253542808581824e+03 -6.6870767793676696e+03 4.3992665128628369e+02 -1.1404685746922091e+03 4.6824577953876030e+02 1.0045165467246088e+03 -5.4753559701122504e+02 1.8759687966232835e+02 
      </Row>
      <Row Index="21">
        6.2935704474442389e+01 3.4086632352994820e+02 1.4979791490901785e+03 4.0523419869298573e+02 1.3927173433142428e+01 -2.8143557877052263e+01 1.7884691653534599e+01 1.6458162246989104e+01 -1.2471637195863460e+01 -8.8233707245958897e+01 -5.0749239160092475e+02 -3.5666321412683319e+03 1.5031177362994299e+02 6.1844091335924887e+00 3.0545782363613796e+00 -1.1065391278475097e+01 -1.8116433413120262e+01 -2.1980920772848080e+01 2.1556116796127077e+02 3.6183020024838697e+02 4.4548369864794331e+03 9.1483427794541569e+02 2.2578424955040795e+01 5.5163581882698658e+00 -2.6173548317429365e+00 5.8359261079134058e+01 -2.3589372714798003e+01 -1.5386894907571838e+02 3.9078744584920059e+01 -7.0251467732892343e+02 -1.5708038160957526e+03 -4.1622520284223171e+01 1.1377579664647115e+01 9.5189477824081337e-01 -1.5695768675558452e+02 2.7859439202142514e+01 -1.1902902021030617e+02 6.2878933852509908e+02 -4.8894119088895959e+03 -1.3299594146502312e+02 4.0964930143995204e+00 6.9043652924588290e+00 -3.9298356046609255e+00 -2.6907350584962387e+01 -2.7640170643421129e+00 2.1594653345863293e+02 -3.5056006767320525e+02 -2.4296873827329927e+02 8.4410283002052392e+02 5.4798714689760459e+01 -3.6547689135139478e+01 2.2660720062664097e+01 -1.0837115361776000e+02 2.9079331226575384e+01 -2.7191477511672713e+02 
      </Row>
      <Row Index="22">
        6.0930962945129652e+00 2.9586826137729076e+00 3.4679373068635826e+01 1.6541488847237879e+01 5.2368011635154774e+00 -1.1137709888008911e+00 5.8672562094414982e+00 1.8635474502493459e+00 1.2321530260649984e+00 -3.3743798133125438e+00 -2.0510622613262939e+01 -1.9341421711272824e+02 -1.0270283704184047e+01 2.7923571527835944e-01 1.4124106006226917e+00 -9.6795292625951079e-01 3.1401068811474797e+00 -1.5558069211702208e+00 1.6526845837173020e+01 -1.6614621116345688e+01 1.2933176694189419e+02 2.2578424955496580e+01 4.7088532000418830e+00 -1.6716240927502286e+00 6.3778672519747497e+00 7.2183357817234608e+00 -1.8792778912269847e+00 -2.8820278868333123e+01 5.0317048270249131e+01 -9.4260449801177458e+01 -3.9914436490431939e+01 -9.6689232395659754e+00 1.5917870700687033e+00 -7.3155681172371008e+00 -1.4968210132239147e+01 2.0810637872348653e-01 -1.7960458104212904e+00 2.3100879447846530e+01 -3.7946969270790454e+01 -7.9253810673172893e+00 3.3139343993328907e-01 3.5107693562873221e-01 -1.3507503262429295e+00 -2.4141750522272680e+00 -1.8195278257748670e-01 2.5477062065064761e+01 -8.4012994010710713e+00 -1.9254263918066805e+01 -1.0201581492856109e+01 1.2509523684824964e+01 5.9877698807775479e+00 1.2089789495563709e+01 -3.5313089123184151e+00 2.3714730936649531e+00 3.7423430921653837e+00 
      </Row>
      <Row Index="23">
        2.7225005491492240e+00 -2.0520012833798887e+01 -1.6807650655337932e+02 -3.4577342216273422e+01 -1.2616793249022624e+00 -3.5296767318571156e+01 -1.7053438099832698e+00 7.3543638813423939e+00 -5.9679006475785322e+01 8.6376413539296344e+00 1.2796316183930685e+01 -2.6079363405369554e+02 8.0900120220257463e+00 2.3506780644384628e-01 -1.2835753287639159e+01 -2.9610014414996888e-01 9.2271724192396221e-01 7.1350219361078651e+00 -1.2978517400785281e+01 -2.7546148662650012e+00 -5.0342072749783910e+01 5.5163581854244796e+00 -1.6716240929009929e+00 2.8301023665966042e+01 -3.9236787215830180e+00 -5.6334510914769282e+00 3.1191423750865930e+01 1.2361383529525664e+01 -3.3531455398325079e+01 2.8230674882133280e+02 2.1611967482859100e+00 2.0656266325495407e+00 1.3240131648176821e+01 2.7276054768907478e+00 -3.6254726923547409e+00 3.2083638221657459e+01 3.8679830202690759e+00 -2.4237805232725179e+01 -3.2882316875980399e+02 -7.8347068814322549e+00 2.7107971118693341e-02 -4.8285746535236551e-01 6.0514953813842154e-01 3.4333365949255068e-03 -2.5162881768818339e+00 -2.2554647721781723e+01 2.3242356204397556e+01 -6.4042415028768183e+00 3.6835005663289095e+01 -4.1676758239617584e-01 -1.0525099132464000e+02 -7.9995106317442009e+00 3.2536316047644149e+00 -3.4288082466145283e+01 -1.5403657205897520e+01 
      </Row>
      <Row Index="24">
        2.7472331485702270e+01 -4.9777968897576557e+01 -2.7367598375637402e+02 1.6990869392037609e+01 1.0865553977102650e+01 1.8119723710238511e+00 1.5032244258777435e+01 2.1147587582267690e+01 3.9662805737566313e+00 -8.7045167886387498e-02 -1.3780446521653943e+01 7.0325786923087662e+01 -3.1331480358661736e+01 5.2471424382398268e-02 2.2021373066921681e+00 -1.5270212374937779e+00 5.2967344736091810e+00 -6.7718770361348035e+00 2.6445173944489998e+01 -5.2998926917911376e+01 2.6720733241698537e+02 -2.6173548307758807e+00 6.3778672520075759e+00 -3.9236787213719051e+00 2.9666190219924523e+01 2.4391149947339045e+01 -7.5793052565603585e+00 -5.9346144179306215e+01 1.2453002376183792e+02 -1.6472436764938467e+02 1.4456655690309820e+01 -1.6361953981729151e+01 2.0173182557759235e+00 -2.4941627856349488e+01 -4.3588717776588695e+01 2.2073051461202189e+00 -1.2506023226308849e+00 1.3754393955204591e+01 5.9379313509320548e+02 4.2830079135176229e+00 4.7804860759128254e-01 -6.2824515989784557e-01 -4.2336736014745293e+00 -8.5215819441374130e-01 -2.9893264012297305e-02 7.3436286537441546e+01 1.0705285749811532e+01 2.3578508438627367e+01 -7.1224053653645527e+01 3.0334260412278063e+01 1.3606298334899023e+01 4.1197250731853003e+01 6.8199575494288140e+00 1.0875712809219426e+01 1.4649713350160955e+01 
      </Row>
      <Row Index="25">
        6.8686643727800387e+01 -1.6293243987391645e+02 -8.2570080663549447e+02 -1.7153708730543912e+01 1.5237238587676067e+01 9.5494361377856496e-01 -7.9504449803013433e-01 1.6882615579706879e+02 4.7072307369847351e+01 3.4222963756804763e+00 2.3253766934137730e+00 6.2498498287084203e+01 -1.0785235183041252e+02 4.1811172630439799e+00 -8.6296231144711584e+00 -5.8610587407989634e+00 5.0373964862462870e+01 -2.9870068011921333e+01 3.2459839958334769e+01 -5.7699383984115684e+01 3.6626824203425372e+02 5.8359261081802259e+01 7.2183357818363891e+00 -5.6334510911958811e+00 2.4391149947592531e+01 1.4873352205049753e+02 -4.9148896430712853e+01 -1.1226384837326771e+02 2.6862591707555566e+02 -7.2101341964325400e+02 -5.9975254356328847e+01 -2.3577856349526936e+01 1.0206863362725720e+01 -2.1316991071151024e+00 -2.8022499873900199e+02 -1.3198261721639300e+01 -1.3143062268534536e+01 2.8412171030524917e+01 1.5087592982586159e+03 -3.7695041895895599e+01 2.1209498021070790e+00 -5.1579586276035734e+00 -7.4866256709839654e+00 2.3028048772911422e+01 3.6206093686552698e+00 1.3486055327990914e+02 4.1081651202986073e+01 9.4627873240307039e+01 -2.0602059604684351e+02 3.1003716234187380e+01 -2.9451030396170808e+01 4.6002360836345382e+01 1.1139536446826264e+02 5.8264599365840880e+01 2.7846630114463075e+01 
      </Row>
      <Row Index="26">
        -1.2701234727871977e+01 4.2013026667130191e+01 3.7057594055759313e+02 -5.7426960188332160e+01 3.2102163258984779e+00 -7.8441183148012399e+01 2.7293221117552826e+00 -1.3845165200764136e+01 -1.8513726224861509e+02 -1.9112804991442811e+00 2.9330361401104255e+01 -2.6807333263212985e+02 2.0974512735749329e+01 -1.9891657226881445e+00 7.7669668539457382e-01 1.4084637316288284e+00 -6.5232166686344346e+00 5.4671795675959451e+01 3.4269048095425134e+00 -9.0883116177012084e+00 1.5069850732744467e+02 -2.3589372718616865e+01 -1.8792778914184194e+00 3.1191423750997021e+01 -7.5793052569321100e+00 -4.9148896431132528e+01 1.2961403430495892e+02 1.3796914320426719e+01 -8.2564946545329661e+01 1.0897695443039142e+02 9.3554741027641484e+01 -2.9557806333349070e+00 4.6184918488232967e+01 -4.8863561135830569e+00 5.1404384096990562e+01 6.4482214882573558e+01 1.1782825463341403e+01 -2.6772590498413265e+01 -1.0128297265718109e+03 5.2306813736535558e+00 -6.4229048210128870e-01 -3.8151026046712100e-01 4.2547655081245068e+00 -3.2309053741985956e+00 -5.7332401404845710e+00 -9.4584661486369690e+00 1.9539562043911335e+01 -7.4707707641326124e+01 2.3729462522167257e+01 1.9527890204595337e+01 -1.0101516314739263e+02 -1.7991998736689034e+01 -1.6607050812912963e+01 -1.3097251594320576e+02 -5.3843074149500714e+00 
      </Row>
      <Row Index="27">
        -6.3546017649085343e+02 -3.1114165761284312e+01 -1.4312743917428081e+03 -2.4010730051038036e+02 -5.5294442977430094e+01 2.0194623868219097e+01 -4.9168602746487167e+01 -1.4310140224792713e+02 -1.5237220760971923e+01 -5.7015561157924942e+01 3.0371408441124277e+02 1.1358750312073462e+03 6.6035152308042598e+01 -2.6472347284772439e+00 -8.9279654149962084e-01 9.7309021659801687e+00 3.0101950215444049e+00 1.3991212936615966e+01 -4.2662349547016129e+02 1.3063229239239445e+02 2.2751748754075535e+02 -1.5386894910451156e+02 -2.8820278867873242e+01 1.2361383524831780e+01 -5.9346144176604710e+01 -1.1226384836413536e+02 1.3796914314909259e+01 1.1188413963917444e+03 -5.0176660959600122e+02 -1.4934126578686810e+03 2.7348378890165668e+02 8.0727960629410987e+01 -3.2515956478751065e+01 7.4932203957303315e+01 2.5646688257059873e+02 9.0865349632956338e-01 -1.0451809582284181e+02 -1.8678651460081801e+02 1.7317123127187424e+03 5.4825634682155467e+01 -1.0878869677773340e+00 -2.1884663679943905e-01 7.0693059985202300e+00 7.1968662174407712e+00 1.0713953915724517e+00 -1.3955508357655017e+03 1.5503988473040488e+02 3.8388265517250113e+02 2.0874650793063370e+02 -1.3069138859947566e+02 -6.0387987475801310e+00 -9.4501197616885293e+01 4.3105021216733306e+00 -1.5160893729700547e+01 -4.4079807284868514e+02 
      </Row>
      <Row Index="28">
        5.8826932979425362e+02 -6.1313443153264307e+03 -2.4358367559202316e+03 -4.1678802342638164e+02 6.7245644228551328e+01 -3.0485535676567494e+01 1.5967672030786338e+02 1.9712183806380244e+02 -7.3063882851940406e+01 -2.1563290399039676e+02 7.1167378192185242e+02 -4.9301028201371082e+02 -5.4034116541702645e+02 -4.4216305768916584e+00 -1.1717495246193670e+02 -1.5548560250525867e+01 1.1022378645044557e+02 -9.0178810811315415e+00 2.9696508226147296e+02 -3.7833363079022311e+03 1.3545547048281951e+04 3.9078744611419097e+01 5.0317048271569078e+01 -3.3531455396560858e+01 1.2453002375965920e+02 2.6862591706539479e+02 -8.2564946535598210e+01 -5.0176660964233281e+02 8.2729901876794738e+03 -1.8294101172158953e+04 9.2598738717938943e+02 -1.1197232038172274e+02 1.7328758609157012e+02 -2.2359478840116194e+02 -3.1162063404777450e+02 1.5124743660294291e+02 -1.3305582149815996e+02 -1.4014817690291493e+03 7.6628302917962410e+03 -1.7436754299290646e+02 -2.8571855919741846e+00 -7.3967709135133944e+01 -9.8974589401511963e+00 2.6427422911791041e+00 -3.9420759371103742e+00 4.1829084941344286e+02 1.7284389696917333e+03 1.2896523406248109e+03 -1.3492954841646181e+03 2.8277328846074238e+02 -3.5091773981674919e+02 1.8545720852733086e+02 4.0512857490998704e+02 -2.7847756769481293e+00 -3.9534154310815751e+02 
      </Row>
      <Row Index="29">
        -5.9438382303370781e+02 1.3313661856943480e+04 -1.5861219408147750e+05 -7.9901506654279219e+03 -2.7967370599049968e+02 7.0404714350990659e+01 1.5796433830180541e+02 -2.6797072212329294e+02 -8.6945437694809698e+01 1.7533853289998933e+02 -1.9677799893276679e+03 -8.0226459273775516e+04 4.7208767487621890e+03 -6.5487388274961347e+01 2.7670109490647951e+02 -2.4262654311036727e+00 -5.4301087445385019e+02 -1.7462677386856296e+02 8.3376742664276912e+02 7.8932753609879583e+03 -1.7267003081498400e+05 -7.0251467709571807e+02 -9.4260449816168602e+01 2.8230674880014772e+02 -1.6472436769433801e+02 -7.2101341969130954e+02 1.0897695436791309e+02 -1.4934126566802988e+03 -1.8294101173668052e+04 4.9702079857244273e+05 2.5410896377198005e+03 7.5340540640909887e+02 -7.0679127632856989e+02 -1.8863006594702529e+02 -4.8449219767298928e+00 1.2101159634920032e+02 1.0842849864282707e+03 1.9497339035912009e+03 -1.7013273427715560e+05 -3.3227217707682921e+03 -6.4330880416048672e+01 2.5424510910811597e+02 5.0301159577722842e+01 -1.8481907173610125e+01 -1.6702807871184632e+02 1.6852905810682758e+04 -5.2615443872966880e+03 -1.5746379013836529e+04 1.3959671830625502e+04 -1.8468668358249906e+03 4.6115702902935391e+02 -3.4327332512893599e+02 -2.4543254476397324e+03 2.5234234573490539e+02 -2.0813463637656000e+03 
      </Row>
      <Row Index="30">
        -3.4454143048888341e+02 -1.3428188551762360e+03 -1.3091766999918909e+04 -1.9299185261126945e+03 -1.7466194472537609e+01 1.0451804644260510e+02 3.8879187524565992e+00 -1.4929557291379933e+02 -2.7549266556038242e+02 1.7549499040568389e+02 1.0779849272689680e+03 8.0742178200101407e+03 -5.6990515783463184e+02 -3.0403072687594516e+01 -2.4794404036391086e+01 2.2604525940416622e+01 7.2974150353774121e+01 1.4764001146840783e+02 -1.6456078869391962e+02 -1.2068182439611192e+03 -5.2491682711266549e+02 -1.5708038161174409e+03 -3.9914436488714244e+01 2.1611967413321622e+00 1.4456655694829351e+01 -5.9975254343876713e+01 9.3554741021532664e+01 2.7348378880594947e+02 9.2598738727742602e+02 2.5410896380825325e+03 4.5512521578712485e+03 7.8720489184693847e+01 -6.8920341782656408e+01 -5.3949996998927276e+01 4.7226877010788621e+02 2.1251251423875735e+02 2.6844194154798845e+02 -1.2457101895990509e+03 1.0822008806094995e+04 3.5045608733175789e+02 -1.5313170755429464e+01 -3.1347829197893990e+01 1.2741836033793625e+01 8.8581554748763665e+01 1.0738408412674914e+01 -4.2400098011057878e+02 1.0821938560783399e+03 6.1153955929700760e+02 -2.4658916401528227e+03 -3.6509161646892153e+01 -2.4850680535206777e+01 -3.0215277061669440e+01 3.2711427557092475e+02 -2.5874237669100853e+02 6.6363503797121950e+02 
      </Row>
      <Row Index="31">
        -4.0121074462837214e+01 3.9489424230352483e+00 -6.1742950903725557e+02 -5.2415779194298899e+01 -2.3762436299649732e+01 7.4505071006045105e+00 -1.2211155002324187e+01 -2.0790673493822425e+01 1.1379170787912443e+01 6.2606397813921824e+00 6.8680159930910520e+01 3.6922911149215645e+02 2.4513519058507555e+01 -9.1653293524578960e-01 -1.6130907814970659e+00 2.5870872258934869e+00 -5.5307753974145371e+00 -4.8114007417684137e+00 -3.7036041179516502e+01 1.7131520790658897e+01 -1.8510561949749541e+02 -4.1622520284972182e+01 -9.6689232395259364e+00 2.0656266320562295e+00 -1.6361953981600703e+01 -2.3577856349085245e+01 -2.9557806337417336e+00 8.0727960629358421e+01 -1.1197232037789354e+02 7.5340540637991398e+02 7.8720489189652696e+01 3.8991724472565544e+01 -7.8081777495105049e+00 1.6368250334610302e+01 5.6218203428499621e+01 -9.4903932162898599e+00 1.0810801726884256e+01 -6.7240187499266540e+01 1.8846784475549956e+02 2.5006586835911238e+00 -2.5388694807040038e+00 -4.0030978173610354e-01 3.4460741827223442e+00 6.9122419244616360e+00 7.9497645199971601e-01 -1.0311075060280061e+02 3.0042813402479815e+01 5.3645810140912026e+01 3.4461063368359326e+01 -7.3364062948883003e+01 -4.7185251441152829e+00 -2.8171267033734647e+01 3.5834335832031634e+00 1.0753171375002196e+01 -1.2814985311603795e+01 
      </Row>
      <Row Index="32">
        3.1550335057244290e+01 -1.6105654738404019e+02 7.9870767367019624e+01 3.7938621014572675e+01 4.8710622101637000e+00 -7.3004510589635004e+01 -1.3401095737632147e+00 3.7833365724628209e+01 -6.0355476011947665e+01 1.6050843276943922e+00 6.2738436813510134e+01 -3.1482095352482020e+02 -5.7959707772242410e+00 1.6525452482592780e+00 -1.5360792189734061e+01 -2.3072865462593235e+00 9.2034840132613738e+00 6.1570692597800303e+00 8.1944952528383794e+00 -1.1809128792633146e+02 4.2719413127338589e+02 1.1377579665527151e+01 1.5917870699219510e+00 1.3240131648433376e+01 2.0173182551973117e+00 1.0206863361452292e+01 4.6184918488505936e+01 -3.2515956473630695e+01 1.7328758608405587e+02 -7.0679127620353506e+02 -6.8920341788297407e+01 -7.8081777490571582e+00 6.6684470450964284e+01 -1.4408989646377535e+00 -6.8121905207168595e+01 1.6171106410329784e+01 -1.3643541087256175e+00 -6.1114642991710639e+01 3.7868891883672468e+01 -1.4331692323820496e+01 6.2041827243615044e-01 -3.4073115942355869e+00 4.4007464937836005e-01 -7.6704976025081208e+00 -2.5763859054171547e+00 4.2479196868933286e+01 8.5852906392520524e+01 2.0700467533852819e+01 -8.8300196387519172e+00 1.4095001511889592e+01 -1.1270426582090923e+02 4.5382217786113443e-01 6.4668364959958069e-01 -3.5527886962442629e+01 -3.6584002947967846e+01 
      </Row>
      <Row Index="33">
        -4.6834845398542903e+01 1.3614744083252572e+02 3.0977934978107021e+02 3.7644212644776893e+01 -1.1664518141494831e+01 -1.7430881484693892e+00 -3.4748349570771403e+01 6.7726839947950737e+00 7.0658507749485242e+00 1.1948660494970262e+01 -1.0082381656927311e+01 2.3870186875002446e+02 1.2680004620786871e+01 1.4485540131264030e+00 -6.1687402882493725e-01 -2.9123393786729035e-01 -2.7835925590013169e+00 -6.1916933123840225e+00 -3.8701018061596926e+01 1.0423387664513666e+02 -2.5205829650124480e+02 9.5189477592053606e-01 -7.3155681172294855e+00 2.7276054765281490e+00 -2.4941627856042956e+01 -2.1316991062399424e+00 -4.8863561142301570e+00 7.4932203956603360e+01 -2.2359478839611768e+02 -1.8863006607115386e+02 -5.3949996991507717e+01 1.6368250334676606e+01 -1.4408989650534414e+00 5.1964602918431133e+01 4.1131020799154570e+00 -4.2087058228548191e+00 -2.8907589624466805e+00 2.4538603692081722e+01 1.7328173038509641e+02 8.4696639865464221e+00 9.8334130535962094e-01 9.6876349616206447e-01 -4.7657290306684841e-01 4.7386369819923004e+00 5.0560188171107523e-01 -1.1398725222363181e+02 -3.4082577386263281e+01 6.0880003209519273e+00 2.7645544041126765e+01 -4.1826151254544001e+01 -7.8334317764922332e+00 -2.8033515823841604e+01 1.3116463734897010e-01 9.5471702734707904e+00 -1.1882851443317710e+01 
      </Row>
      <Row Index="34">
        -1.8117158733952201e+02 2.8892593175686670e+01 1.6537815733798907e+03 -6.6406857696399101e+01 -3.7953689347034526e+01 8.0551828211362221e+01 7.6270714043702377e+00 -8.4914893731627990e+02 -8.9902454900039601e+01 5.0300828924535779e-01 7.3807751287424480e+01 -1.8837285685912912e+02 2.0723024028284397e+02 -1.2884689690891967e+01 7.2124079333726598e+00 1.4151203862665286e+01 -2.0975613625903102e+02 6.3295687255470668e+01 -1.0393304300668837e+02 7.5604833196121945e+01 -3.7824875004539285e+02 -1.5695768675882084e+02 -1.4968210132358266e+01 -3.6254726935335100e+00 -4.3588717777452814e+01 -2.8022499873973459e+02 5.1404384096053946e+01 2.5646688258681746e+02 -3.1162063407430560e+02 -4.8449219715057552e+00 4.7226877012972022e+02 5.6218203429554748e+01 -6.8121905210084918e+01 4.1131020816316557e+00 1.0071133025291524e+03 6.5911745401128854e+01 5.3103979200089910e+01 -1.3758890790532269e+02 -1.6408215520882709e+03 1.8225553878307298e+02 -7.4802917552072747e+00 2.2165400410614451e+00 1.1681013057126490e+01 -1.0398258214674465e+02 6.8103825236483484e+00 -4.3680948767937002e+02 3.9794026661070298e+01 -1.7314196620541094e+02 4.1028365921479207e+02 -7.9587171748385970e+01 8.0808180315147126e+01 -7.2551802796585392e+01 -4.7092758538035378e+02 -1.1627586723602116e+02 -4.8619030134716006e+01 
      </Row>
      <Row Index="35">
        -4.2819955090077059e+01 1.4209965759009719e+00 -1.0275381044511407e+03 -3.7047980635023904e+01 8.9750786643562979e+00 -4.8208339099345238e+01 3.5280036733824325e+00 -4.4054093046442517e+01 -3.0011555704166085e+02 1.8563540561750774e+01 -6.3462567088670596e+01 7.1403658330800295e+02 -1.6755271688185871e+01 -4.9146061564664532e+00 1.0119312436847569e+01 6.2976943825535958e-01 -3.3786057323366080e+01 4.6247481770755776e+01 4.1111310035560436e+01 -1.0506010971279306e+02 1.1072494688459469e+03 2.7859439193800569e+01 2.0810637872957827e-01 3.2083638221563390e+01 2.2073051464001781e+00 -1.3198261720914360e+01 6.4482214882842200e+01 9.0865349166347187e-01 1.5124743660206900e+02 1.2101159629034260e+02 2.1251251425380065e+02 -9.4903932165454670e+00 1.6171106410616630e+01 -4.2087058229426146e+00 6.5911745400382415e+01 2.4944963388895246e+02 -1.2750797378474950e+01 4.9716583854242629e+01 -2.2186319466255384e+01 7.7706186251598666e+01 -1.2016705230520514e-01 -6.6539318628704303e-01 -5.7380425713882222e-01 -5.3064931139350966e+00 -1.5572897025279289e+01 -5.8378531841635581e+00 1.5044371345022178e+01 -1.5815134326306634e+01 -1.3618316656370229e+02 4.1894440988148851e+01 -6.1180871538542391e+01 5.8073947392596814e+00 -5.2185844885174966e+01 -1.4460081108401252e+02 1.8758005728498421e+01 
      </Row>
      <Row Index="36">
        2.9532765208307744e+01 6.2546094075005385e+00 -3.1382027454289471e+02 -1.0708275837309458e+02 -3.4592125966979843e+00 1.2124573937815799e+00 -6.1924925349089754e-01 -2.9968304491273557e+01 3.5948080276256036e+00 4.5332538680070414e+01 1.3768545069100628e+02 2.6413763573693632e+02 -1.3432841550218228e+01 -1.0736160228030620e+00 -8.5138785785549516e+00 5.7007500645230103e-01 -3.6716051521778184e+00 7.8910709964512193e+00 1.4754500488088730e+01 -5.1518408845508930e+01 -6.0515278566812162e+02 -1.1902902020667057e+02 -1.7960458103560057e+00 3.8679830199643419e+00 -1.2506023228804128e+00 -1.3143062268981510e+01 1.1782825463088756e+01 -1.0451809582554698e+02 -1.3305582150589225e+02 1.0842849866539091e+03 2.6844194153407699e+02 1.0810801726689556e+01 -1.3643541085075837e+00 -2.8907589624821792e+00 5.3103979200328240e+01 -1.2750797380013953e+01 6.4254489230268760e+01 -1.3094462791985870e+02 1.5780968004573594e+00 9.7395996634776907e+00 -2.0416821412915294e+00 -5.9997653997977496e-01 1.8273432122700415e+00 4.3931871324444671e+00 1.4282030047118024e+00 6.2076835152416578e+01 9.3558926273334436e+01 -9.5452368377621099e+01 -1.5282055508464015e+02 -3.3451536094310399e+01 -3.5921632158431123e+01 -5.8208620217410783e+00 6.3811493729217261e-01 -1.0268359388123145e+01 7.0179939743506324e+01 
      </Row>
      <Row Index="37">
        -1.5230435190642709e+01 1.8658540575419042e+03 -8.0000722205858665e+01 6.1186847999750887e+02 3.3223610523384863e+01 3.4653986866069744e+01 -1.0532493219111998e+01 -5.2430086733081680e+00 -2.8195690051272905e+01 -1.0891630949053817e+02 -1.1385657299708375e+03 -1.7707817942909969e+03 -1.5635166136572337e+01 -6.3025835448941692e-01 9.5002272835726643e+01 2.3526613935929621e+00 -2.0855611422498868e+01 -3.2351041621311154e+01 2.4163524430498367e+02 1.2711225161594539e+03 7.7926983617851147e+02 6.2878933851607962e+02 2.3100879447366715e+01 -2.4237805229631633e+01 1.3754393956056973e+01 2.8412171031533660e+01 -2.6772590495687439e+01 -1.8678651459520142e+02 -1.4014817690176687e+03 1.9497339029626933e+03 -1.2457101895663723e+03 -6.7240187498940216e+01 -6.1114642990205120e+01 2.4538603692128508e+01 -1.3758890790838058e+02 4.9716583858461803e+01 -1.3094462792182830e+02 1.5063363514777602e+03 -1.8293899456218385e+03 3.7724067560183755e+01 8.3468042202813741e+00 2.1681620601433547e+01 -9.7766104574680099e+00 -4.0487809253365214e+01 -3.5558398693216624e+00 4.1838909947086199e+02 -8.2689264890049799e+02 -2.1301459542619637e+02 5.5662299973280471e+02 1.1133308837670967e+02 3.7889767350600920e+02 5.6445031424254282e+01 -1.7072666474131017e+02 3.3253082085155796e+01 9.7177374274643498e+01 
      </Row>
      <Row Index="38">
        -1.2896117363609544e+03 -5.2329540740486700e+03 -4.0057401679022849e+04 -1.0391074758206305e+03 -1.6106567739126649e+02 4.4660644118593552e+02 -4.5561647383888362e+02 6.5693378785456298e+02 6.8307175920005011e+02 9.0585233597305887e+01 1.8793875420757249e+03 6.9626398779843876e+04 -5.1613569089187968e+03 3.7328043936092854e+00 5.4266858485344073e+01 1.0237320605730781e+02 1.0906500848216547e+03 -6.8768622514865865e+02 -8.2522470690687987e+02 -3.8379741341647459e+03 6.2102411195290653e+04 -4.8894119091310495e+03 -3.7946969261108961e+01 -3.2882316876930372e+02 5.9379313514054365e+02 1.5087592983408504e+03 -1.0128297265658066e+03 1.7317123117230008e+03 7.6628302933690720e+03 -1.7013273427886784e+05 1.0822008806442569e+04 1.8846784473531034e+02 3.7868891981921024e+01 1.7328173027904717e+02 -1.6408215521708808e+03 -2.2186319558576542e+01 1.5780969719953646e+00 -1.8293899461874098e+03 1.6836361676126212e+05 2.4722099050751385e+03 1.7283498353989444e+01 -1.4085016921249800e+02 -1.0725090329193434e+02 3.6644875342306023e+01 1.7927190794512251e+02 -6.9198961685459153e+03 2.9487333971759745e+03 1.3367164506453320e+04 -1.4437423442530422e+04 -3.8284478140595638e+02 1.0314949887572320e+03 7.8798948715698043e+02 2.1499782192569655e+03 1.1784099349624612e+03 5.5097796475524510e+03 
      </Row>
      <Row Index="39">
        -4.7997533171936233e+01 1.1375972945831882e+02 2.6149145474036334e+02 8.7051620783109229e+01 2.2598912658053081e+00 2.6901848097417552e+01 -1.0673719325924921e+01 -1.4579140378070213e+02 -7.4323091473059264e+01 4.0465202504616229e+01 -1.1736142674526491e+01 2.1693155900858465e+03 -4.7365905440657230e+01 -5.8055490692427494e+00 7.5946495002952830e+00 5.6235624005585159e+00 -6.4511275056518116e+01 2.3740895051480781e+01 -2.0328748458777653e+01 6.3726273246855271e+01 1.2777048587077256e+03 -1.3299594147180562e+02 -7.9253810671169909e+00 -7.8347068818440206e+00 4.2830079144135809e+00 -3.7695041894014309e+01 5.2306813733897144e+00 5.4825634666362689e+01 -1.7436754296909021e+02 -3.3227217708603521e+03 3.5045608734408836e+02 2.5006586831950166e+00 -1.4331692322425477e+01 8.4696639849780553e+00 1.8225553878048584e+02 7.7706186249836890e+01 9.7395996664686777e+00 3.7724067550525660e+01 2.4722099051439623e+03 1.8264987659934505e+02 3.1410477968913009e-01 -7.1734195705345405e-01 -3.1863112324967702e-01 -1.8308564938100520e+01 -1.2483439058495733e+00 -2.0037552711224623e+02 2.1862654912545963e+01 1.5537309511331540e+02 -2.4361265986526729e+02 2.6570767496528845e+01 5.3413642224929120e+01 3.3919463386444022e+00 -9.9730282965119642e+01 -4.9098459835426667e+01 1.0714866499311661e+02 
      </Row>
      <Row Index="40">
        1.7387543898547941e+00 5.1685034874133979e+00 3.7779760039172729e+01 9.0001538319045054e+00 1.3986325203146452e+00 -7.6922468333865179e-01 -6.1658077569501035e-01 4.6655231163311601e+00 5.7821046858784708e-01 -5.6041266406387202e-01 -7.6378753430916593e+00 -6.1744494551802553e+00 -1.0258538213275288e+00 2.3263036475905080e-01 5.0177630164765813e-02 -1.7011218540442524e-01 8.2466100746749671e-01 -5.6796330768856584e-01 4.8293568717490476e-01 6.9685368693318850e+00 4.5723186811775793e+00 4.0964930142432019e+00 3.3139343992635262e-01 2.7107971149291338e-02 4.7804860760158585e-01 2.1209498021133886e+00 -6.4229048209356709e-01 -1.0878869677263019e+00 -2.8571855915815760e+00 -6.4330880423582258e+01 -1.5313170755097866e+01 -2.5388694806850327e+00 6.2041827246242132e-01 9.8334130535526576e-01 -7.4802917551465429e+00 -1.2016705229177366e-01 -2.0416821412827719e+00 8.3468042200993153e+00 1.7283498359972722e+01 3.1410477978373125e-01 4.1727036788253136e-01 9.2022977055014193e-02 -3.5788160967698623e-01 -3.5981300338867805e-01 -1.1600017884238194e-01 3.8705742629224282e+00 -5.6409107229573392e+00 1.2645804523707964e+00 1.9207102794574054e+00 4.6021350278121442e+00 -2.3911512716631833e-02 1.1308506841591981e+00 1.1528644287029570e+00 9.1165958979305817e-01 -3.7965167966767982e-01 
      </Row>
      <Row Index="41">
        -2.7787473030292089e+00 7.4980217916285895e+01 1.8639985808648792e+01 1.5907022874956020e+01 -6.4935909992802521e-02 6.6214541187393472e-01 -6.4616570611975710e-01 -4.5473465615384541e+00 1.4777055365994902e+00 -7.2963417546087728e-01 -9.2814662181031125e+00 -5.6029837530309095e+01 1.0110704480320754e+01 -2.0951987621034757e-02 2.6622746442396221e+00 2.9810606955463781e-02 -3.3139891446681524e-01 -1.7886106384161746e-01 4.6391772915154361e-01 2.7794115984686300e+01 -1.5192203203363135e+02 6.9043652924140062e+00 3.5107693560936720e-01 -4.8285746531380125e-01 -6.2824515991606078e-01 -5.1579586276187754e+00 -3.8151026048160519e-01 -2.1884663589459530e-01 -7.3967709136178314e+01 2.5424510909655538e+02 -3.1347829197126924e+01 -4.0030978168075704e-01 -3.4073115943335814e+00 9.6876349625157809e-01 2.2165400409919398e+00 -6.6539318619881427e-01 -5.9997654011396762e-01 2.1681620601793934e+01 -1.4085016919899937e+02 -7.1734195679726898e-01 9.2022977060347497e-02 2.3481250909885780e+00 9.3978784197538190e-02 -2.5541911176669876e+00 -3.5614176646429169e-01 8.4065823065107157e+00 -2.3146890925012535e+01 -1.5601344332902229e+01 2.9205984518601504e+01 -1.1094609845065273e-01 8.9104180418075067e+00 -6.8180560614934205e-01 -1.1623611255982048e+01 7.4304356030597685e-01 1.0786443387991409e+00 
      </Row>
      <Row Index="42">
        -2.3597377587079529e+00 -3.4548653733549122e+00 6.0221227997986428e+00 -1.1035591995652808e+01 -1.8055541240274045e+00 -1.0315242862439424e+00 -6.5817562422874620e-01 -7.2672503471121654e+00 -3.2018331175797998e+00 -8.3762541275430924e-01 8.9575770806994619e+00 -1.7957312731935971e+01 5.5435923266676896e+00 -2.7820076911555280e-01 -4.8794212917825991e-01 9.1181203727215832e-01 -9.3055588444598092e-01 3.3230359124669429e+00 -1.6603674003356050e+00 4.0150980678893617e+00 3.1037977276350821e+00 -3.9298356046874430e+00 -1.3507503262484659e+00 6.0514953811373651e-01 -4.2336736014992331e+00 -7.4866256709900041e+00 4.2547655080969413e+00 7.0693059989982334e+00 -9.8974589409882299e+00 5.0301159582187680e+01 1.2741836034052529e+01 3.4460741827347370e+00 4.4007464930521412e-01 -4.7657290301463018e-01 1.1681013057029613e+01 -5.7380425712674166e-01 1.8273432122359297e+00 -9.7766104573488715e+00 -1.0725090329340259e+02 -3.1863112325136411e-01 -3.5788160967584692e-01 9.3978784201007290e-02 1.8026407951310510e+00 -1.1308717847430207e+00 1.1039345533196343e-01 -7.8924795359525097e+00 2.6939738415146568e+00 -4.0870297054453451e+00 9.4465229894015028e+00 -4.5771103665420272e+00 -2.9213991177486065e+00 -8.3998869125236784e+00 -2.1103765120162024e+00 -5.0692223598159982e+00 -1.2602642858340257e-01 
      </Row>
      <Row Index="43">
        -2.0025769378262606e+00 -3.9642078491417635e+01 2.3074648530546483e+02 -7.3080985744800529e+01 -2.9245481026108440e+00 6.3929246030357758e+00 -2.1359910126460298e+00 1.5697282230089166e+02 5.0456617079913819e+00 1.3177554952781957e+01 3.9236663329270044e+01 5.2000357873181213e+02 -2.7717745863375548e+01 9.3335744042260416e-02 2.8980850417448485e+00 -1.1737607423841934e+00 3.3217790005364975e+01 1.3072206343649642e+00 -6.0858385656929590e+00 -2.0339736985588161e+01 -6.5401308783420916e+01 -2.6907350585158454e+01 -2.4141750520502496e+00 3.4333362842273729e-03 -8.5215819395058379e-01 2.3028048773873053e+01 -3.2309053744510869e+00 7.1968662120805735e+00 2.6427422968902192e+00 -1.8481907220957510e+01 8.8581554747238101e+01 6.9122419237960759e+00 -7.6704976023030120e+00 4.7386369816346772e+00 -1.0398258214867343e+02 -5.3064931138709621e+00 4.3931871325350258e+00 -4.0487809251853491e+01 3.6644875362843322e+01 -1.8308564937934960e+01 -3.5981300335458632e-01 -2.5541911176958481e+00 -1.1308717848205179e+00 4.2683313856021172e+01 -6.7252103959571752e-01 -2.1943315381422909e+01 2.6307533302935475e+01 5.2698325210583619e+00 -1.3047340746043156e+02 -1.2328186336238936e+01 1.1958105088385398e+01 -4.8251012648166025e-01 1.2427064697261318e+02 4.5813536903052068e+00 -1.2928109869697330e+01 
      </Row>
      <Row Index="44">
        8.5464000083110170e-01 -1.6245567972903814e+01 2.1013844497210385e+01 -1.2866252935347212e+01 -1.0663891330334967e+00 5.8125249077122332e+00 -1.0608615195506879e+00 -1.0020108699740902e+01 1.8855878189844219e+01 -1.0131501360469661e+00 3.6127997524185531e+00 -5.5028823905541913e+00 -2.1730639168515964e-01 2.3019863667854079e-01 -1.2355727250446691e+00 3.1539116107439602e-01 2.3415201494358850e+00 -2.2961767616850333e+00 -2.1069410408340614e+00 2.1528401425752691e+01 -2.0196244906421327e+01 -2.7640170641576560e+00 -1.8195278257437275e-01 -2.5162881768817029e+00 -2.9893263982197826e-02 3.6206093687103689e+00 -5.7332401405086255e+00 1.0713953911260923e+00 -3.9420759354408688e+00 -1.6702807871385096e+02 1.0738408412396577e+01 7.9497645200559175e-01 -2.5763859053335421e+00 5.0560188162645159e-01 6.8103825235649182e+00 -1.5572897025382124e+01 1.4282030047547978e+00 -3.5558398696647231e+00 1.7927190794344273e+02 -1.2483439059597350e+00 -1.1600017884608452e-01 -3.5614176647634427e-01 1.1039345533292977e-01 -6.7252103960775611e-01 3.5068937012578845e+00 -9.3494754451117235e-01 -2.9019289472457546e+00 8.7749316229227716e+00 -4.5130407802663086e-02 -1.2729283398055635e+00 4.3903212016635838e+00 -7.4187448557741043e-01 7.7062492527758075e-01 9.1534173116853630e+00 6.5479623798409001e+00 
      </Row>
      <Row Index="45">
        9.3152311221511968e+02 3.1707264030959777e+02 -4.2963306207511559e+03 3.8322828229911465e-01 6.7415344792109011e+01 -4.5874451905170119e+01 7.8076481085140159e+01 2.4773091808517165e+02 2.1763567304754247e+01 -8.0147462641240963e+01 -6.5745429635616165e+02 -4.1282938833270819e+03 1.4920190877716550e+02 3.4699812642241454e+00 3.8111697663763124e+01 -1.2312824198033198e+01 1.0074680547026674e+01 -3.4448622017758225e+01 5.6815326853503211e+02 8.0685042086894100e+01 -6.7571118509598855e+03 2.1594653350028693e+02 2.5477062063432470e+01 -2.2554647714607569e+01 7.3436286532026358e+01 1.3486055326406813e+02 -9.4584661418215319e+00 -1.3955508357155618e+03 4.1829084932528713e+02 1.6852905812128352e+04 -4.2400098023230794e+02 -1.0311075060040189e+02 4.2479196872761719e+01 -1.1398725222111861e+02 -4.3680948764984078e+02 -5.8378531871947388e+00 6.2076835143016467e+01 4.1838909948068249e+02 -6.9198961697808054e+03 -2.0037552712848583e+02 3.8705742631009699e+00 8.4065823078303232e+00 -7.8924795353077002e+00 -2.1943315387399963e+01 -9.3494754518926015e-01 2.8114828479581274e+03 -5.4527042960090637e+02 -5.7974573263321417e+02 6.0009109583521149e+02 2.5340784041275288e+02 1.4306424880951022e+02 9.8165415475395093e+01 -6.6870668278353151e+01 2.4450513444866601e+01 5.6635727333649038e+02 
      </Row>
      <Row Index="46">
        -6.1143277399090039e+01 -2.1525664742925874e+03 -1.1438026722111899e+03 -5.3295767127672161e+02 -1.1456775356169203e+01 -6.0290986125506301e+01 2.1126050257639378e+01 -8.6594752079317914e+00 -2.8746606303618478e+01 6.5366918441920006e+01 1.4553787566880783e+03 5.9520671264176781e+02 -2.0468440888053146e+02 -2.4209013450850136e+00 -9.3735516756589675e+01 -4.9255221374457108e+00 2.6454870138042224e+01 2.7925410661722026e+01 -1.3158253051790427e+02 -1.5807901750347082e+03 3.5548651615057133e+03 -3.5056006765439361e+02 -8.4012993995867760e+00 2.3242356199599328e+01 1.0705285747658792e+01 4.1081651197854626e+01 1.9539562044196600e+01 1.5503988473467308e+02 1.7284389696230501e+03 -5.2615443865130255e+03 1.0821938560228007e+03 3.0042813399728743e+01 8.5852906388670874e+01 -3.4082577383591456e+01 3.9794026673516328e+01 1.5044371350911945e+01 9.3558926272307218e+01 -8.2689264887113313e+02 2.9487333963925466e+03 2.1862654904966348e+01 -5.6409107230420332e+00 -2.3146890923754437e+01 2.6939738416804175e+00 2.6307533303532523e+01 -2.9019289483419470e+00 -5.4527042961673453e+02 1.7145299500130682e+03 3.0387614039798507e+02 -7.1903071723707660e+02 -4.5769139558841744e+01 -4.1711655220954538e+02 -1.3971108580881264e+00 1.3166119762570384e+02 -4.6398062143314462e+01 -9.6828843783014918e+02 
      </Row>
      <Row Index="47">
        -2.8466401221399380e+01 -1.0059209862229764e+03 -5.8363574309462128e+03 -1.4602538978779990e+02 -4.0375821385120759e+01 1.0359023996134269e+01 -1.6850231552389204e+01 1.2118602546743932e+02 7.7119058394272059e+01 -1.1121746900309893e+02 1.1543169924432914e+02 6.1009200431326608e+03 -3.2095792807349051e+02 -2.1831236075880156e-01 -1.8766993051011866e+01 5.7618259123135829e+00 1.0277966396230113e+02 -6.9333341086726605e+01 -1.3564666492298883e+02 -5.2471847024638555e+02 7.1253542809138253e+03 -2.4296873830297272e+02 -1.9254263917774125e+01 -6.4042415025575394e+00 2.3578508442232206e+01 9.4627873245603951e+01 -7.4707707638950865e+01 3.8388265510246242e+02 1.2896523407882960e+03 -1.5746379014022074e+04 6.1153955936735906e+02 5.3645810141124031e+01 2.0700467542568447e+01 6.0880003113574332e+00 -1.7314196620545886e+02 -1.5815134330531819e+01 -9.5452368359424327e+01 -2.1301459549873289e+02 1.3367164506452711e+04 1.5537309510908648e+02 1.2645804516061734e+00 -1.5601344334514550e+01 -4.0870297051015996e+00 5.2698325212841723e+00 8.7749316227008336e+00 -5.7974573255910764e+02 3.0387614052126526e+02 1.7225259769372396e+03 -6.9665031898598602e+02 -3.4510221112800991e+01 -2.8070763696568690e+01 1.5087023102276135e+01 2.3135964367740581e+02 1.0426143081463033e+02 4.1779697487217544e+02 
      </Row>
      <Row Index="48">
        1.6282505874108864e+02 9.4737001109595803e+02 4.0939131445226394e+03 6.6238004458931573e+02 -4.3618257494714953e+01 -4.6185937276665300e+01 1.4024405880891891e+01 -4.9957856028998231e+02 1.2311551438245306e+02 -2.0245974555290547e+02 -5.0724822453413799e+02 -8.6438642668867324e+03 8.1663249852445756e+02 9.8629629298767867e+00 -7.2205496799069806e+00 -3.8785785586214416e+00 -2.0130760265460867e+02 -2.9820313657622052e+01 -9.2278356467643050e+01 1.0300181100718473e+03 -6.6870767788841695e+03 8.4410283003715631e+02 -1.0201581495099958e+01 3.6835005666512586e+01 -7.1224053659931201e+01 -2.0602059606009425e+02 2.3729462523519828e+01 2.0874650807096930e+02 -1.3492954842969411e+03 1.3959671830425417e+04 -2.4658916401302631e+03 3.4461063375452596e+01 -8.8300196500539840e+00 2.7645544052538725e+01 4.1028365923860383e+02 -1.3618316654912957e+02 -1.5282055510072377e+02 5.5662299976380928e+02 -1.4437423442254156e+04 -2.4361265985107184e+02 1.9207102797124005e+00 2.9205984519446247e+01 9.4465229896618439e+00 -1.3047340745708823e+02 -4.5130408149390178e-02 6.0009109564180903e+02 -7.1903071726754081e+02 -6.9665031894228821e+02 2.8705028005704876e+03 -2.7877855225995063e+01 -1.0083777258138696e+02 -1.0909499407419321e+02 -6.1166962890641662e+02 4.8309726772765544e+01 -6.8598155318619581e+02 
      </Row>
      <Row Index="49">
        1.0801815151962271e+02 -9.9106008455148753e+01 1.1432952922850500e+03 5.0367222491488178e+01 4.5028928597502791e+01 -1.4070795889420390e+01 3.0794116908082621e+01 3.6179971672504337e+01 -5.4958213032398618e+01 -2.3840625925601412e+01 -1.3656817044128417e+02 -4.0134286827672258e+02 -2.6320553517779146e+01 -3.9476200679378337e-01 -3.9180010606513527e-01 -3.1576443637520679e+00 3.2154518068076499e-01 2.7227108439318954e+01 6.1282123212441562e+01 -4.9328858802109607e+01 4.3992665123461654e+02 5.4798714690211682e+01 1.2509523684687949e+01 -4.1676758130249425e-01 3.0334260411915295e+01 3.1003716232928113e+01 1.9527890205566319e+01 -1.3069138859682681e+02 2.8277328845538068e+02 -1.8468668357623819e+03 -3.6509161653808974e+01 -7.3364062948719095e+01 1.4095001512896863e+01 -4.1826151254435729e+01 -7.9587171744838187e+01 4.1894440987757072e+01 -3.3451536094332894e+01 1.1133308837400745e+02 -3.8284478146325785e+02 2.6570767495765988e+01 4.6021350278233246e+00 -1.1094609837049774e-01 -4.5771103664901780e+00 -1.2328186337488642e+01 -1.2729283398351559e+00 2.5340784041282194e+02 -4.5769139556865277e+01 -3.4510221114297650e+01 -2.7877855212102610e+01 1.8020892341216313e+02 -5.0127531812699431e+00 4.4316772428026027e+01 -1.1266685809864942e+01 -5.3787192658107955e+01 2.5594122422995582e+01 
      </Row>
      <Row Index="50">
        -9.5520113357674376e+01 7.5670858424914968e+02 8.6372255820186092e+02 1.9467567921384818e+02 3.5891520824078924e+00 1.6220752224376918e+02 4.9151735652300772e+00 -2.4516543050975088e+01 1.5199190207199337e+02 -7.1060205944439616e+01 -3.4657916790272020e+02 1.6832002269631848e+03 -2.4395415612162481e+01 -3.7842812100455312e+00 1.2621708152466766e+02 6.5387656632548321e+00 -1.1862567348140715e+01 -3.3656740954356309e+01 9.5431832949296577e+01 2.8059403357851988e+02 -1.1404685745416600e+03 -3.6547689131873767e+01 5.9877698813432332e+00 -1.0525099132428124e+02 1.3606298336846265e+01 -2.9451030392707253e+01 -1.0101516314688213e+02 -6.0387987750585239e+00 -3.5091773979282698e+02 4.6115702865041385e+02 -2.4850680541689883e+01 -4.7185251464378268e+00 -1.1270426581916874e+02 -7.8334317788018382e+00 8.0808180305638530e+01 -6.1180871538991610e+01 -3.5921632158660017e+01 3.7889767351446699e+02 1.0314949889942002e+03 5.3413642227248459e+01 -2.3911512548494329e-02 8.9104180416610124e+00 -2.9213991179634036e+00 1.1958105087024329e+01 4.3903212019442677e+00 1.4306424884651909e+02 -4.1711655223766439e+02 -2.8070763665233628e+01 -1.0083777259236005e+02 -5.0127531749772061e+00 6.7915019753391402e+02 3.0609048910272350e+01 -1.0848258065243463e+01 1.0361016034000386e+02 2.1115338738261929e+02 
      </Row>
      <Row Index="51">
        3.3231649945652840e+01 -3.2125416284278117e+01 -2.5463846555088750e+02 5.5295923551033326e+01 1.7410545675586864e+01 6.5379259315913396e+00 2.0571636880210555e+01 3.0990674435228584e+01 9.9071923536543558e+00 8.9066032735639666e-01 -5.2925274357413173e+01 1.4042799876817526e+01 -5.3256142317857140e+01 4.0489781665402225e-01 5.2698808630460690e+00 -3.7978886396556062e+00 6.5449141401117075e+00 -1.4062259702790600e+01 4.3456523279557032e+01 -7.6666614368049295e+01 4.6824577950575042e+02 2.2660720064210437e+01 1.2089789495634491e+01 -7.9995106314040374e+00 4.1197250731921343e+01 4.6002360836131587e+01 -1.7991998736123222e+01 -9.4501197621801964e+01 1.8545720853039609e+02 -3.4327332508578206e+02 -3.0215277068516691e+01 -2.8171267034011187e+01 4.5382217871076058e-01 -2.8033515824309291e+01 -7.2551802795828237e+01 5.8073947389239864e+00 -5.8208620214871285e+00 5.6445031423997136e+01 7.8798948710686636e+02 3.3919463375652583e+00 1.1308506841568873e+00 -6.8180560612165164e-01 -8.3998869125001825e+00 -4.8251012723085296e-01 -7.4187448560334435e-01 9.8165415484578077e+01 -1.3971108578650728e+00 1.5087023099200000e+01 -1.0909499406595940e+02 4.4316772428779593e+01 3.0609048907738025e+01 6.7367015672586732e+01 5.0426196576014206e+00 2.2453085175766901e+01 1.9828332702157006e+01 
      </Row>
      <Row Index="52">
        2.1803763233134656e+01 -4.3030561664069660e+02 -3.7580881439726630e+02 -2.9751399059565875e+02 2.2375944357874999e+00 -3.3318606059738287e+00 -4.6772557610754522e+00 5.8053158521666660e+02 4.9942917014552734e+01 1.8287203427362400e+01 1.1397224418874293e+02 1.8857305801067323e+03 -1.8075831088573577e+02 3.7264199559220001e+00 -3.1272310494086923e+00 -3.6586144929514965e+00 1.7114982800415245e+02 -1.1211706207600637e+01 -4.9696836374371607e+00 -1.8210260448367262e+02 1.0045165466876535e+03 -1.0837115362187723e+02 -3.5313089117579608e+00 3.2536316041143074e+00 6.8199575513755395e+00 1.1139536447198782e+02 -1.6607050813267307e+01 4.3105020925899602e+00 4.0512857495077219e+02 -2.4543254477617947e+03 3.2711427556954862e+02 3.5834335810930735e+00 6.4668365202382017e-01 1.3116463474583284e-01 -4.7092758538626543e+02 -5.2185844886343375e+01 6.3811494008583747e-01 -1.7072666474691903e+02 2.1499782192843113e+03 -9.9730282966234626e+01 1.1528644287182976e+00 -1.1623611256267914e+01 -2.1103765122126763e+00 1.2427064697211263e+02 7.7062492529869786e-01 -6.6870668242013778e+01 1.3166119764084510e+02 2.3135964367531997e+02 -6.1166962891432047e+02 -1.1266685805367572e+01 -1.0848258067335507e+01 5.0426196602450162e+00 5.0336534018628430e+02 4.2293168198334037e+01 4.3887793195494623e+01 
      </Row>
      <Row Index="53">
        1.9051699208079572e+01 1.9745172121329972e+01 -3.7006243103663991e+02 1.1033622424585015e+02 -9.3134657180182998e+00 6.8754603420676943e+01 -7.2422993974964793e+00 5.8700365894697008e+01 2.6501784621646436e+02 -6.7848473240108440e+00 -3.3915170127988063e+01 -8.6824790605175451e+01 -1.8027218029936982e+01 4.7820626969864017e+00 2.1509318952227741e-02 -2.1689993391211644e+00 2.6694782294687215e+01 -8.7689831656461891e+01 -8.1266971092986822e+00 5.1946038356112695e+01 -5.4753559695464787e+02 2.9079331232019229e+01 2.3714730937790560e+00 -3.4288082466111028e+01 1.0875712809488650e+01 5.8264599365960123e+01 -1.3097251594317018e+02 -1.5160893733158327e+01 -2.7847756642919705e+00 2.5234234568763708e+02 -2.5874237669891778e+02 1.0753171374892542e+01 -3.5527886962153936e+01 9.5471702727854737e+00 -1.1627586723641207e+02 -1.4460081108367157e+02 -1.0268359388684885e+01 3.3253082087388492e+01 1.1784099349489807e+03 -4.9098459836124647e+01 9.1165958978831496e-01 7.4304356027625318e-01 -5.0692223598239803e+00 4.5813536901355274e+00 9.1534173116277113e+00 2.4450513450251343e+01 -4.6398062138685809e+01 1.0426143081763709e+02 4.8309726777979847e+01 -5.3787192657481228e+01 1.0361016033941230e+02 2.2453085176111060e+01 4.2293168197934037e+01 1.8796445931974023e+02 5.9984227196948625e+00 
      </Row>
      <Row Index="54">
        1.9851696195305567e+02 9.4996158708015719e+02 -4.6549233812537341e+03 -9.9946409285667869e+01 1.2473087745436487e+01 4.4513100472668782e+01 -4.3136363699006210e+00 7.8476315769403300e+00 -3.2720481098417622e+00 2.4332644239523006e+01 -8.4891124847415267e+02 3.8403647746793868e+03 -1.8866820696650120e+02 -4.6136337886354681e+00 3.7770150115643105e+01 6.2670685378001849e+00 3.8198937956100963e+01 -1.6180722899992645e+01 1.8785566127626078e+02 5.3293558732196107e+02 1.8759687949418003e+02 -2.7191477513847349e+02 3.7423430913015068e+00 -1.5403657201826036e+01 1.4649713353505774e+01 2.7846630121016460e+01 -5.3843074139899727e+00 -4.4079807291779758e+02 -3.9534154297263740e+02 -2.0813463636036176e+03 6.6363503799997352e+02 -1.2814985310328836e+01 -3.6584002936545886e+01 -1.1882851452638818e+01 -4.8619030146302066e+01 1.8758005712415496e+01 7.0179939756747160e+01 9.7177374207589310e+01 5.5097796475059313e+03 1.0714866498299511e+02 -3.7965168007774253e-01 1.0786443372120260e+00 -1.2602642836901623e-01 -1.2928109871565482e+01 6.5479623805575784e+00 5.6635727345552141e+02 -9.6828843775257269e+02 4.1779697490820877e+02 -6.8598155316338386e+02 2.5594122427443835e+01 2.1115338733300291e+02 1.9828332703169508e+01 4.3887793196225630e+01 5.9984227243930945e+00 1.5396606279891719e+03 
      </Row>
    </InverseHessian>
  </Weights>
</MethodSetup>
