<?xml version="1.0"?>
<MethodSetup Method="DL::DNN_CPU">
  <GeneralInfo>
    <Info name="TMVA Release" value="4.2.1 [262657]"/>
    <Info name="ROOT Release" value="6.38/00 [402944]"/>
    <Info name="Creator" value="ooconnor"/>
    <Info name="Date" value="Fri Jan 16 12:37:37 2026"/>
    <Info name="Host" value="Linux buildvm-x86-26.rdu3.fedoraproject.org 6.17.1-300.fc43.x86_64 #1 SMP PREEMPT_DYNAMIC Mon Oct 6 15:37:21 UTC 2025 x86_64 x86_64 x86_64 GNU/Linux"/>
    <Info name="Dir" value="/home/lar/ooconnor/larsoft_testing/srcs/sbndcode/sbndcode/Workshop/Analysis/output/TMVA/testing"/>
    <Info name="Training events" value="2000"/>
    <Info name="TrainingTime" value="4.04338408e+00"/>
    <Info name="AnalysisType" value="Classification"/>
  </GeneralInfo>
  <Options>
    <Option name="V" modified="Yes">True</Option>
    <Option name="VerbosityLevel" modified="No">Verbose</Option>
    <Option name="VarTransform" modified="Yes">N</Option>
    <Option name="H" modified="Yes">False</Option>
    <Option name="CreateMVAPdfs" modified="No">False</Option>
    <Option name="IgnoreNegWeightsInTraining" modified="No">False</Option>
    <Option name="InputLayout" modified="No">0|0|0</Option>
    <Option name="BatchLayout" modified="No">0|0|0</Option>
    <Option name="Layout" modified="Yes">TANH|128,TANH|128,TANH|128,LINEAR</Option>
    <Option name="ErrorStrategy" modified="Yes">CROSSENTROPY</Option>
    <Option name="WeightInitialization" modified="Yes">XAVIERUNIFORM</Option>
    <Option name="RandomSeed" modified="No">0</Option>
    <Option name="ValidationSize" modified="No">20%</Option>
    <Option name="Architecture" modified="Yes">CPU</Option>
    <Option name="TrainingStrategy" modified="Yes">LearningRate=1e-2,Momentum=0.9,ConvergenceSteps=20,BatchSize=100,TestRepetitions=1,WeightDecay=1e-4,Regularization=None,DropConfig=0.0+0.5+0.5+0.5</Option>
  </Options>
  <Variables NVar="4">
    <Variable VarIndex="0" Expression="var1+var2" Label="myvar1" Title="myvar1" Unit="" Internal="myvar1" Type="F" Min="-9.23118687e+00" Max="7.07192516e+00"/>
    <Variable VarIndex="1" Expression="var1-var2" Label="myvar2" Title="Expression 2" Unit="" Internal="myvar2" Type="F" Min="-3.70671988e+00" Max="4.02912045e+00"/>
    <Variable VarIndex="2" Expression="var3" Label="var3" Title="Variable 3" Unit="units" Internal="var3" Type="F" Min="-5.15695810e+00" Max="4.15070820e+00"/>
    <Variable VarIndex="3" Expression="var4" Label="var4" Title="Variable 4" Unit="units" Internal="var4" Type="F" Min="-6.31600189e+00" Max="4.52105665e+00"/>
  </Variables>
  <Spectators NSpec="2">
    <Spectator SpecIndex="0" Expression="var1*2" Label="spec1" Title="Spectator 1" Unit="units" Internal="spec1" Type="F" Min="-9.63254642e+00" Max="9.05203056e+00"/>
    <Spectator SpecIndex="1" Expression="var1*3" Label="spec2" Title="Spectator 2" Unit="units" Internal="spec2" Type="F" Min="-1.44488201e+01" Max="1.35780458e+01"/>
  </Spectators>
  <Classes NClass="2">
    <Class Name="Signal" Index="0"/>
    <Class Name="Background" Index="1"/>
  </Classes>
  <Transformations NTransformations="1">
    <Transform Name="Normalize" UseOffsetOrNot="UseOffset">
      <Selection>
        <Input NInputs="4">
          <Input Type="Variable" Label="myvar1" Expression="var1+var2"/>
          <Input Type="Variable" Label="myvar2" Expression="var1-var2"/>
          <Input Type="Variable" Label="var3" Expression="var3"/>
          <Input Type="Variable" Label="var4" Expression="var4"/>
        </Input>
        <Output NOutputs="4">
          <Output Type="Variable" Label="myvar1" Expression="var1+var2"/>
          <Output Type="Variable" Label="myvar2" Expression="var1-var2"/>
          <Output Type="Variable" Label="var3" Expression="var3"/>
          <Output Type="Variable" Label="var4" Expression="var4"/>
        </Output>
      </Selection>
      <Class ClassIndex="0">
        <Ranges>
          <Range Index="0" Min="-5.1623420715332031e+00" Max="5.7821455001831055e+00"/>
          <Range Index="1" Min="-3.7067198753356934e+00" Max="4.0291204452514648e+00"/>
          <Range Index="2" Min="-3.1826326847076416e+00" Max="3.6047577857971191e+00"/>
          <Range Index="3" Min="-2.9492409229278564e+00" Max="3.8494880199432373e+00"/>
        </Ranges>
      </Class>
      <Class ClassIndex="1">
        <Ranges>
          <Range Index="0" Min="-9.2311868667602539e+00" Max="7.0719251632690430e+00"/>
          <Range Index="1" Min="-3.4577968120574951e+00" Max="3.4579715728759766e+00"/>
          <Range Index="2" Min="-5.1569581031799316e+00" Max="4.1507081985473633e+00"/>
          <Range Index="3" Min="-6.3160018920898438e+00" Max="4.5210566520690918e+00"/>
        </Ranges>
      </Class>
      <Class ClassIndex="2">
        <Ranges>
          <Range Index="0" Min="-9.2311868667602539e+00" Max="7.0719251632690430e+00"/>
          <Range Index="1" Min="-3.7067198753356934e+00" Max="4.0291204452514648e+00"/>
          <Range Index="2" Min="-5.1569581031799316e+00" Max="4.1507081985473633e+00"/>
          <Range Index="3" Min="-6.3160018920898438e+00" Max="4.5210566520690918e+00"/>
        </Ranges>
      </Class>
    </Transform>
  </Transformations>
  <MVAPdfs/>
  <Weights NetDepth="4" InputDepth="1" InputHeight="1" InputWidth="4" BatchSize="1" BatchDepth="1" BatchHeight="100" BatchWidth="4" LossFunction="C" Initialization="F" Regularization="0" OutputFunction="S" WeightDecay="9.9999997473787516e-05">
    <DenseLayer Width="128" ActivationFunction="3">
      <Weights Rows="128" Columns="4">
        2.273320705e-01  -1.538224965e-01  2.529689809e-03  -2.818780243e-01  -1.607891321e-01  -1.286853552e-01  1.580516547e-01  -6.931613386e-02  2.219792157e-01  1.138494164e-01  1.711163670e-01  -2.166441232e-01  -2.565449178e-01  1.060407236e-01  1.359906197e-01  2.065088749e-01  9.067609161e-02  -1.074464247e-02  -2.051958442e-01  8.510798961e-02  3.120371103e-01  -1.835484207e-01  -1.768110693e-01  -2.291234583e-01  -2.057582140e-01  8.733281493e-02  5.125027522e-02  3.186172545e-01  2.213404179e-01  -5.127066001e-02  -1.057686470e-02  -2.218769044e-01  -3.470328078e-02  -8.343134075e-02  -4.234433919e-02  1.934524812e-02  -5.644363165e-02  -3.589778440e-03  1.422461681e-02  2.271056920e-02  -1.444149613e-01  1.864808053e-02  3.310335428e-02  3.013338447e-01  4.545568675e-02  1.271058172e-01  1.350102574e-01  2.698250115e-01  -1.753342748e-01  -7.556687295e-02  -8.313600719e-02  1.820820421e-01  1.690409333e-01  -3.634011000e-02  -6.752394256e-04  -3.341437876e-01  -5.674551055e-02  -5.093638971e-02  -1.001547202e-01  -2.627289155e-03  -2.662459314e-01  -1.340711564e-01  1.114899367e-01  1.980771497e-02  -1.554909199e-01  1.179480776e-01  1.878489703e-01  3.561924398e-01  -1.471239328e-01  1.231672913e-01  -1.771089286e-01  2.238040715e-01  2.211748213e-01  1.180942729e-01  -9.092058986e-02  -2.800067663e-01  1.878139824e-01  5.115962774e-02  1.831502467e-02  -3.278856277e-01  -1.085414439e-01  2.634924650e-02  1.123434007e-01  1.464679539e-01  -2.163356915e-02  7.089620829e-02  -6.462067366e-02  2.681731284e-01  -1.430578716e-02  -2.085603960e-02  2.861920558e-02  -1.606796868e-02  2.523390055e-01  1.408636719e-01  9.232451767e-02  -2.322839797e-01  -1.912998855e-01  -7.632660121e-02  -1.189267114e-01  3.456826806e-01  -1.320448965e-01  -1.109926701e-01  -1.831118762e-01  2.746812999e-01  -7.959198207e-02  -1.033615917e-01  -3.124341182e-02  -2.028025240e-01  -2.209544480e-01  5.006594211e-02  2.126959413e-01  2.726539504e-03  -6.583783310e-03  1.038636789e-01  -1.005458385e-01  1.003429294e-01  3.749583289e-02  8.991912752e-02  1.323203743e-01  3.537982330e-02  1.468760818e-01  1.391658336e-01  -2.324990928e-02  1.137591600e-01  2.759072781e-01  -1.501211077e-01  -1.460948586e-02  -1.892464906e-01  2.563587129e-01  -1.835436001e-02  -1.672692480e-03  -2.141063511e-01  -2.567928135e-01  2.206561901e-02  -5.176901817e-02  2.002870589e-01  6.121597439e-02  1.345331073e-01  1.622473262e-02  -3.484913707e-01  -2.408655547e-02  -1.570822299e-02  -1.970520765e-01  2.892542481e-01  2.290525436e-01  1.157421321e-01  1.452160031e-01  -3.678618968e-01  -2.013294399e-02  -8.253902197e-02  9.957486391e-02  1.365297586e-01  -7.586925477e-02  1.726885140e-01  1.010287255e-01  7.512813807e-02  -3.326312602e-01  -1.890789121e-01  -4.368976224e-03  2.523541451e-01  9.088992327e-02  -1.253621876e-01  1.133758500e-01  -1.935854256e-01  1.224645451e-01  -8.696096390e-02  9.823488444e-02  -1.114244200e-02  1.813444942e-01  -1.259006113e-01  3.392622620e-02  -3.993332386e-02  -1.905887276e-01  -7.317195833e-02  -6.440404058e-02  2.972783446e-01  4.395246133e-02  -4.665844887e-02  1.312344372e-01  -2.124213874e-01  -3.409050405e-01  1.315044165e-01  1.510901898e-01  2.663362920e-01  -1.812898368e-01  -9.779936820e-02  -1.765388846e-01  4.400742799e-02  1.436732411e-01  1.324581634e-02  -2.999362536e-02  -3.239722177e-02  -1.613423526e-01  -1.062986553e-01  -1.706809998e-01  1.748234034e-01  -4.182806611e-02  1.119041741e-01  6.952065229e-02  -3.230064511e-01  2.988173366e-01  5.195569992e-02  -1.102068871e-01  -2.698301971e-01  -1.553408951e-01  5.788708851e-02  -2.240680158e-01  3.501913548e-01  -9.848272800e-02  1.082569659e-01  -2.061989605e-01  2.061648071e-01  2.838837206e-01  -6.992504001e-02  -4.134632275e-02  -2.477841824e-01  -4.255934432e-02  -9.454824030e-02  -9.478965774e-03  5.597958341e-02  6.121322885e-02  -1.241256744e-01  -2.554593235e-02  -1.334732324e-01  -9.607773274e-03  -1.897242479e-02  -1.336938292e-01  2.153563797e-01  1.157134585e-02  -1.748748124e-02  -1.703708470e-01  2.219746858e-01  1.580650955e-01  -2.500749659e-03  1.888301075e-01  -3.560676575e-01  -1.941580921e-01  -5.730434787e-03  7.017829269e-02  1.227390319e-01  1.436832994e-01  1.134089753e-01  -5.230941251e-02  -2.098576874e-01  1.685973108e-01  1.815616041e-01  2.183710597e-02  -2.835901082e-01  -9.581260383e-02  2.133091167e-02  8.601079136e-02  -4.008961841e-02  1.106027327e-02  -3.939050436e-02  -1.686856449e-01  1.609980166e-01  1.829387099e-01  -6.843760610e-02  -1.863522232e-01  -4.731849208e-02  -1.176464707e-01  -1.146488935e-01  -1.543002427e-01  2.178416848e-01  -1.702626199e-01  3.828152642e-02  9.116759151e-02  3.302895129e-01  6.872887164e-02  -8.971918374e-02  5.100809969e-03  1.109627634e-01  -1.333286762e-01  -3.950213268e-02  -1.958087981e-01  2.507875264e-01  1.072068661e-01  7.093494292e-03  9.527205490e-03  -1.607048325e-02  1.082258001e-01  -8.525741100e-02  -2.571197413e-02  2.871368825e-02  9.280823171e-02  -6.314144284e-02  2.455414683e-01  -1.711970866e-01  -1.583607644e-01  -9.133837186e-03  -9.803146869e-02  2.742037773e-01  -8.516548574e-02  -1.732179374e-01  7.465652376e-02  1.247052848e-01  1.918343902e-01  -2.414891683e-02  -1.789443381e-02  -3.058840334e-01  1.989944279e-01  -3.471942618e-02  -4.212356359e-02  -1.841815859e-01  -8.026322722e-02  -1.880155802e-01  1.455454081e-01  9.924066812e-02  -5.234981701e-02  6.794992834e-02  -1.691088453e-02  2.964918017e-01  1.383604258e-01  4.544886947e-02  1.258880049e-01  -1.956984699e-01  -5.131299049e-02  -7.485011220e-02  7.938333601e-02  2.452263534e-01  -9.573977441e-02  3.872740269e-02  -1.632166058e-01  -2.107630819e-01  -1.840441525e-01  -1.723430604e-01  -3.457105532e-02  2.376965284e-01  -2.154249698e-01  7.880198210e-02  -4.116621241e-02  1.155366004e-01  2.814283967e-02  -5.883521587e-02  -1.458194554e-01  8.166019619e-02  7.002878189e-02  -9.622613899e-03  -4.794570617e-03  5.249020085e-02  -5.616518855e-02  4.456390440e-02  5.415830016e-02  2.037999481e-01  -1.492674649e-02  2.682679705e-02  -1.243987232e-01  1.452134997e-01  1.013434120e-02  1.445020586e-01  -6.117555872e-02  -1.975595504e-01  -6.187011953e-03  2.718896046e-02  -6.284394860e-02  2.676571608e-01  1.235723123e-02  3.678723052e-02  1.241202131e-01  3.044176996e-01  5.398597196e-02  4.967547208e-02  -7.299280912e-02  3.167085052e-01  4.633980617e-02  9.238884598e-02  -7.892192900e-02  -1.028147563e-01  -2.968337759e-02  -3.972139582e-02  -2.348593622e-01  1.320012510e-01  -5.026317760e-02  -1.172996387e-01  -2.917607129e-02  2.192996591e-01  -2.224412858e-01  1.063961089e-01  2.176374197e-01  8.238880336e-02  1.757050902e-01  3.341183066e-02  6.494428217e-02  -2.315473929e-02  -7.586399559e-03  -5.890625343e-02  1.098629385e-01  -2.278767154e-02  -8.924327791e-02  1.204885542e-01  2.964570001e-02  2.106598467e-01  -2.221494019e-01  -8.379586041e-02  1.751156710e-02  2.516274154e-01  8.745484799e-02  -1.122491062e-02  -8.491666615e-02  1.955432631e-02  -2.895710804e-02  -4.470560700e-02  9.668197483e-02  1.653342545e-01  -2.605793774e-01  1.056641787e-01  -3.670040146e-02  2.812235355e-01  7.978731394e-02  5.408898368e-02  -2.410366200e-02  -1.564363837e-01  2.391032428e-01  3.038598923e-03  3.933848813e-02  -2.550677359e-01  7.473415695e-03  1.716770381e-01  1.674763262e-01  2.289820760e-01  2.421641052e-01  -1.350802481e-01  -1.268685460e-01  -2.902202308e-01  7.759275287e-02  -1.194385663e-01  1.349146515e-01  -2.146828920e-01  -1.742872745e-01  -4.542224482e-02  -1.676544100e-01  2.171985656e-01  -6.469941139e-02  -1.939075291e-01  6.105602160e-02  2.024346143e-01  3.636739030e-02  1.237290353e-01  -2.198979817e-02  -2.965528965e-01  2.126667090e-02  -1.095947810e-04  8.409825154e-03  2.488682233e-02  1.390238404e-01  3.804255649e-02  1.148494240e-02  -9.026695043e-02  -1.296635601e-03  1.256832331e-01  -1.563578658e-02  2.865351737e-01  -2.333457172e-01  -2.190377377e-02  -1.772797294e-02  3.025054038e-01  3.964334354e-02  -1.625617594e-02  5.701689050e-02  -1.813888401e-01  1.604622304e-01  -1.597635150e-01  -5.651094485e-03  -2.055709809e-01  -3.071240783e-01  -4.241840914e-02  7.064113021e-02  3.180718720e-01  1.940887868e-01  -2.169288322e-02  -1.045205146e-01  3.838468343e-02  2.360864282e-01  4.767774791e-02  8.206900954e-02  -1.988412887e-01  -2.753792107e-01  -1.171728075e-01  -1.090274826e-01  2.302705944e-01  2.268647216e-02  -1.274766028e-01  6.999825686e-02  -8.496212959e-02  -9.913322330e-02  -7.420027256e-02  -2.078566104e-01  1.884941161e-01  1.952480525e-01  5.010928959e-02  1.136130244e-01  -3.329138756e-01  -1.448510438e-01  7.356384397e-02  -1.853133738e-01  3.070441782e-01  -1.694389582e-01  -8.617808670e-02  -2.318292111e-02  3.123241961e-01  9.921780229e-02  -8.815625333e-04  4.196792841e-02  -2.840755582e-01  -1.710500717e-01  -7.917587459e-02  -4.126041383e-02  -9.417477064e-03  7.986449450e-02  1.242988780e-01  1.551392078e-01  -2.040541023e-01  
      </Weights>
      <Biases Rows="128" Columns="1">
        2.540664002e-02  1.327742357e-02  -1.085159369e-02  -7.937586866e-03  -3.200636432e-02  2.070186660e-02  -2.584920451e-02  2.283916995e-02  -1.026574522e-02  -5.741806235e-03  -3.954740241e-02  -5.809918791e-02  -1.784021617e-03  3.038749844e-02  2.187058143e-02  4.060659558e-03  -4.622088000e-02  2.209400525e-03  2.822459117e-02  3.242241219e-02  -2.961098030e-02  -4.147489369e-02  7.093769964e-03  5.028867628e-03  -2.564626746e-02  4.671865609e-03  4.400003701e-02  1.095972303e-02  9.508562274e-03  -1.859330572e-02  -3.120460175e-02  -1.270463225e-02  -1.312793605e-02  -2.647830872e-03  4.800565168e-02  -3.122817539e-02  2.874416299e-02  -4.108020663e-02  3.494699020e-03  -3.629178926e-02  2.012006752e-02  -3.453810140e-02  -3.365324065e-02  -4.056400061e-02  2.717753686e-02  -2.837170102e-02  2.624152787e-02  -9.187582880e-03  2.454471961e-02  4.365605861e-02  3.769914061e-02  2.285510115e-02  4.375360906e-03  1.691399142e-02  -9.854875505e-03  7.679166272e-03  -2.787158266e-02  -3.786075115e-02  3.224607185e-02  -7.905539125e-03  4.353324324e-02  5.098096281e-02  2.179406583e-02  -2.449425869e-02  -6.504590157e-03  -1.733179949e-02  -3.008899465e-02  -4.338349402e-02  -1.885010861e-02  -2.099128254e-02  -2.367368340e-02  -9.044153616e-03  -2.547092363e-02  -2.363243699e-02  3.196547553e-02  1.186287217e-02  -3.964608908e-02  -4.870551825e-02  -2.454942558e-03  -4.853472859e-02  7.299185544e-02  -4.485265911e-02  2.171178162e-02  -1.262203138e-02  -3.426617011e-02  -3.545173630e-02  -1.666768827e-02  4.173663259e-02  -4.777821526e-02  -4.634319991e-02  -4.087344185e-02  3.575718403e-02  8.669747040e-04  -4.409243912e-02  -5.765555426e-03  -3.019075841e-02  -2.201630920e-02  -2.144323476e-02  -3.280026838e-02  -9.896694683e-03  -5.191120505e-02  1.549179386e-02  3.122338466e-02  1.568985358e-02  -3.839993849e-02  2.791592665e-02  5.993227242e-04  -3.461562330e-03  -4.606878385e-02  4.915808514e-02  -1.362080965e-02  -2.175617730e-03  -4.390366748e-02  -2.536617965e-02  3.065595217e-02  1.592702791e-02  -2.658413164e-02  -2.305427194e-02  6.988388486e-04  -6.652415614e-04  -6.549477694e-04  1.852917601e-03  2.784031257e-02  -1.238894276e-02  -4.343375191e-02  4.603422433e-02  1.316983998e-02  -6.757571362e-03  
      </Biases>
    </DenseLayer>
    <DenseLayer Width="128" ActivationFunction="3">
      <Weights Rows="128" Columns="128">
        -1.845500767e-01  1.225783825e-01  -1.380656362e-01  6.180166081e-02  8.310343325e-02  -8.329497278e-02  1.222351044e-01  -1.860032976e-01  -2.659475803e-02  -4.619845748e-02  -6.947898120e-02  -1.741982251e-02  7.347600907e-02  -9.180533141e-02  3.961724415e-02  4.324705526e-02  7.284703106e-02  2.093497515e-01  -4.628443718e-02  -2.135670632e-01  5.664147809e-02  1.011799499e-01  1.452922374e-01  -1.418628097e-01  3.546246886e-01  1.635124385e-01  9.635176510e-02  1.089930162e-01  9.258630127e-02  1.047364250e-02  5.973421410e-02  3.613241762e-02  2.116557024e-02  8.469560742e-02  1.067432165e-01  -3.244760633e-02  -2.080694884e-01  6.751924008e-02  1.598737240e-01  8.586395532e-02  6.858301908e-02  -1.036184132e-01  3.128084913e-02  6.101169810e-02  1.081725284e-01  1.157710701e-01  1.445822418e-01  -1.167410314e-01  3.723565489e-02  -4.076319188e-02  -4.564628378e-02  1.153297797e-01  6.405378133e-02  -2.294469997e-02  9.734706581e-02  1.865015477e-01  -6.419603527e-02  1.735059470e-01  -2.597531080e-01  -4.754894972e-02  -2.465820871e-02  -1.770680845e-01  9.022507817e-02  -8.310191333e-02  3.364897519e-02  -2.627350576e-02  8.703554049e-03  -1.098569930e-01  1.609918475e-01  7.853785157e-02  1.104070619e-01  -2.194071747e-02  3.508647531e-02  6.872452796e-02  -3.970423341e-02  -6.433959305e-02  -6.235796958e-02  -1.274572499e-02  4.426851124e-02  -7.820591331e-02  4.125656188e-02  1.571221203e-01  1.880443692e-01  4.610211402e-02  -1.183351949e-01  5.052683502e-02  -3.831065446e-02  -5.101543292e-02  6.102750450e-02  6.327476352e-02  -1.723098606e-01  -1.007399336e-01  -7.649906445e-03  -1.710823551e-02  -1.401044726e-01  -6.759597361e-02  4.963696003e-02  -5.428900942e-02  2.575047687e-02  1.862037480e-01  5.769722909e-02  1.113063395e-01  -1.268630326e-01  -1.446532607e-01  8.360000700e-02  -4.079614207e-02  1.298149377e-01  1.111853346e-01  -1.803076565e-01  -9.867712110e-02  6.227844208e-02  2.985133789e-02  -1.334946901e-01  2.942734957e-01  -1.769113913e-02  1.435540915e-01  2.440012991e-01  -5.557559058e-02  -2.103783637e-01  2.263115793e-01  -7.055223733e-02  1.897537559e-01  -1.052323878e-01  2.910123169e-01  2.519605160e-01  -6.983844191e-02  3.613427654e-02  -8.382244408e-02  1.680313349e-01  -1.285949200e-01  -4.912158102e-02  -1.037222967e-01  7.786080986e-02  1.916775666e-02  -1.492304951e-01  1.020995677e-01  7.266775519e-02  -1.966927946e-01  -6.607889384e-02  9.877115488e-02  6.540327519e-02  1.572998986e-02  4.397372901e-02  -1.023699790e-01  1.199825779e-01  -1.732695848e-01  4.256799445e-02  7.885192335e-02  -1.198368371e-01  -2.744170837e-02  -6.693699397e-03  9.204378724e-02  -2.728018463e-01  -7.397618890e-02  -5.466537923e-02  -5.830817297e-02  -1.011056006e-01  -5.503495783e-02  -1.330560446e-01  1.491870545e-02  1.255176682e-02  -1.086495072e-02  1.358551979e-01  2.254175022e-02  2.773893178e-01  8.287341893e-02  -2.717356198e-02  -1.368166208e-01  5.156387761e-02  4.991077259e-02  2.354354598e-02  -5.491667241e-02  -1.055994537e-02  -1.555690169e-01  -1.004257873e-01  -3.516573831e-02  -2.246259153e-01  5.094916746e-02  -2.296398953e-02  -2.359016836e-01  -1.516147256e-01  2.470622957e-02  1.591884345e-02  -1.108589545e-01  -2.084677853e-02  -3.349199193e-03  1.296061575e-01  -2.149700001e-02  1.647478193e-01  4.194427282e-02  -6.280803680e-02  1.125082895e-01  -9.654967487e-02  7.128602266e-02  -1.332604885e-01  -1.984926686e-02  -1.625424922e-01  7.361447811e-02  8.986874670e-02  1.416192055e-01  -2.724029422e-01  7.550098468e-03  2.510518730e-01  -8.116334677e-02  -2.143421769e-02  -1.203313768e-01  8.970222622e-02  -6.828109175e-02  -9.011911601e-02  -2.283603400e-01  3.303144127e-02  -4.560488835e-02  7.244179398e-02  1.814550161e-01  -7.644116879e-02  -1.448831707e-01  -1.186541095e-02  1.458715498e-01  -7.363534719e-02  4.628400132e-02  -7.198658586e-02  -8.694931865e-02  -7.439700514e-02  1.053803563e-01  -6.598526984e-02  -5.652723461e-02  -1.161309034e-01  -1.738062315e-02  -1.032811031e-01  -5.696438998e-02  -1.151372418e-01  1.584379971e-01  5.120908841e-02  -1.504333913e-01  -1.088425517e-01  -1.555035412e-01  -8.180825412e-02  5.859237909e-02  -3.828676045e-02  -6.875840575e-02  -7.291895896e-02  -1.311589777e-01  1.240340807e-02  -1.026267558e-01  -3.137749434e-01  1.768017262e-01  -7.328446209e-02  -2.717736550e-02  1.087506786e-01  -1.437014788e-01  1.035758033e-01  -8.315047622e-02  -1.724919975e-01  2.128630131e-01  8.749142289e-02  7.831183821e-02  3.690912202e-02  -5.701076612e-02  9.267985076e-02  1.197991800e-02  6.079216301e-02  1.609486789e-01  1.230520308e-01  8.465262502e-02  1.484136730e-01  -2.736948431e-02  -1.248204038e-01  -2.732329816e-02  -8.083498478e-02  8.417977393e-02  -1.680099666e-01  -1.605043858e-01  1.246133968e-01  7.393340021e-02  1.268074289e-02  1.872298121e-01  -1.444225311e-01  -1.111347079e-01  -1.811564341e-02  -5.573921651e-02  -1.797858626e-01  -1.346720010e-01  2.071155459e-01  -1.242869347e-01  -2.159404010e-02  1.137301177e-01  -8.739498258e-02  2.429614775e-03  9.862673283e-02  1.244131709e-03  -2.438298799e-02  -7.868397050e-03  1.499296576e-01  1.767886132e-01  -1.208291128e-01  -7.448199391e-02  1.237489730e-01  1.413798481e-01  4.337483272e-02  -1.365773678e-01  1.156785153e-02  2.641723491e-02  1.508044153e-01  7.601283491e-02  -9.487079084e-02  -1.649680287e-01  1.583508216e-02  -1.142029651e-03  -1.109542139e-02  -7.544049621e-02  -6.089746207e-02  7.565726340e-02  -1.962985098e-01  1.170835570e-01  1.889906675e-01  4.285886418e-03  1.842012405e-01  1.701578796e-01  7.329870015e-02  -9.256479889e-02  -8.531382680e-02  -3.110562265e-02  1.347095668e-01  1.257482022e-01  -6.702982355e-03  1.027270919e-03  -1.260387748e-01  7.834974676e-02  -1.235632747e-01  4.315856472e-02  9.853006154e-02  1.042420417e-01  8.660936146e-04  1.235276461e-02  -2.851363271e-02  1.142050400e-01  -1.013891920e-01  -1.843049377e-01  5.194510520e-02  -2.078185789e-02  7.448244095e-02  1.866155118e-01  -1.440555453e-01  2.745389380e-02  7.666981965e-02  -9.702125192e-02  2.613573894e-02  5.251156539e-02  -2.687019110e-02  6.039025635e-02  -8.306225389e-02  -5.558959022e-02  1.516609341e-01  7.367393374e-02  -5.270813406e-02  -7.936973870e-02  8.185302466e-02  -1.428890228e-01  1.361200660e-01  1.193908677e-01  1.160466447e-01  -1.050729156e-01  -1.079792976e-01  1.307805628e-01  -5.231906474e-02  -1.469156742e-01  -4.434352368e-02  -7.233393937e-02  -2.832685784e-02  -6.183192134e-02  -6.317338347e-02  1.742461324e-02  -9.125967324e-02  6.486626714e-02  7.024587691e-02  -6.534911692e-02  1.027260646e-01  -7.462389767e-02  4.210493714e-02  -2.224400640e-01  -3.763662651e-02  -7.423961908e-02  1.590250134e-01  1.842873544e-01  -1.771942526e-01  7.650684565e-02  -1.551569849e-01  1.418118551e-02  1.101775840e-01  -1.382764429e-01  1.861754106e-03  -3.051950224e-02  1.032360420e-01  1.326072663e-01  -1.081013530e-01  -1.479003131e-01  1.884845346e-01  -7.622658461e-02  -7.411517203e-02  -6.096172612e-03  -1.454068720e-01  1.078669950e-01  -1.380427778e-01  -2.111724913e-01  -8.269754052e-02  -1.560616959e-02  1.014207602e-01  2.156521566e-02  2.017334662e-02  9.014824033e-02  -3.415531293e-02  7.541995496e-02  9.465391189e-02  6.547331810e-02  6.755034626e-02  -9.870124608e-02  -9.310516715e-02  8.288819343e-02  1.402661353e-01  -8.338324726e-02  3.018099070e-02  3.983338550e-02  5.167190358e-02  9.403490275e-02  1.259691268e-01  5.707846209e-02  -8.352869749e-02  1.003081352e-01  -7.822220027e-02  -5.153275654e-02  1.488786042e-01  -3.462723270e-02  1.368434578e-01  -1.316064745e-01  -2.088283449e-01  1.716316193e-01  1.504166424e-01  4.908175394e-02  -8.900991082e-02  -8.760476857e-02  3.925514221e-02  -4.395341128e-02  7.896748185e-02  5.448426306e-02  -1.613000333e-01  6.935577840e-02  -3.145435452e-02  3.258542856e-03  -8.653678000e-02  -1.281347275e-01  -7.851829380e-02  -4.342307895e-02  1.218027771e-01  -1.720018536e-01  3.289797530e-02  -1.004202589e-01  5.941007659e-02  -2.487628954e-03  -1.322454363e-01  6.566720456e-02  -8.423040062e-02  1.596010178e-01  -1.697841138e-01  1.522150934e-01  -2.632603981e-02  8.981806040e-02  1.723212600e-01  9.186047316e-02  -4.673377797e-02  7.878992707e-02  -1.739240140e-01  4.345447943e-02  1.277006138e-02  -2.069751499e-03  1.372659206e-01  1.479815245e-01  -8.559340984e-02  -2.875736170e-02  -1.158512980e-01  -1.687028110e-01  -1.184475198e-01  -1.117657349e-01  -8.865880221e-02  4.473947920e-03  6.610426307e-02  4.006949812e-02  -1.772270910e-02  -2.387262136e-01  6.143565103e-02  9.849973023e-02  1.334175020e-01  -9.171700478e-02  5.082995072e-02  -3.840751946e-02  -6.033110991e-02  -1.020359807e-02  6.744901091e-02  9.023331851e-02  -7.553918660e-02  1.012434810e-01  1.236312762e-01  -1.512700459e-03  8.627997339e-02  3.966024891e-02  2.679678798e-02  1.371985525e-01  -1.737502515e-01  5.961868912e-02  -2.096655779e-02  -4.407474026e-02  1.172290519e-01  -4.011293873e-03  -1.573764235e-01  -1.621952280e-02  -9.685747325e-02  7.168511301e-02  -1.005003378e-01  -1.203544289e-01  -7.431834936e-02  -1.187326685e-01  1.023636460e-01  9.947734326e-02  -6.862240285e-02  -1.130981669e-01  1.289631277e-01  -1.814363152e-02  -2.280683443e-02  -2.030268312e-02  1.001447812e-01  1.554638594e-01  7.042108476e-02  -8.540772647e-02  2.887964249e-02  5.577646941e-02  1.090331748e-01  -1.547722369e-01  1.680077761e-01  1.786635816e-01  1.409836952e-02  -2.190526575e-02  9.183835983e-02  -9.589909017e-02  -9.416983277e-02  1.054814234e-01  -1.676669717e-01  -2.933318540e-02  -5.173728988e-02  1.366140842e-01  -1.238724887e-01  3.615443828e-03  -5.863781553e-03  6.824094057e-02  -6.373448670e-02  3.417992219e-02  2.068829350e-02  3.907750547e-02  4.442103207e-02  4.908154719e-03  1.426072717e-01  1.124051660e-01  2.082447559e-01  1.310704947e-01  -5.622370169e-03  9.789683856e-03  -6.205307320e-02  1.160792112e-01  5.253560469e-02  1.289483905e-01  8.191355318e-02  3.431049362e-02  -2.216689736e-01  -1.171487290e-02  -6.525348127e-02  1.095212251e-01  9.568525106e-02  1.110945269e-01  1.512528807e-01  -1.398227364e-01  4.403839353e-03  -5.720196664e-02  1.661264747e-01  -1.399071962e-01  1.336364150e-01  -1.496706158e-01  1.104174852e-01  -1.880852729e-01  -5.730522797e-02  -1.065179929e-01  -3.351224959e-02  2.136270143e-02  -2.068603635e-01  1.142911464e-01  1.271398664e-01  1.583610326e-01  5.124654993e-02  1.348677427e-01  8.032431453e-02  -1.074490771e-01  -9.539189190e-02  1.466484964e-01  6.074835546e-03  1.438071430e-01  1.057174578e-01  -3.991977870e-02  1.158028916e-01  1.546207368e-01  -1.017603502e-01  -3.204033151e-02  9.693008848e-03  4.399558529e-03  -6.729677320e-02  -1.530677825e-02  9.708448499e-02  -1.938583143e-02  9.195008129e-02  -1.189588569e-03  -1.348267198e-01  -1.057321280e-01  -3.158951923e-02  -2.082193270e-02  2.562740073e-02  -3.688925877e-02  6.790423393e-02  -2.466525696e-02  4.750499874e-02  2.720903754e-01  3.892493993e-02  -6.761517376e-02  1.464198679e-01  -1.494192779e-01  -6.752280146e-02  1.309435964e-01  1.543782353e-01  1.457413007e-02  -5.540021509e-02  -5.338476039e-03  2.854386531e-02  -5.660238490e-02  -1.459954381e-01  -3.599990159e-02  -7.656511851e-03  -9.189952910e-02  -1.141236126e-01  7.318361849e-02  -6.681921333e-02  -2.029555291e-01  9.462592006e-02  -8.523611724e-02  -8.993921429e-02  -2.523852885e-02  3.031563200e-02  -3.620415181e-02  8.614200354e-02  -1.355248839e-01  -8.239702880e-02  1.650522500e-01  4.674934223e-02  2.970170230e-02  -8.329044282e-02  -2.211989611e-01  -1.310281307e-01  1.155630425e-01  6.580827385e-02  -1.873288155e-01  3.776912093e-01  1.558509916e-01  3.548659384e-03  1.776568890e-01  -1.883522980e-02  -2.693446726e-02  1.220981628e-01  -3.544338420e-02  -1.764618903e-01  1.433789581e-01  -5.129268393e-02  5.793475732e-02  -3.129864633e-01  -1.738314629e-01  -4.948088899e-03  1.574989110e-01  -9.874600917e-02  -1.475714594e-01  4.209199175e-02  2.562541664e-01  -3.799682856e-02  -4.820183292e-02  -7.293350995e-02  -4.475447536e-02  1.609549522e-01  -9.882808477e-02  -1.890559047e-01  -2.591356821e-02  1.743709743e-01  -1.248835400e-01  -8.424054086e-02  -1.063807905e-01  1.338050514e-01  -1.053607389e-01  -1.211348772e-01  5.709326640e-02  -1.007406116e-01  -8.135463297e-02  -6.553637236e-02  1.232543215e-02  -1.411694139e-01  -7.733675092e-02  1.424700469e-01  6.544455141e-02  1.574365348e-01  2.431343682e-02  -1.610180736e-02  -6.612839550e-02  3.904943587e-03  1.014675759e-02  2.420939691e-02  6.334922463e-02  -5.001587421e-02  -3.337847441e-02  1.817548648e-02  1.763109118e-02  1.060438380e-01  -2.945564687e-02  5.424070405e-04  -1.083106995e-01  -1.298226416e-01  4.196921363e-02  8.768577129e-02  -1.102046575e-02  1.007154062e-01  5.016887560e-02  1.185449213e-01  6.143825874e-02  9.253692627e-02  -7.129400969e-02  8.843114972e-02  -5.812078714e-02  -8.208694309e-02  -5.308245867e-02  7.390923053e-02  -8.733472973e-02  -5.847445130e-02  -1.111655962e-02  -3.768948838e-02  -2.035400867e-01  -7.698781043e-02  -1.415136606e-01  2.202014066e-02  1.016188860e-01  8.709623665e-02  4.956892133e-02  -1.294685602e-01  -6.842274964e-02  5.009386316e-02  3.367265165e-01  -1.958499430e-03  1.477516890e-01  3.150685132e-01  1.182672977e-01  6.177518517e-02  -1.413196605e-02  -8.590166271e-02  1.561714560e-01  -3.019926846e-01  1.856805235e-01  1.843194216e-01  3.189996630e-02  -5.643917620e-02  -1.988194287e-01  -5.615626276e-02  -3.598078713e-02  -5.481299385e-02  1.444393098e-01  -8.229797333e-02  -3.532110155e-02  -6.104955450e-02  2.769231610e-02  9.345778078e-02  -6.507246196e-02  -3.904534504e-02  -2.148875035e-02  -4.007058963e-02  -1.649454236e-01  4.715407267e-02  1.514253467e-01  -1.617009640e-01  -1.008026209e-02  9.668757766e-02  2.441771701e-02  -1.553816199e-01  7.423934992e-03  -1.187090427e-01  -2.366611809e-01  5.763787404e-02  2.117224187e-01  2.481629513e-02  8.206328750e-02  -8.131855726e-02  -3.564555570e-02  4.323627800e-02  -6.635855138e-02  -2.627112269e-01  -2.138411626e-02  -2.072049677e-02  8.954001963e-02  -3.537118733e-01  5.915556569e-03  1.470159739e-01  1.865785718e-01  5.936241895e-02  -1.226359382e-01  5.125709251e-02  1.294581592e-01  8.526505530e-02  6.234724820e-02  1.468989104e-01  -7.547786832e-02  9.925473481e-02  -1.155476272e-01  -1.952490062e-01  1.569872350e-02  -5.843010172e-02  -4.705019668e-02  6.289760023e-02  -1.173276175e-02  1.488929391e-01  -9.277129173e-02  -2.727240920e-01  -1.469776928e-01  -2.414368652e-02  8.170808852e-02  9.114868194e-02  1.394039392e-01  4.891249910e-02  1.157777682e-01  1.514098495e-01  -1.352791190e-01  2.515467815e-02  4.831978306e-02  4.115413502e-02  8.769113570e-02  4.410178214e-02  -9.715626389e-02  -1.120779663e-01  -1.827407926e-01  -1.715362817e-01  -1.006201748e-02  1.926753111e-02  1.001344994e-01  -1.952266879e-02  6.578250229e-02  1.393785775e-01  1.222615018e-01  -1.063337028e-01  -1.728406996e-01  1.207447723e-01  -4.974024743e-02  4.364860430e-02  1.332183182e-01  1.405384764e-02  1.470447630e-01  6.439138949e-02  7.207200397e-03  8.019036800e-02  -9.604441375e-02  7.472714782e-02  1.026138514e-01  8.848340064e-02  3.130263183e-03  1.250848621e-01  3.922243789e-02  8.427031338e-03  -1.546300203e-01  -2.618080936e-02  -8.274194598e-02  1.198605075e-02  2.013385892e-01  9.970989823e-02  -6.765455008e-02  -1.521634161e-01  2.903693356e-03  1.241009235e-01  2.633360028e-01  -4.949695989e-02  4.953102767e-02  1.814140081e-01  1.037652791e-01  -8.425451070e-02  -4.590900615e-02  9.665104747e-02  9.307706356e-02  -3.205514550e-01  1.615357250e-01  1.616348177e-01  -1.661508530e-01  -9.047225863e-02  -1.729104072e-01  -1.151799634e-01  -1.737400889e-01  -5.730960146e-02  7.860687375e-02  -1.303779148e-02  -1.081668958e-01  -2.677456290e-02  -8.632733673e-02  4.786523804e-02  4.022347275e-03  -8.083036542e-02  -5.896268785e-02  -9.735192289e-04  -1.418210417e-01  -1.437589526e-01  -1.130252257e-01  9.764678776e-02  1.372766793e-01  -1.138039380e-01  1.576929539e-01  6.405345351e-02  6.582289189e-02  -5.977400020e-02  -2.152466029e-02  6.725934148e-02  -2.244651467e-01  -1.060497388e-01  -1.861304343e-01  -9.266461432e-02  -2.852523699e-03  1.383683383e-01  -4.074336216e-02  2.564693689e-01  -6.126994640e-02  -5.165414140e-02  -3.389978409e-02  1.761710048e-01  1.456418633e-01  3.991612047e-02  1.274088323e-01  3.759915754e-02  -9.090548009e-02  -2.753565833e-02  -8.545199037e-02  2.906582318e-02  -4.247448593e-02  1.205402464e-01  1.623742431e-01  -5.616368353e-02  -3.950135037e-02  -1.355875880e-01  -2.162730694e-01  -5.406951904e-02  2.107290365e-02  -6.299389899e-02  -1.492713019e-02  1.075598374e-01  -5.525834113e-02  5.237684399e-02  1.288155615e-01  -1.409384161e-01  -1.232577562e-01  -7.764277607e-02  -6.431148387e-03  -2.727477066e-02  1.016739160e-01  6.301320344e-02  1.170381308e-01  3.448757157e-02  1.191902068e-02  -9.714295715e-02  5.357176531e-03  -1.123390570e-01  5.247073621e-02  -1.101508066e-01  -4.499683157e-02  -1.490329057e-01  1.585267484e-02  -5.078152567e-02  1.310274154e-01  -1.324277967e-01  -3.737569973e-02  -2.937744744e-02  -8.257342875e-02  1.505187750e-01  8.330287039e-02  6.477423012e-02  -7.143545151e-02  -3.271909803e-02  1.404658854e-01  -6.361415982e-02  8.925949782e-02  8.718143404e-02  -8.931545913e-02  1.750511974e-01  -6.882746518e-02  4.661194980e-02  7.225906849e-02  -1.832962222e-02  7.195127755e-02  1.492178719e-02  -1.222623363e-01  -7.901105285e-02  -4.911416210e-03  -1.179619059e-01  -3.574043978e-03  -2.380180918e-02  -6.914861500e-02  1.653925925e-01  8.753612638e-02  -7.270831615e-02  1.793842763e-01  -1.059823930e-01  7.754156739e-02  -9.314946085e-02  -1.302925646e-01  -3.212472796e-02  9.012969583e-02  -1.123492345e-01  2.243864350e-02  7.758632302e-03  -8.343297988e-02  -9.392032772e-02  -3.271150216e-02  -6.066518649e-02  9.485929459e-02  -3.381606564e-02  2.945798263e-02  1.618539393e-01  -8.510892838e-02  1.594959944e-01  1.541069001e-01  1.616494805e-01  1.410625428e-01  8.577118069e-02  1.641771942e-02  -3.826554492e-02  2.961592562e-02  1.168630645e-01  -3.912480175e-02  -2.801059932e-02  6.146860868e-02  7.263189554e-02  -1.772127725e-04  -7.728671283e-02  4.563013464e-02  -5.261022225e-02  1.020058095e-01  -1.041826978e-01  -8.401232213e-02  -7.374098152e-02  1.679673344e-01  -5.917528272e-02  -6.947377324e-02  -5.235636607e-02  7.320469618e-02  1.271283720e-02  -6.384801120e-02  3.825709969e-02  -8.652492613e-02  -2.777930535e-02  -5.930205807e-03  -1.811624877e-02  -9.936333634e-03  3.262493610e-01  1.049733162e-01  5.144052953e-02  -8.109898865e-02  -1.024262607e-01  1.607093215e-01  1.449756771e-01  -3.341244906e-02  1.030724943e-01  3.689554706e-02  -1.456285715e-01  -1.307331212e-02  -1.917003095e-01  6.691322476e-02  -4.963859543e-02  -2.006864641e-03  -1.194939911e-01  8.520331234e-02  1.394794732e-01  -2.704901062e-02  -5.754117668e-02  4.134708643e-02  4.705016315e-02  1.517122984e-01  -6.306937337e-02  -7.955761254e-02  -3.545219824e-02  5.124023557e-02  -1.358375847e-01  1.298718993e-02  -6.357526034e-02  5.552711338e-02  1.112925634e-01  7.635837421e-03  1.141020134e-01  1.345839351e-01  -1.195675358e-01  6.439834367e-03  5.342456326e-02  -9.523880482e-02  -3.654801100e-02  -2.160070650e-02  1.413024515e-01  7.254200429e-02  -1.572730392e-01  -6.240119785e-02  -6.002574787e-02  3.113781288e-02  -1.893495023e-02  1.459186971e-01  1.683545560e-01  -1.886479370e-02  3.535671567e-04  3.634207696e-02  -6.731318682e-02  2.542327717e-02  1.430359087e-03  -7.181324065e-02  7.910888642e-02  -1.355162859e-01  1.267714500e-01  6.757208705e-02  -5.386639386e-02  -9.791547060e-02  1.527156681e-01  7.634171844e-02  -1.257044822e-01  2.878720313e-02  -9.085338563e-02  4.615515843e-02  -9.537801147e-02  6.537987292e-02  3.618606925e-02  6.350794435e-02  2.650056221e-02  1.420557126e-02  -5.265505612e-02  7.432097569e-03  1.210000925e-02  -8.080652356e-02  -1.644229740e-01  1.337619275e-01  6.899194419e-02  -2.214753330e-01  -6.225626543e-02  -4.092128202e-02  2.331386805e-01  -9.817977250e-02  -7.489240915e-02  3.195803240e-02  -8.661343902e-02  1.671016216e-01  -1.217388809e-01  1.264515519e-01  -1.963223666e-01  -5.317021161e-02  -6.741485093e-03  -4.340123758e-02  -2.451820858e-02  2.948430134e-03  1.409056038e-01  -6.069327146e-02  5.156022310e-02  -1.493513212e-02  -1.203564480e-01  -8.741217665e-03  6.758620590e-02  8.309511095e-02  4.103852436e-02  1.438610554e-01  -1.103560477e-01  -6.438310444e-02  -7.582531311e-03  7.891260833e-02  4.419084266e-02  -1.760331728e-02  2.277236134e-01  8.929351717e-02  1.167472079e-01  1.699659042e-02  4.358159751e-02  -6.422606856e-02  -9.223877639e-02  -1.472050250e-01  -2.648018599e-01  9.941962361e-02  -8.455733210e-02  1.289788932e-01  -6.848795712e-02  -1.616522670e-02  5.734055489e-02  8.162305504e-02  -1.410895437e-01  1.150861308e-01  -6.219827384e-02  5.551738665e-02  4.583748430e-02  4.441511258e-02  -3.856405616e-02  9.360643476e-02  1.633059829e-01  4.551651329e-02  -2.046634257e-01  -3.534891456e-02  -3.694424033e-02  -2.079775780e-01  9.261198342e-02  4.654438421e-02  4.483458120e-03  6.623480469e-02  -9.212781489e-02  3.575897217e-02  9.075701982e-02  -2.225147784e-01  3.583770618e-02  1.686369479e-01  -1.843816787e-01  1.582201719e-01  2.042233348e-01  2.317008749e-02  3.917732835e-02  2.195942588e-02  -1.058238894e-01  1.111087389e-02  1.937932372e-01  1.154988408e-01  -2.325661331e-01  -1.015479714e-01  1.726671010e-01  -1.578958146e-02  1.084596440e-01  5.094841868e-02  -7.944200933e-02  -1.717270724e-02  -9.306103736e-02  1.629395783e-01  -8.063878864e-02  -1.120379195e-01  -1.128492728e-01  -5.541262776e-02  1.158870831e-01  1.767595112e-01  -5.771112069e-02  5.603895336e-02  5.079220608e-02  1.294548064e-01  2.284524404e-02  1.076532155e-01  4.289913177e-02  -7.497627288e-02  -2.234436385e-02  -1.282900870e-01  -1.840414293e-02  2.466006391e-02  -1.693111807e-01  -2.957815826e-01  9.818254411e-02  -4.817983508e-02  2.363366820e-02  -6.288261712e-02  1.057399735e-01  6.817952543e-02  -1.416175961e-01  1.062641740e-01  8.068450540e-02  2.399728298e-01  -1.320078075e-01  -1.528220624e-01  3.155262768e-01  1.520452797e-01  1.699540019e-02  1.121583302e-02  -1.632072404e-02  -1.329922397e-02  -1.355676204e-01  1.582194418e-01  2.325941622e-01  -1.753117889e-01  -1.089017764e-01  -9.001832455e-02  -9.391880780e-02  -1.723226458e-01  -4.775106907e-02  -4.784171004e-03  7.845082879e-02  -6.780956686e-02  -1.436785329e-02  1.059019007e-02  -4.693882540e-03  -1.161114406e-02  -1.600538492e-01  -9.635461867e-02  -9.739856422e-02  1.081641465e-01  -5.828465149e-02  8.897958323e-03  3.053393029e-02  -8.686039597e-02  5.512449890e-02  1.477927417e-01  -9.855689108e-02  3.767350689e-02  1.360729337e-01  9.618715197e-02  -1.956960559e-01  -7.167211920e-02  -3.921371326e-02  -1.958665252e-01  -1.527638286e-01  2.012792677e-01  -1.049380973e-01  5.627143383e-02  -1.169217192e-02  -1.532501727e-01  9.543874860e-02  -9.870816767e-02  -2.841396816e-02  8.448179811e-02  9.141227230e-03  1.122594401e-01  9.871954471e-02  7.718842477e-02  -7.147055119e-02  6.054466218e-02  -1.544405520e-01  -1.530566961e-01  -9.184799343e-02  1.286338568e-01  -6.683472544e-02  -7.400311530e-02  1.613445021e-02  -4.266469553e-02  -9.825743735e-02  -5.389725789e-02  7.673648745e-02  -3.826246131e-03  -2.226878144e-02  3.100926988e-02  1.132421866e-01  -1.727986522e-02  -1.692615077e-02  5.680900533e-03  1.941625960e-02  -4.572788253e-02  -1.613813341e-01  1.661854424e-02  9.166421741e-02  3.733719513e-02  3.330318257e-02  -9.232531488e-02  9.317152947e-02  3.355437517e-02  -7.660494186e-03  8.303567022e-02  -9.787881374e-02  1.133030280e-01  -8.552256227e-02  3.310590982e-02  -7.572042197e-02  -3.650446981e-02  5.146093294e-02  -1.562297046e-01  -1.803193539e-01  4.183311760e-02  -4.721055552e-02  -1.867626980e-02  -8.887056261e-02  -2.779389359e-02  1.120494828e-01  4.716471955e-02  -1.167158261e-01  -1.469589770e-02  -2.294892520e-01  7.580187172e-02  4.893105850e-02  -1.301620156e-02  1.142451465e-01  1.382323056e-01  -1.166093722e-01  -1.028793082e-01  1.350706071e-01  -1.520791203e-01  1.213805303e-01  1.019366607e-01  -6.455208361e-02  -1.081556752e-01  1.318122447e-01  -1.562168729e-02  -9.324572980e-02  -1.365234554e-01  -9.142298251e-02  4.301299155e-02  5.400869623e-02  -1.287045926e-01  -1.313683987e-01  7.624027133e-02  -8.661071211e-02  -3.202088550e-02  -8.892890066e-02  -1.669590026e-01  -5.049736425e-02  7.988203317e-02  3.633962478e-03  -1.302334815e-01  -8.192873746e-02  1.383706331e-01  -6.516831368e-02  4.725760780e-03  1.758964807e-01  -2.107494511e-02  4.578306340e-03  -9.042574465e-02  2.064657956e-02  4.663729575e-03  -2.041966468e-01  1.568086445e-01  -7.649416570e-03  1.196880862e-01  -1.455939114e-01  1.190993711e-01  7.188385935e-04  -4.538457096e-02  4.320737347e-02  5.602197722e-02  1.135812402e-01  -9.408632666e-02  -1.000846643e-02  5.504053459e-02  1.052876376e-02  -7.566281408e-02  -9.203524888e-02  2.789391577e-01  -2.495015562e-01  -4.113439005e-03  -1.503550112e-01  -1.333535612e-01  -8.663833886e-02  1.447889805e-01  -5.292189121e-02  1.749127954e-01  8.410839736e-02  -1.082370505e-01  -1.634975709e-02  -1.123129670e-02  6.924366951e-02  -1.161665544e-01  -1.092470251e-02  -1.038843840e-01  -1.033811942e-01  -1.843506470e-02  3.572714701e-02  -1.589067727e-01  1.206043884e-01  -1.625488549e-01  -1.491842568e-01  -5.784786493e-02  2.197299898e-02  -1.083925813e-01  1.215286106e-01  -1.027302518e-01  -7.411884516e-02  -3.524248488e-03  -1.436946094e-01  -5.442785844e-02  1.266692579e-02  4.437990114e-02  -3.573442623e-02  -7.720851898e-02  1.378981471e-01  1.798035055e-01  -1.976391524e-01  4.491975065e-03  8.708654344e-02  -6.696676463e-02  3.625947610e-02  8.139666915e-02  -2.074316144e-02  1.116381660e-01  5.684110150e-02  1.142718121e-01  -7.088872045e-02  -1.525930017e-01  1.737783849e-01  1.992858648e-01  -1.336611509e-01  -1.327096373e-01  -6.743403524e-02  7.017710805e-02  5.911112577e-02  -2.467684299e-01  1.827406324e-02  4.387214780e-03  9.827046096e-02  1.150587690e-03  4.647440463e-02  -1.388981193e-02  -8.616760373e-02  -1.266482193e-02  7.970671169e-03  1.149401590e-01  -2.554919571e-02  -1.521881670e-02  -1.540632546e-01  -7.972995937e-02  -5.590780638e-03  -1.727105230e-01  -2.183111161e-01  5.858585984e-02  -1.199565008e-01  -1.217435077e-01  8.766923845e-02  2.867385149e-01  6.268549711e-02  1.156270951e-01  -4.295874387e-02  -1.267874390e-01  2.603477798e-02  1.085271910e-01  -1.186522841e-01  1.924013905e-02  1.445582695e-02  -4.239343107e-01  3.257254139e-02  -8.064673096e-02  -3.678661883e-01  1.272624433e-01  6.672486663e-02  -3.054515645e-02  -5.863612145e-02  -1.189665496e-02  4.128026664e-01  -2.613451332e-02  2.536202967e-02  1.634855419e-01  1.622676253e-01  1.857956499e-01  1.076826602e-01  1.106903255e-01  -6.505447626e-02  2.121589519e-02  6.561797857e-02  -1.674617380e-01  1.568560302e-01  -1.188557819e-01  1.552544683e-01  -1.300756037e-01  -1.245812699e-01  1.546444446e-01  -3.857065365e-02  -5.699221510e-03  1.171940044e-01  -4.993237182e-02  1.285432130e-01  -8.179062046e-03  4.530262575e-02  -1.168415397e-01  -8.994737267e-02  7.720918208e-02  -2.192188986e-02  1.386400312e-02  2.581417561e-01  -3.161743656e-02  -3.054750338e-02  -6.658110768e-02  5.827394500e-02  -5.283103511e-02  -9.089352936e-02  4.619206116e-02  4.948440939e-02  1.122190952e-01  8.551959693e-02  -6.247229129e-02  6.934435666e-02  4.272713512e-02  -1.243116856e-01  1.122037694e-01  2.915130695e-03  -5.929911137e-02  -7.787945122e-02  -7.532966882e-02  6.974936277e-02  1.729348004e-01  3.001119010e-02  -1.484128386e-01  7.062422484e-02  -6.094099209e-02  -2.853048267e-03  -7.254420221e-02  -1.171450764e-01  -1.861097217e-01  -1.673232764e-02  -1.117645428e-01  1.591246724e-01  6.342092156e-02  -8.599343151e-02  1.739675105e-01  1.906770915e-01  1.894029975e-01  -7.575765997e-02  -1.263384521e-01  9.082793258e-03  4.653254896e-02  1.946279407e-01  -5.742255133e-03  1.466442794e-01  -9.271771461e-02  4.847619310e-02  -1.066341698e-01  1.492778808e-01  1.754831523e-02  6.133267283e-02  -2.056339979e-01  2.686795034e-02  -5.410034582e-02  4.618303105e-02  5.219944194e-02  9.099207073e-02  2.087076604e-01  9.513698518e-02  1.193152368e-01  -1.719830632e-01  6.166849658e-02  1.311689764e-01  8.719561994e-02  -4.632350430e-02  1.357364357e-01  -8.422974497e-02  -3.912867233e-02  -4.409145564e-02  1.755320877e-01  -7.900397480e-02  -7.607343048e-02  7.021257281e-02  4.520552978e-02  1.177446023e-01  -6.373354234e-03  4.065204412e-02  -5.886364728e-02  7.219234109e-02  -5.025253817e-02  1.031384058e-02  -2.100300342e-01  -1.097317412e-01  5.050480366e-02  6.299357116e-02  -1.293394268e-01  2.201770432e-02  -1.711028516e-01  1.615336537e-01  6.074179709e-02  -1.200610101e-01  3.747600690e-02  5.935755558e-03  1.235396639e-01  -9.885399044e-02  1.373505294e-01  1.061996743e-01  4.643448070e-02  -1.616902202e-01  3.334145248e-02  1.544027496e-02  1.274164170e-01  1.607423127e-01  -5.111763254e-02  -1.830308884e-01  -7.879871875e-02  2.206660993e-02  1.758534759e-01  -1.196159050e-02  -6.694158912e-02  2.458275855e-01  -1.940890849e-01  -9.395600855e-02  -6.122332439e-02  2.537166178e-01  -4.430364072e-02  1.880656034e-01  -1.487402618e-01  -8.379641175e-02  -5.049440265e-02  -3.774671629e-02  -6.359615177e-02  5.162149295e-02  -2.660008073e-01  -5.140678585e-02  1.358228177e-01  -1.250928640e-01  -2.045185268e-01  3.454315662e-01  6.875507068e-03  -6.170302257e-02  8.364655823e-02  1.509126872e-01  8.637045510e-03  4.140414298e-02  2.171492204e-02  -1.670988649e-01  1.730329692e-01  -1.508013308e-01  1.829439849e-01  -1.918679029e-01  -1.179065779e-01  9.533877671e-02  2.211943418e-01  -1.081123129e-01  -1.459837556e-01  -2.483628690e-03  1.684164554e-01  2.777677216e-02  5.253304914e-02  4.240551963e-02  1.179260463e-01  -8.504181355e-02  -4.022450745e-02  -1.304754764e-01  3.900405020e-02  1.206891462e-01  1.879198849e-02  -4.569910467e-02  -6.008085236e-02  -1.361201890e-02  -9.149476886e-03  -2.275377810e-01  -1.606029086e-02  -1.350225657e-01  -8.733540028e-02  1.335259825e-01  2.263029069e-01  1.011046246e-01  -6.405971199e-02  6.004158407e-02  1.783439666e-01  2.417134047e-01  2.781724744e-02  -1.219084337e-01  2.610109001e-02  2.221850157e-01  1.933648586e-01  -1.443121880e-01  -1.106439233e-01  1.035150811e-01  -9.279712290e-02  -1.982120425e-02  1.624849066e-02  8.696085215e-02  9.893380851e-02  -4.625793174e-02  -4.260171577e-02  5.947571993e-02  1.119794175e-01  -7.533343160e-04  -6.537381560e-02  8.566597849e-02  1.730973572e-01  1.853899807e-01  -1.266991347e-01  -1.638733968e-02  1.518424302e-01  3.699828684e-02  -1.391159594e-01  -3.158047423e-02  -1.058156714e-01  1.430730373e-01  -1.297072023e-01  -5.423493683e-03  9.787420183e-02  -4.385657143e-03  -3.224624097e-01  2.380666323e-02  -1.929156333e-01  8.649600297e-02  -1.245939359e-01  -5.721511319e-02  3.416687623e-02  1.710260510e-01  -1.149831489e-01  4.591042921e-02  2.553936243e-01  -1.889696345e-02  -1.415221840e-01  1.856372356e-01  -1.333946586e-01  -6.476061791e-02  8.669420332e-02  -1.502894908e-01  -1.199868917e-01  -1.633555442e-01  2.027629018e-01  2.904190123e-01  -2.317561209e-01  -8.440699428e-03  -1.569064707e-01  -2.327191830e-02  -5.392647162e-02  5.521313846e-02  -1.077026948e-01  -4.108572006e-02  -4.889196530e-02  1.524815559e-01  -4.722028971e-02  8.248236775e-02  -3.824659809e-02  -9.730950743e-02  -1.249999925e-01  1.799412221e-01  -1.581373438e-02  1.498461068e-01  -6.605111808e-02  7.113464177e-03  4.959788173e-02  -6.012964621e-02  -1.190626472e-01  -2.078391053e-02  -3.863310069e-02  5.127935670e-03  -1.327704787e-01  2.756879926e-01  -1.009247545e-02  5.693205446e-02  3.058650531e-02  -1.137335435e-03  -4.622500390e-02  2.589602023e-02  -7.390698045e-02  -1.402592361e-01  2.278249860e-01  -5.187202618e-02  -5.867893621e-02  -1.915955096e-01  8.329203725e-02  -9.411354363e-02  1.969064586e-02  -9.712221473e-02  -6.018377095e-02  1.306284312e-02  2.699274719e-01  -8.893516846e-03  -9.330756217e-02  1.511017978e-01  -4.615654424e-02  1.693034358e-02  4.383078963e-02  -4.740150273e-02  9.262871929e-03  2.210193723e-01  -1.195022929e-02  1.129131243e-01  2.347578108e-02  2.251593210e-02  -1.387993805e-02  -1.132031903e-02  -6.928648800e-02  8.053455502e-02  -4.694669321e-02  8.234373480e-02  -5.613848194e-02  -3.279756382e-02  1.211367249e-01  -8.259651065e-02  8.854944259e-02  -2.182795480e-02  -1.102098376e-01  -4.225857556e-02  7.865110785e-02  -3.966441378e-02  5.782299116e-02  1.066570431e-01  1.362318695e-01  2.629045025e-02  -1.216084510e-01  -6.487688515e-04  -5.889853928e-03  1.569858491e-01  -3.120775707e-02  -2.814020589e-02  2.450331151e-01  7.927328348e-02  8.030973375e-02  1.377653629e-01  -9.513582289e-02  -1.415835023e-01  7.177827507e-02  1.511447690e-02  5.048824102e-02  3.374290094e-02  8.123274148e-02  1.705554314e-02  -1.766516268e-02  -1.279563606e-01  7.106018811e-02  -4.883472249e-02  1.380344946e-02  -3.426702321e-02  -2.891190234e-04  1.311266678e-03  -1.403481215e-01  -1.143072397e-01  1.110903993e-01  -1.168885604e-01  1.231612787e-01  8.857166767e-02  8.694447577e-02  4.328623414e-02  -3.848274425e-02  1.184399873e-01  3.254360259e-01  -6.652291119e-02  -1.023705751e-01  1.910927743e-01  -1.673365533e-01  3.045990877e-02  1.855032593e-01  5.218894780e-02  6.976805627e-02  -6.697864830e-02  7.965938002e-02  1.712574512e-01  -1.690155566e-01  2.679594047e-02  2.824497595e-02  -1.412118077e-01  1.802737679e-04  -1.397712678e-01  5.078674853e-02  -6.398878992e-02  9.498628788e-03  9.822298586e-02  -1.371586323e-01  4.967277055e-04  -7.522428036e-02  8.152831346e-02  3.348455206e-02  -6.595294178e-02  4.036510363e-02  -5.464463681e-02  -3.048414178e-02  -8.416530490e-02  7.488486171e-02  -9.658167511e-02  -1.785151064e-01  2.188893110e-01  8.436705917e-02  -4.601913679e-04  8.687659353e-02  1.679214984e-01  -8.087725937e-02  -6.704805046e-02  6.223329529e-02  1.022067890e-01  1.137560606e-01  2.135007642e-02  9.046466649e-02  4.877660424e-02  1.101468131e-01  -7.333169132e-02  -1.188111231e-01  1.282490492e-01  -2.866852283e-02  1.515574753e-01  9.146755189e-02  -1.566962339e-02  7.796095312e-02  -1.465219352e-02  1.994348913e-01  -6.299904734e-02  1.250799894e-01  8.819289505e-02  1.693968661e-02  8.916700631e-02  -1.021079049e-01  -2.550686523e-02  -4.952960461e-02  -5.320592225e-02  9.003397077e-02  -5.139340833e-02  -1.711313799e-02  -8.946083486e-02  -1.068766564e-01  -9.505683929e-02  -2.367213368e-02  -1.734566838e-01  -1.065099761e-01  1.017458662e-01  4.366280511e-03  -1.132958103e-02  -8.965265937e-03  1.267077774e-01  6.792682409e-02  2.267436236e-01  -7.215952128e-02  -1.407865733e-01  1.239970624e-01  -5.080511793e-02  -2.599195810e-03  1.217034832e-01  -1.794853806e-01  2.191160321e-01  -1.931008697e-02  -4.088137671e-02  -3.463290632e-02  3.493156657e-02  -6.166518107e-02  -2.527681552e-02  1.144339293e-01  -3.622531891e-02  5.613853410e-02  -4.941788688e-02  -4.532960057e-02  -3.156176955e-02  3.229041770e-02  3.548623621e-02  6.052428111e-02  9.954963811e-03  3.930786997e-02  1.753838211e-01  -6.801731884e-02  1.681086719e-01  1.782038212e-01  1.618946493e-01  -1.853032261e-01  1.342996396e-02  -1.374239754e-02  4.024313018e-02  -6.289029121e-02  8.853720874e-02  8.137968183e-02  1.359873712e-01  2.536018007e-02  -7.956914604e-02  7.788637280e-02  9.121451527e-02  1.362251937e-01  1.300774962e-01  -9.727809578e-02  4.823684692e-02  2.247540094e-02  1.505148876e-02  4.850298911e-02  1.767474562e-01  -9.407543391e-02  -1.540028304e-01  -1.359743178e-01  -1.401426047e-01  -2.766930312e-02  -9.409195185e-02  -1.459710649e-03  -3.395074606e-02  -1.006819680e-01  -1.991808787e-02  -1.779550314e-02  2.976906858e-02  1.275913268e-01  -5.178378522e-02  -1.933303624e-01  1.448394656e-01  -1.284024715e-01  4.863616452e-02  -1.263700873e-01  2.259290814e-01  -1.303582489e-01  -3.859542683e-02  -6.547097862e-02  -4.617961124e-02  -2.526149899e-02  -4.441408813e-02  1.827217788e-01  -3.026478924e-02  -1.683727801e-01  1.271088570e-01  1.248838380e-03  1.350055784e-01  -4.553455114e-02  3.556901813e-01  1.950785518e-01  -9.318757802e-02  -6.269342452e-02  -3.952706233e-02  -8.390638232e-02  1.028138697e-01  -6.430064142e-02  -2.855210751e-02  2.016830593e-01  4.473148286e-02  2.106633186e-01  -1.294438094e-01  -5.463149771e-02  1.410617232e-01  1.335761547e-01  4.591602087e-02  -9.360819310e-02  -1.586628333e-02  1.630225480e-01  5.614044145e-02  1.890832931e-01  5.642789230e-02  3.959464841e-03  -8.363353461e-02  -6.648001075e-02  -2.657280862e-01  1.808236539e-01  2.048169449e-02  -1.975350976e-01  1.369124502e-01  1.399500966e-01  1.029675752e-01  -4.809442908e-02  -9.799563140e-02  -7.564201020e-03  -1.159948334e-01  -1.896479353e-02  -7.860402018e-02  5.642514676e-02  -6.592315435e-02  1.449754834e-01  1.960355556e-03  8.487135172e-02  1.657585651e-01  7.147718221e-02  -3.511882946e-02  -2.670707880e-03  1.393920034e-01  -7.697550952e-02  -1.773772687e-01  -7.922831923e-02  1.503634602e-01  2.307396382e-01  -1.377631724e-01  8.425511420e-02  8.879872411e-02  1.495155394e-01  5.140986666e-02  4.298286885e-02  -7.938333601e-02  -1.535983533e-01  9.530455619e-02  -9.865326807e-03  4.279698059e-02  -9.836130589e-02  1.267929524e-01  -1.017876565e-01  -4.612717405e-02  2.666366100e-02  -1.029273495e-01  -3.539763764e-02  1.184866726e-01  2.296524867e-02  1.461184174e-01  -9.709953517e-02  1.367415208e-02  1.240896061e-01  5.076329038e-02  -1.045567393e-01  -1.201962903e-01  -8.569747210e-02  -1.079186872e-01  7.859742641e-02  1.489901096e-01  5.601140205e-03  5.150130391e-02  4.240731522e-02  1.779984236e-01  4.342238009e-01  -9.182789177e-02  -8.254436404e-02  1.945637614e-01  -2.936996333e-02  -7.090697438e-02  6.878739223e-03  1.294236332e-01  5.016707256e-02  -4.008113742e-01  9.456878901e-02  3.156447709e-01  -3.577846661e-02  -1.297892928e-01  7.957886159e-02  2.516168356e-01  4.216235504e-02  8.260537684e-02  4.716594517e-02  5.184845254e-02  1.661839634e-01  -1.156253815e-01  1.578834802e-01  1.355756354e-02  1.231647506e-01  -1.295216382e-01  -1.035375372e-01  -1.218614578e-01  -1.656956971e-02  -6.529180333e-03  -5.355068296e-02  6.507781893e-02  -8.831082284e-02  4.765785858e-02  2.670421600e-01  -5.508976430e-02  -7.298652083e-02  5.634550005e-02  -1.507945126e-04  -3.871315420e-01  -6.500209123e-02  1.383069307e-01  -9.471274167e-02  1.034648567e-01  -4.373724014e-02  -1.460936815e-01  -1.041203588e-01  7.919073850e-02  -1.611963660e-01  1.163298786e-01  1.008546911e-02  2.390181869e-01  -9.814716876e-02  -6.815291941e-02  -2.312501334e-02  1.746540368e-01  4.360302910e-02  -1.227195412e-01  -1.621342003e-01  1.155605316e-01  -7.502035052e-02  1.101380661e-01  -1.184283048e-01  3.416575864e-02  3.709695861e-02  2.630874813e-01  5.258827657e-02  4.422800615e-02  -1.097490545e-02  -3.262599185e-02  1.274717450e-01  -1.140885502e-01  -2.522168458e-01  2.922812998e-01  -2.261519879e-01  1.442518681e-01  2.785159089e-02  3.470519930e-02  1.186678279e-02  7.256685197e-02  -1.344883144e-01  4.310917109e-02  -1.063063443e-01  -9.578205645e-02  6.125530973e-02  -6.538946927e-02  -3.842344508e-02  -2.058398128e-01  -1.416442096e-01  1.209481806e-01  1.254162937e-01  -1.314347684e-01  -1.901035309e-01  4.302219301e-02  1.015933789e-02  -6.012077257e-02  -2.913781404e-01  2.923118509e-02  -1.428552866e-01  -9.518618137e-02  1.090408489e-01  -4.026499763e-02  5.478314310e-02  -1.443409324e-01  -1.846881062e-01  7.054273039e-02  1.401041746e-01  -1.212343574e-01  -1.117606014e-01  -1.585339196e-02  -7.221719623e-02  -4.216109216e-02  -1.574880444e-02  -1.188404858e-01  -2.851886675e-02  7.569251209e-02  -1.907691061e-01  4.963671416e-02  1.247776598e-01  3.299390525e-02  1.051254496e-01  7.749737054e-02  -9.917151928e-02  3.414040897e-03  7.271684706e-02  -8.133312315e-02  -7.546765357e-02  3.697014973e-02  -3.859468400e-01  -8.369005285e-03  7.394268364e-02  -3.357445896e-01  -2.460120618e-02  -1.673675142e-02  -1.955997646e-01  4.237557575e-02  2.026274242e-02  3.306616247e-01  -1.636312455e-01  -1.238478348e-01  1.541776359e-01  1.479260027e-01  1.157680303e-01  1.514447387e-02  -1.298344787e-02  -1.602225751e-02  -9.720904753e-03  5.334449466e-03  -1.016728655e-01  1.138881370e-01  -7.394791394e-02  -1.318899244e-01  -1.470285803e-01  1.249059960e-01  9.716125578e-02  1.594360769e-01  -9.434791654e-02  -1.697215885e-01  6.688600406e-03  4.331767187e-02  1.731160879e-01  -9.691654891e-02  -1.365781724e-01  6.189912185e-02  1.068658233e-01  -8.661326021e-02  -4.286533594e-02  1.760800332e-01  1.242516041e-01  -4.322355613e-02  -3.475764394e-02  1.550988108e-01  3.318510950e-02  1.193935168e-03  2.645878308e-02  -5.766448006e-02  5.397716165e-02  -2.409212664e-02  2.373106480e-01  -2.333412915e-01  1.315575391e-01  -6.009567529e-03  -4.988821596e-02  -1.868063360e-01  -1.339053661e-01  6.088473275e-02  2.531292737e-01  -7.385858148e-02  2.033082247e-01  -8.534649014e-02  1.115338206e-01  1.947650760e-01  5.781418085e-02  -4.910185933e-02  2.063577473e-01  2.614957094e-02  3.288618848e-02  1.511013806e-01  1.015681401e-01  9.074652940e-02  4.672900960e-02  -2.063886821e-01  2.283845395e-01  -9.384603798e-02  -1.698423475e-01  1.162522882e-01  2.722216956e-02  -7.016286254e-02  -6.958969682e-02  1.953529716e-01  -5.827312544e-02  1.433843672e-01  1.167704165e-01  1.239415854e-01  -4.128764942e-02  2.937259972e-01  3.206722811e-02  -1.193621680e-01  -1.020975709e-01  1.129252538e-01  1.132460833e-01  -1.344495267e-01  1.948206127e-01  -1.168709621e-01  2.050810605e-01  1.248731166e-01  -5.482482538e-02  8.647479117e-03  1.238645390e-01  -8.974076062e-02  -1.300775260e-01  -3.142398596e-02  9.771562368e-02  4.255062714e-02  -1.373962034e-02  3.273709863e-02  1.865548044e-01  1.543874741e-01  1.231378391e-01  1.827581041e-02  -2.283864655e-02  2.565447390e-01  -1.020664424e-01  2.267709002e-03  6.478281319e-02  -2.029516846e-01  -1.685441881e-01  -8.118554950e-02  -2.022799850e-01  7.523164898e-02  1.427828521e-01  -3.140221909e-02  -7.256724685e-02  2.443123981e-02  -9.962470829e-02  2.122372538e-01  4.723475277e-01  -3.783273324e-02  -8.295963705e-02  2.708131075e-01  -1.240910292e-01  5.513219908e-02  7.896081358e-02  9.118197113e-02  6.752311438e-02  -4.427146018e-01  2.429829091e-01  1.578689069e-01  -1.240886822e-01  -4.504164681e-02  -1.495294422e-01  -5.063146353e-02  -2.930431813e-02  -9.524302930e-02  -1.289750338e-01  -1.309914887e-01  1.328557581e-01  -2.693600766e-02  5.658103526e-02  -1.661283523e-02  2.758338861e-02  -4.631270654e-03  1.553471833e-01  -1.504191607e-01  1.160864085e-01  -6.575199217e-02  1.099300385e-01  -5.103961006e-02  5.594127625e-02  -1.192695796e-01  4.490842670e-02  1.445184648e-01  1.057748199e-01  7.692587376e-02  2.651565075e-01  -4.301347956e-02  -2.175294310e-01  2.611752786e-02  -1.802861989e-01  3.114865161e-02  2.131733298e-01  -1.394112557e-01  3.660076857e-02  1.565092653e-01  1.118027866e-01  -5.865730345e-02  -6.407853216e-02  3.458732069e-01  2.031349093e-01  -1.527504921e-01  -1.061836109e-01  1.514438540e-01  2.147702873e-01  -7.053770125e-02  2.720576525e-02  8.182795346e-02  -1.689494252e-01  6.033308059e-02  9.515681863e-02  -1.300160959e-02  4.343903810e-02  3.930736333e-02  -1.184945330e-01  -1.008131653e-01  -4.116757959e-02  -1.473777890e-01  1.036114618e-01  7.147405297e-02  -4.613267630e-02  1.258060932e-01  -1.299722642e-01  -2.557997033e-02  -3.273886105e-04  9.461462498e-02  -2.102827430e-01  -7.288924605e-02  -3.778750077e-02  2.789419703e-02  7.584776729e-02  2.384741604e-02  -1.071678009e-02  1.009568945e-01  2.772512287e-02  -2.211734802e-01  -9.014724940e-02  2.057223916e-01  -4.636745155e-02  1.465047449e-01  3.321690112e-02  5.362321809e-02  -1.377030313e-01  -2.246166579e-02  -1.324179303e-02  -1.230364367e-01  -2.132174671e-01  -7.926976681e-02  1.815781444e-01  6.053423136e-02  1.795005240e-02  -1.039986610e-01  -6.099958718e-02  7.118876278e-02  -4.387474619e-03  -1.412741542e-01  -1.334211826e-01  1.561839948e-03  1.662540287e-01  4.487159476e-02  -1.072638631e-01  -1.432737112e-01  -1.219487786e-01  -1.179017201e-01  -2.038930357e-02  1.480822712e-01  2.625321746e-01  1.013094857e-01  1.485193521e-02  9.838975221e-02  -1.163897589e-01  5.001251772e-02  -1.311673671e-01  -1.138820425e-01  -3.527469933e-02  -8.262448758e-02  -3.623237014e-01  -9.662256390e-02  -2.223153599e-02  -2.053460479e-01  2.033045515e-02  -1.517606433e-02  -2.373741418e-01  9.876122326e-02  -8.883336186e-02  5.614397302e-02  -4.116184264e-02  -2.144507170e-01  2.182192057e-01  1.088030785e-01  2.123137265e-01  1.518970281e-01  1.968395896e-02  -3.880034015e-02  -3.466179967e-02  6.053866819e-02  -6.337022036e-02  4.330201820e-02  -3.557039052e-02  -8.475937694e-02  3.629390895e-02  -1.437276602e-01  1.904772818e-01  9.401644021e-02  -5.111252517e-02  -1.663989425e-01  8.603189886e-02  -5.733866617e-02  9.404719621e-02  8.631476760e-02  1.713475436e-01  -1.641420573e-01  -1.009767354e-01  1.646197028e-02  5.323859304e-02  -4.739334062e-02  -1.788686514e-01  1.263762116e-01  1.046469882e-01  1.217200086e-01  -1.089807525e-01  -1.188645288e-01  -1.102062911e-01  1.593104899e-01  -2.163155675e-01  1.199762747e-01  -1.330265999e-01  5.453623831e-02  -4.867826030e-02  -8.288126439e-02  -1.840207577e-01  1.635741442e-01  1.724316925e-01  3.163284622e-03  -2.890951931e-01  -9.535922110e-02  -1.732405275e-01  -1.341463178e-01  -7.420450449e-02  -1.107113138e-01  1.084269956e-01  1.610987633e-01  2.722383291e-02  -5.850798637e-02  9.716962278e-02  -7.543177903e-02  4.017517343e-02  -4.616349563e-02  -1.493309624e-02  1.488444060e-01  -2.154664248e-01  -5.501183681e-03  1.065826043e-01  -6.149607897e-02  3.310086206e-02  1.589382589e-01  5.592776462e-02  -1.093352437e-01  -5.683832616e-02  -1.754157245e-02  -4.291048646e-02  -1.178091764e-01  5.839383230e-02  -2.572904527e-01  -4.029207677e-02  4.938669130e-02  1.114516854e-01  3.929562867e-02  -1.555534750e-01  6.128990650e-02  9.762725234e-02  5.535007641e-02  -4.426935315e-02  -2.201756695e-03  -1.461771224e-02  1.050858870e-01  -9.443066083e-03  5.721761659e-02  3.309281543e-02  1.617456377e-01  -1.360296756e-01  3.503639996e-02  -1.543796994e-02  -7.181195915e-02  8.219186962e-02  -1.555209309e-01  -6.331972778e-02  4.633701220e-02  1.801710692e-03  -2.496459335e-02  1.217546463e-01  -7.010752708e-02  -1.500942111e-01  -9.287918359e-02  1.033140197e-01  7.909503765e-03  1.457270533e-01  -3.445223346e-02  -3.038519062e-02  -1.104233637e-01  -7.885234058e-02  -3.608609363e-02  1.628738642e-01  8.446462452e-02  -3.082060218e-01  4.960491136e-02  3.552553803e-02  -3.148988485e-01  -5.373098329e-02  1.301331669e-01  -2.134675719e-02  -1.427332778e-02  -1.654775441e-01  1.552517861e-01  5.986502767e-02  -1.562056690e-01  2.085343599e-01  -4.763843864e-02  -9.564291686e-02  -3.673172370e-02  -3.299207985e-02  3.758928180e-02  5.150637403e-02  6.152800750e-03  -2.063865960e-01  2.502071559e-01  -3.945639357e-02  9.390254319e-02  2.549875155e-02  2.328549139e-02  -8.432913572e-02  5.122917891e-02  -7.258909196e-02  -1.011747420e-01  1.363477856e-01  1.305715591e-01  1.175401509e-01  2.684779093e-02  -1.945381612e-01  1.128649898e-02  1.910535544e-01  1.290912926e-01  -6.917953491e-02  3.413130045e-01  9.944666177e-02  -1.037376300e-01  -1.114658192e-01  -3.065191209e-02  -1.138929427e-01  -1.107743457e-01  -1.603303552e-01  2.789568529e-02  7.669457793e-02  -1.151790321e-01  1.425697953e-01  -5.213247240e-02  1.056211740e-01  -5.522622541e-02  3.745859489e-02  -2.928192168e-02  -4.696612433e-02  4.017041996e-02  1.743480712e-01  -8.249970526e-02  2.116360813e-01  -6.828033179e-02  2.051476017e-02  7.489328831e-02  2.647250332e-02  -2.157877833e-01  1.500248909e-01  7.167026401e-02  -2.491119877e-02  4.946283624e-02  7.909595221e-02  1.873273104e-01  7.163365837e-03  -1.991912872e-01  1.242375970e-01  -7.021747530e-02  3.191065416e-02  7.894134149e-03  -9.522195160e-02  -3.951530531e-02  1.597529352e-01  -5.079804733e-02  -7.836605422e-03  1.876924932e-01  6.448745728e-02  -4.004879668e-02  4.199165851e-02  1.557919234e-01  -9.873618186e-02  -3.440472856e-02  -8.779964596e-02  6.270746887e-02  -5.628264323e-02  1.405923367e-01  -4.367117584e-02  -5.267749354e-02  9.525820613e-02  2.648865059e-02  1.277861744e-01  -1.144428626e-01  -1.113524809e-01  1.077126116e-01  -1.090023294e-01  8.280358464e-02  1.291595548e-01  -1.103382707e-01  5.848114192e-02  1.247068122e-01  2.133364230e-01  1.517392844e-01  -1.449841708e-01  -8.947374672e-02  1.283238083e-01  2.438287437e-01  1.221345291e-01  1.075482741e-01  1.682786196e-01  -1.942508668e-02  -3.078888059e-01  4.041810706e-02  -1.682681888e-01  3.107386641e-02  7.761313021e-02  1.236156076e-01  -3.703009710e-02  -8.385218680e-02  -1.293658763e-01  2.072211802e-01  4.404432476e-01  -4.702994227e-02  -1.480530798e-01  3.733999431e-01  -1.858535595e-02  -1.405455321e-01  7.200229168e-02  1.271820813e-01  -5.131506175e-02  -1.770233363e-01  -5.792040750e-02  1.383304894e-01  -1.424424350e-01  2.421134850e-03  8.711915463e-02  5.662168935e-02  -2.084311843e-01  -9.749759734e-02  2.322787978e-02  -3.386656195e-02  -3.864108399e-02  8.585620672e-02  -1.076533273e-01  1.190687716e-01  -1.153941527e-01  7.768845558e-02  -6.091379747e-02  -6.337671727e-02  -7.635482587e-03  1.176692545e-01  -1.498462111e-01  -4.207589198e-03  1.375367045e-01  1.061304286e-01  9.344601631e-02  -2.831725217e-02  8.678275347e-02  8.118409663e-02  8.800871670e-02  2.105276436e-01  9.863020480e-02  -1.438132823e-01  -1.682061106e-01  -1.969102025e-02  2.546866424e-02  1.576253176e-01  -1.297400333e-02  1.408192068e-01  -1.212952510e-01  5.844931304e-02  -1.559787095e-01  -2.980855352e-04  -1.155504510e-01  1.938989758e-01  -1.400351822e-01  -1.929911077e-01  1.407449991e-01  -5.163911358e-02  1.503920108e-01  5.460982397e-02  -1.062715575e-01  7.731714845e-02  9.563059360e-02  -1.579091400e-01  1.163787618e-01  -6.512264907e-02  -2.136220783e-02  -8.179302514e-02  -6.472282112e-02  5.207349733e-02  9.922501445e-02  3.338648379e-02  1.639261246e-01  2.911322378e-02  -1.447779387e-01  -1.324696988e-01  -1.371919066e-01  7.183185313e-03  1.423588954e-02  -5.283628404e-02  1.496128589e-01  5.769730359e-02  -8.605152369e-02  1.350141168e-01  -4.057876300e-03  1.015886217e-01  1.313629653e-02  -1.250171065e-01  -8.151376247e-02  -7.039209455e-02  -1.109487712e-01  2.201887779e-02  5.780613050e-02  -1.418158710e-01  -9.732072055e-02  -1.160781309e-01  1.277968287e-01  -1.870338172e-01  -6.591091305e-02  -3.962317854e-02  2.709921449e-02  5.668600276e-02  -1.859525032e-02  1.662983298e-01  -1.238183156e-01  1.291056424e-01  -1.266279221e-01  7.285860926e-02  -1.039524078e-01  3.368449211e-02  4.267338663e-02  8.988238126e-02  -6.574963778e-02  1.933734864e-01  6.312301755e-02  -7.007035613e-02  -7.916340232e-02  -2.964214422e-02  1.392642558e-01  1.112857163e-01  -1.256282628e-01  2.395936102e-02  6.200442463e-02  1.144680679e-01  -2.020475119e-01  -1.061996520e-01  1.737580448e-01  -1.091458946e-01  -9.313336760e-02  -1.016236022e-01  -1.247038543e-01  -7.443868369e-02  3.365442529e-02  -3.170959279e-02  5.318441615e-02  1.098366603e-01  -7.858242095e-02  -2.269471297e-03  -1.185661182e-01  1.539746076e-01  -4.096627608e-02  2.701641805e-02  1.672331840e-01  1.507536173e-01  -3.756318986e-02  -9.593585879e-02  -1.208644137e-01  -5.425449461e-02  -9.734034538e-02  -6.853549927e-02  2.024987340e-01  -7.407630328e-03  -1.308548748e-01  1.994950138e-02  -2.499251068e-02  3.478717804e-02  1.441137344e-01  -1.261464804e-01  -9.484016895e-02  -1.491439193e-01  6.768325716e-02  2.941552736e-02  1.820502132e-01  -7.509750128e-02  -4.943214729e-02  5.368965212e-03  2.075473517e-01  -5.350157619e-02  -1.523641590e-02  1.116230413e-01  -7.977745496e-03  -8.741399273e-03  1.591024362e-02  3.268770128e-02  7.306024432e-02  1.675267220e-01  -1.502366960e-01  8.319523768e-04  5.198080838e-02  1.521071494e-01  1.349030137e-01  -6.274482608e-02  -1.484501064e-01  5.740371719e-02  -4.432845861e-03  -6.374809146e-02  9.888892621e-02  1.114476696e-01  -8.751654625e-02  -6.169261038e-02  -7.567241322e-03  -1.219413355e-01  7.248877734e-02  1.025515944e-01  -2.699529529e-01  -1.148501132e-02  1.634604484e-02  1.128276661e-01  8.741110563e-02  -4.271702096e-02  6.293562055e-02  2.600006200e-02  1.309895068e-01  -7.744610310e-02  1.275598407e-01  2.972129546e-02  6.958337873e-02  8.576833457e-02  1.035360619e-01  7.249055058e-02  -5.105413124e-02  9.859658778e-02  -6.635927409e-02  7.465552539e-02  3.145610541e-02  8.910486847e-02  -3.087791987e-02  1.418195367e-01  1.818554699e-01  3.165262565e-02  -1.852034032e-01  7.652159035e-02  -8.751709759e-02  -1.918540299e-01  -1.166436356e-02  -1.707007363e-02  3.958209231e-02  -5.996744335e-02  1.625492573e-01  1.750435382e-01  -3.482839325e-03  5.710745230e-02  -1.655597985e-01  -6.113450974e-02  5.690485984e-02  7.936971635e-02  -1.243134364e-01  -8.723000996e-03  1.380417794e-01  -9.175235406e-03  -5.823418498e-02  -2.041908447e-03  1.406160593e-01  1.308905333e-01  4.599381983e-02  1.138364673e-01  8.679585904e-02  1.979945693e-03  1.006264836e-01  -1.172894463e-01  -1.564206481e-01  1.050014868e-01  1.082576290e-01  -1.205017865e-01  2.896629833e-02  6.100102514e-02  -8.289236575e-02  -1.164521798e-01  5.339244753e-02  -7.076606899e-02  -5.884949863e-02  1.822526455e-01  -1.186265424e-02  -1.114611104e-01  -1.495775133e-01  1.405571848e-01  -1.686129719e-01  -2.533456981e-01  -1.766869612e-02  -6.510899216e-02  9.953802079e-02  -1.934111565e-01  -1.019143686e-02  1.370828878e-02  3.383443225e-03  -7.372445613e-02  -2.417084016e-02  2.186177224e-01  -3.033332713e-02  1.394180357e-01  4.420107976e-02  4.772610962e-02  -1.582329571e-01  -5.659719557e-02  3.488096595e-02  -1.271167099e-01  -1.045487598e-01  -3.186856583e-02  8.736130781e-03  1.292072237e-01  -2.390827835e-01  1.214347407e-01  -2.271725051e-02  1.212615427e-02  -2.071794122e-01  2.981770039e-01  1.981584877e-01  1.241061762e-01  1.269113552e-02  4.442777857e-02  1.327532232e-01  -6.829135120e-02  -1.594258100e-01  -2.240871489e-01  9.518444538e-02  -2.026293799e-02  1.043925583e-01  -2.847298384e-01  2.679426782e-02  -1.565504074e-01  6.308151037e-02  -2.776439488e-02  -2.898755483e-03  -2.691512927e-02  3.014995456e-01  -1.348177940e-01  -2.739189938e-02  1.429741234e-01  1.001312435e-01  1.637693644e-01  -2.790450305e-02  -6.184463948e-02  -1.080328785e-02  -9.609927237e-02  -1.099800244e-01  1.402150691e-01  -1.035142168e-01  2.233144455e-02  8.368095756e-02  -7.664976269e-02  2.294137627e-01  -7.358065248e-02  -8.829113841e-02  -5.135507882e-02  -5.950026587e-02  1.692923903e-02  4.416486248e-03  -9.106353670e-02  -2.403818537e-03  5.715365335e-02  1.118636783e-02  1.463134587e-01  -1.466002781e-02  2.028180808e-01  -1.186492592e-01  -1.198150069e-01  -2.183058709e-01  4.543387145e-02  6.752728671e-02  7.921882719e-02  1.151770800e-01  -4.666817561e-02  2.040932029e-01  1.808739826e-02  1.193889678e-01  1.192184538e-01  -7.156697661e-02  -4.593697563e-02  8.882397413e-02  1.639221162e-01  6.559826434e-02  5.171260610e-02  -1.033382341e-01  2.098459601e-01  1.759160012e-01  3.170482814e-03  -1.179801393e-02  2.408360131e-02  5.526880175e-02  2.218978703e-01  -9.758085012e-02  9.910719097e-02  -5.725808442e-02  -5.823093653e-02  -1.808227897e-01  8.403569460e-02  -1.449013948e-01  -7.321802899e-03  1.083700955e-01  -1.554317474e-01  -4.283005372e-03  -8.002579957e-02  3.741519526e-02  5.642865598e-02  3.453231156e-01  -1.136618033e-01  -1.334157288e-01  3.976627588e-01  -6.506558508e-02  -2.527582832e-02  6.156110018e-02  -8.454761654e-02  1.118818149e-01  -3.603563905e-01  1.932527721e-01  2.735817134e-01  -6.105758622e-02  -7.719002664e-02  1.652092859e-02  1.640227288e-01  8.620583266e-02  -3.048690408e-02  1.105927527e-01  4.974238575e-03  9.960103035e-02  -7.068861276e-02  2.012713403e-01  1.290415227e-01  3.801799193e-02  -1.335163116e-01  1.194174215e-01  -7.759626955e-02  1.872062534e-01  1.500559449e-01  -9.903785586e-02  5.435577035e-02  -9.765657037e-02  1.931371987e-01  8.840235323e-02  -2.304295078e-02  -1.424714625e-01  -1.817366481e-02  1.666647941e-01  -1.939976662e-01  -2.082732320e-01  -1.147390753e-01  2.833576128e-02  2.725457214e-02  -1.660466641e-01  -1.555757225e-01  -5.656528473e-02  -2.957953885e-02  -5.577737093e-02  -2.419515280e-03  2.994365990e-03  8.769918978e-02  -8.583246171e-02  3.966463357e-02  -3.770224378e-02  -1.009135786e-02  -1.032056212e-01  -5.434702709e-02  -2.463283837e-01  1.024783254e-01  -6.876573712e-02  3.169841832e-03  -4.063862562e-02  -1.957589090e-01  9.961545002e-04  1.377550513e-01  4.946384579e-02  1.742821746e-02  2.330625802e-02  -5.103046075e-02  1.191738248e-01  -1.236452833e-01  -6.679132581e-02  2.255940437e-01  -1.492549777e-01  1.559725553e-01  1.934622973e-01  1.189641431e-01  -3.987089917e-02  2.081286311e-01  4.476799071e-02  -5.408605561e-03  8.263235539e-02  -3.929968178e-02  -5.286999047e-02  2.321479283e-02  -1.810078323e-02  -2.238561809e-01  -9.807071090e-02  2.269991785e-01  2.285460234e-01  1.298617274e-01  -5.971215293e-02  9.489265829e-02  -1.130855083e-01  -7.998910546e-02  -1.042654514e-01  -7.221116126e-02  -1.284824032e-02  -1.358766705e-01  -9.531528503e-02  -1.499626637e-01  1.679714471e-01  3.691887483e-02  -2.838487737e-02  -9.761551023e-02  8.980747312e-02  4.379995167e-02  -2.134692222e-01  -1.292268038e-01  -1.331639290e-01  2.737392671e-02  -8.070462942e-02  -1.474573314e-01  -1.393464208e-01  -5.007342994e-02  -9.444048256e-02  -2.628777176e-02  1.593564153e-01  -1.706646085e-01  5.723772198e-02  -1.333802938e-02  -8.510232717e-02  -2.736646682e-02  1.144568026e-01  -1.015100330e-01  3.766354348e-04  -6.775827706e-02  -1.725360900e-01  1.653745584e-02  1.618285328e-01  -3.980058432e-01  -1.018666103e-01  8.966315538e-02  -1.900467426e-01  2.005027980e-01  1.065122187e-01  2.440914214e-01  2.663889155e-02  -2.829125226e-01  -2.266261727e-03  3.673096374e-02  1.382577866e-01  -7.122112066e-02  7.684362680e-02  -9.952710569e-02  1.345004793e-02  1.764586121e-01  4.753318802e-02  1.538630873e-01  -1.837626398e-01  -9.489011765e-02  -1.666364372e-01  2.052473873e-01  4.428678378e-02  3.928275034e-02  -1.481832117e-01  -1.230795681e-01  1.195547879e-01  -2.375525236e-02  9.763325751e-02  -9.766341746e-02  -1.755452156e-01  8.315988630e-02  -1.896834001e-02  1.293356717e-01  -1.081174538e-01  1.831286103e-01  -5.027242005e-02  -8.729939163e-02  4.365625232e-02  2.911238931e-02  2.122878097e-02  9.659700841e-02  -1.187377945e-01  2.752749622e-02  2.945238948e-01  -1.900082529e-01  1.637749188e-02  -3.073157072e-01  8.836787194e-02  1.101594344e-01  3.511660919e-02  5.754168145e-03  -3.949248791e-02  9.933622181e-02  3.666194081e-01  9.005743265e-02  3.337204456e-02  5.839970335e-02  -2.009364404e-02  -9.289413691e-02  -1.198334098e-01  -1.485139281e-01  -1.792126149e-02  1.258170456e-01  -2.034366280e-01  3.192443028e-02  7.868082821e-02  2.093365788e-01  1.310089529e-01  -1.098455787e-01  6.344290078e-02  -1.390379071e-01  -1.520584077e-01  -1.362539176e-02  1.735917032e-01  5.122116953e-02  1.562875360e-01  7.175900787e-02  -6.922771037e-02  -7.598469499e-03  7.300757617e-02  2.251479402e-02  -1.325926781e-01  2.548425198e-01  1.158077568e-01  -2.385913581e-01  -1.053419858e-01  5.177669600e-02  2.276916504e-01  6.624166667e-02  2.087117136e-01  -3.951900452e-02  2.339221537e-01  1.764596403e-01  -9.835857153e-02  3.967720270e-02  6.043507904e-02  1.032132059e-01  4.359393567e-02  1.651581973e-01  -7.050229609e-02  -2.536479384e-02  -1.622850895e-01  5.955136940e-02  2.051535994e-02  -1.897477917e-02  2.656730451e-02  1.549932361e-01  1.152329966e-01  1.098231673e-01  1.126552671e-01  -7.311368734e-02  -4.717530310e-02  -1.714894921e-01  -2.852271497e-01  1.235205233e-01  -7.449606806e-02  -8.895895630e-02  -1.094935741e-02  4.663413391e-02  6.424129754e-02  8.067570627e-02  -6.498502940e-02  -6.684752554e-02  3.254426718e-01  7.068220526e-02  -1.637607813e-01  1.129195616e-01  9.510503709e-02  1.051890105e-01  -2.247321792e-02  -7.476784289e-02  -9.351119399e-02  -1.694305241e-01  1.130027398e-01  2.572698593e-01  -2.799015939e-01  1.476906333e-02  8.027517051e-02  -1.051795259e-01  -4.314185679e-02  -1.588308066e-01  2.659491450e-02  -5.968090519e-02  -8.322968334e-02  2.960563898e-01  -8.300670981e-02  2.041749470e-02  4.396822769e-03  1.398283243e-01  7.092408836e-02  -3.822245821e-02  -8.455613256e-02  1.606968641e-01  -1.294022612e-02  -7.105904818e-02  5.223895982e-02  -1.597079933e-01  -1.331486702e-01  -5.735762045e-02  -1.170263719e-02  -1.707681082e-02  2.322200872e-02  7.559022307e-02  2.704078145e-02  1.828626916e-02  5.311138555e-02  -1.629627310e-02  2.367719263e-02  1.208712533e-01  -1.267297193e-02  -2.242291868e-01  2.043675333e-01  -4.219193384e-02  1.963810474e-01  -1.580127627e-01  -1.175257638e-01  -2.054214664e-02  1.417536288e-01  -9.450332820e-02  -3.700476373e-03  8.397598751e-03  2.001898736e-01  -1.474922989e-02  -3.285660176e-03  1.582662314e-01  -2.076292634e-01  1.804519072e-02  -4.801144451e-02  -3.805069625e-02  1.524435431e-01  -7.447445393e-02  -5.670003127e-03  -8.946137130e-02  -1.172815114e-01  8.571558446e-02  3.853288945e-03  -2.336619943e-01  1.707929224e-01  -2.173077874e-02  -1.319667995e-01  5.282820389e-02  1.548638493e-01  -2.729689702e-02  -1.030559093e-01  1.217353493e-01  3.921423107e-02  2.513181269e-01  -2.145785280e-02  1.302982420e-01  -1.059706733e-01  1.876902208e-02  8.232521266e-02  6.354758143e-02  5.024798587e-02  7.158902474e-03  8.334539086e-02  -1.225457415e-01  6.824922562e-02  1.881094575e-01  1.581046581e-01  7.253868040e-03  -9.099746495e-02  -1.019009724e-01  3.372803330e-02  1.617663191e-03  -3.364174441e-02  -1.615972966e-01  2.953071613e-03  4.304247350e-02  -3.395863622e-02  4.113470018e-02  7.208499312e-02  9.403335303e-02  -1.066946797e-02  1.267783195e-01  4.082091525e-02  3.590456769e-02  -7.124312222e-02  1.243776903e-01  -2.635852434e-03  1.025835332e-02  -1.831680238e-01  1.222084370e-02  1.914079068e-03  -2.107613832e-01  -7.242884021e-04  1.235809997e-01  9.065407328e-03  2.865620330e-02  -4.606910050e-02  -9.766158462e-02  1.923255920e-01  2.957293019e-02  9.731077403e-02  3.121860027e-01  -9.531427920e-02  -1.738351882e-01  -1.848831587e-02  -4.115342721e-02  -1.406011283e-01  -1.533360928e-01  2.645280659e-01  -6.040351000e-03  -1.306157112e-01  1.065367609e-01  -9.179385751e-02  -7.233550400e-02  3.116022609e-02  -4.571755603e-02  -5.395509303e-02  -6.449231505e-02  -1.986073852e-01  -7.361324038e-03  -1.309436262e-01  -6.942321360e-02  4.668185953e-03  -8.184278011e-02  -5.947939679e-02  1.936575025e-01  -9.746350348e-03  -3.027479351e-02  -6.206408143e-02  -6.353163719e-02  5.269498751e-02  -1.281867772e-01  7.214670628e-02  4.901066422e-02  -3.129736334e-02  2.550851926e-02  -2.452728301e-01  2.413006499e-02  -4.790912941e-02  1.127591357e-01  1.233231798e-01  -1.023987904e-01  -1.741230488e-03  -5.313890986e-03  -3.297520056e-02  -1.722147763e-01  -4.820827767e-02  1.650884934e-02  7.214462757e-02  -1.033669263e-01  -1.771096438e-01  -4.103007540e-02  -1.282393560e-02  7.195834816e-02  1.443481445e-01  5.806068704e-02  1.436878443e-01  -2.630669065e-02  1.748346686e-01  -2.406496182e-02  -2.093779743e-01  4.694141075e-02  -1.348830387e-02  -1.712627523e-02  2.226338489e-03  1.066011116e-01  -2.023930401e-01  -1.241077669e-03  1.332134604e-01  -4.661275074e-02  1.564949900e-01  -7.354752719e-02  5.197185557e-03  -8.557717502e-02  2.419269830e-02  7.780192792e-02  -1.495476961e-01  -1.435808241e-01  -7.016486675e-02  9.458629042e-02  1.239686608e-01  7.163047791e-02  -8.067218214e-02  1.333592832e-01  6.646106392e-02  1.826807708e-01  -3.193218634e-02  -1.528743207e-01  -2.023755014e-01  -1.171162575e-01  -6.122314557e-02  -9.714490175e-02  1.237837076e-01  -4.434641078e-02  2.061116695e-01  7.980275154e-02  5.583274364e-02  1.145208180e-01  1.070783213e-01  -5.404942110e-02  1.142250746e-01  -4.669906572e-02  8.825442195e-02  7.906977087e-02  1.302025616e-01  -7.975341380e-02  -4.858944193e-02  -8.077628911e-03  -1.610959321e-01  -1.204332933e-01  -7.430767268e-02  7.172752172e-02  -1.053202972e-01  5.028715357e-02  4.262987152e-02  5.599632114e-02  -3.386908472e-01  1.608153135e-01  -1.829435974e-01  1.769067906e-02  -2.181282267e-02  -5.079577118e-02  -8.227107674e-02  -7.407327741e-02  -3.185761347e-02  2.208385058e-02  3.667413592e-01  -5.037138239e-02  1.495717186e-02  3.207831383e-01  -6.044629589e-02  6.328911334e-02  -5.762916058e-02  2.436479367e-02  1.327065229e-01  -2.356991023e-01  7.124369591e-02  4.434471205e-02  -6.101066619e-02  -3.183799982e-02  -1.517467648e-01  1.178040579e-01  -5.675908178e-03  -6.547293812e-02  8.988433331e-02  1.281502694e-01  2.149156779e-01  -1.551214755e-01  1.906229407e-01  -1.281342208e-01  -1.247629523e-02  -1.642798036e-01  -9.895539284e-02  -1.819057018e-01  2.849115059e-02  -1.375546157e-01  -1.542065591e-01  1.641537547e-01  -2.948808298e-02  -9.230127931e-02  1.475728601e-01  6.169502437e-02  -7.606412470e-02  2.884180518e-03  2.677839100e-01  -2.161742300e-01  -3.193310276e-02  5.499936640e-02  -2.898786776e-02  -1.274271905e-01  1.405402869e-01  -1.021192595e-01  1.865338981e-01  9.167341143e-02  -1.873692125e-01  1.545320451e-01  -1.547212005e-01  2.910668850e-01  2.050409317e-01  -1.903406112e-03  -1.112385839e-01  1.308468580e-01  6.488481304e-04  -6.251040846e-02  4.702279810e-03  2.942939661e-02  -3.385558724e-02  -4.356832430e-02  1.659284681e-01  -1.306368411e-01  -2.297420753e-03  1.880711317e-01  5.220473930e-02  -4.964347929e-02  -9.897945821e-02  -2.821093984e-02  6.046502665e-02  1.227120757e-01  -6.380755454e-02  2.286580950e-01  -1.212349236e-01  5.633535981e-02  -4.144822434e-02  -1.070956886e-01  4.193799943e-02  1.300066411e-01  7.912451029e-02  -4.570112377e-02  -1.091843992e-01  -1.841869578e-02  -1.193878502e-01  5.242824554e-02  4.311321676e-02  -1.414977610e-01  -7.586048543e-02  2.390452623e-01  9.180870652e-02  5.367207155e-02  2.621781081e-02  -4.494725168e-02  -1.284643710e-01  -9.919176251e-02  -8.502651751e-02  -5.417781696e-02  3.598896787e-02  4.755414277e-02  -4.183167592e-02  -9.985335171e-02  -1.436534822e-01  -5.346245691e-02  -6.460659951e-02  -7.208497077e-02  -7.259106636e-02  -6.203003973e-02  8.659956604e-02  7.192806900e-02  7.416887581e-02  1.756670885e-02  9.513064474e-02  -8.694904298e-02  -7.351450622e-02  8.586198092e-02  7.122402638e-02  -1.565707922e-01  3.487913311e-01  3.644107655e-02  1.715093106e-01  6.329252571e-02  -4.062768444e-02  -1.031238660e-01  1.788210496e-02  -9.550318122e-02  1.296179146e-01  2.449228428e-03  -2.026526779e-01  -1.280967742e-01  -9.874044190e-05  -1.914184242e-01  -7.225917280e-02  1.366538256e-01  -2.038387209e-01  6.489222404e-03  4.745609313e-02  2.392453253e-01  -6.482262164e-02  -1.820928603e-01  2.079592496e-01  1.315957494e-02  2.591992021e-01  -5.260847509e-02  -1.310814470e-01  1.387076266e-02  -5.234842002e-02  -1.252710819e-01  4.425967112e-02  1.466592103e-01  5.147560686e-02  7.223664969e-02  7.990963757e-02  -8.803395554e-03  -1.146084163e-03  -8.304213732e-02  -2.133291215e-01  6.114051118e-02  -4.600355402e-02  1.252241582e-01  -1.619910449e-02  -1.463500261e-01  8.880431205e-02  2.603661828e-02  -1.017696634e-01  1.147577316e-01  6.417089701e-02  -4.004948214e-02  -1.159907058e-01  1.953184456e-01  -9.102993459e-02  -4.106522352e-02  1.877118498e-01  8.655767888e-02  1.072459109e-02  -1.734015644e-01  1.917440630e-02  -3.131264076e-02  6.221780181e-02  -7.766277343e-02  2.246165089e-02  3.178143129e-02  5.306980014e-02  8.419751376e-02  6.042232364e-02  5.488328636e-02  1.122728437e-01  1.235012785e-01  1.093226224e-01  1.078831777e-01  -4.565274715e-02  -1.593948901e-01  -7.445008308e-02  -1.443937793e-02  1.483637094e-01  -6.594636291e-02  -3.023368865e-02  -3.978791460e-02  5.649512634e-02  -9.685298800e-02  1.688689142e-01  -4.276489094e-02  1.532856822e-01  2.304662578e-02  1.011394784e-01  1.579475105e-01  -3.276471049e-02  -9.626621008e-02  3.179315478e-03  1.296812147e-01  -7.244551182e-02  9.434040636e-02  1.430694610e-01  -2.853539959e-02  4.653532058e-02  4.516529292e-02  -8.112677932e-02  -1.455600709e-01  1.897471491e-03  -1.018898562e-02  1.900073290e-01  -3.660488501e-02  8.685369790e-02  3.688301891e-02  -8.523197472e-02  7.094771415e-02  9.125694633e-02  7.181875408e-02  8.594214916e-03  -1.028259844e-01  8.371678740e-02  1.000890732e-01  1.680747122e-01  1.308980137e-01  2.255850472e-02  1.162934378e-01  5.672925338e-02  -5.643699318e-02  1.120625511e-01  -9.413961321e-02  -7.940350473e-02  3.304339945e-02  -9.510336444e-03  -1.112542376e-01  -9.320016205e-02  -1.021871939e-01  -1.396357268e-01  5.615377054e-02  -2.804035693e-02  -2.549360394e-01  1.339643169e-02  -1.105921045e-01  1.372503042e-01  2.344324999e-02  5.684744194e-02  9.709808975e-02  8.367000520e-02  4.069515690e-02  -3.143000882e-03  2.333898097e-01  -1.253504585e-02  -5.336984619e-02  1.637366116e-01  1.362788528e-01  1.255699545e-01  -1.521956921e-01  -1.106183529e-01  -3.914331645e-02  -9.724114090e-02  -9.289310127e-02  1.187829152e-01  9.013935924e-02  -1.338472869e-02  -1.272649039e-02  -5.902428180e-02  1.206399426e-01  -1.008206978e-01  8.653437346e-02  -2.108718008e-01  -1.083318666e-01  3.565604240e-02  -5.830527842e-02  7.999742776e-02  1.477469951e-01  -1.531840712e-01  1.467325725e-02  1.110306233e-01  1.845373400e-02  1.163462698e-01  2.247249894e-02  1.292734221e-02  4.782324284e-02  1.239862386e-02  3.118217550e-02  -2.657799125e-01  2.493226528e-01  -5.092415586e-02  8.717399905e-04  -6.000070646e-02  -5.411319435e-03  5.786221847e-02  -6.289547682e-02  -3.389007598e-02  -2.277213782e-01  5.196634680e-02  -1.447850168e-01  2.918840945e-02  -1.946341842e-01  -2.017945237e-02  -4.745553061e-02  5.670293048e-02  -7.922621816e-02  5.754502863e-02  -1.364354640e-01  8.389787376e-02  5.138166994e-02  1.659848988e-01  4.811579734e-02  -1.622547656e-01  4.357425496e-02  -3.142653033e-02  -1.771261841e-01  1.290582772e-02  2.159165889e-01  -4.262994602e-02  -7.079686224e-02  1.155553609e-01  1.184013411e-01  8.427243680e-02  -4.826495424e-02  -1.131764650e-01  -5.611907691e-02  -1.055737436e-01  1.960752718e-02  -3.136822209e-02  -5.455280095e-02  -4.724304378e-02  -4.063255340e-02  1.145970598e-01  1.280605346e-01  3.874645010e-02  4.786014929e-02  -1.682912707e-01  2.306642979e-01  -9.238252789e-02  3.636528924e-02  8.329879493e-02  8.263918012e-02  -1.064386219e-01  -1.602516174e-01  1.986096427e-02  -1.204429939e-02  1.014985293e-01  -6.381624937e-02  3.687543049e-02  -1.460425183e-02  -2.970794402e-02  -8.673349023e-02  -9.292194992e-02  -3.653555363e-02  -8.025391400e-02  7.545787841e-02  -3.520649672e-02  -3.937797621e-02  1.464764029e-01  -1.320804507e-01  -4.619309306e-02  -1.745216995e-01  -8.927255869e-02  1.836842000e-01  -2.766813559e-04  8.753220737e-02  6.648924947e-02  1.334782988e-01  -1.208517700e-01  -1.448802054e-01  -1.518352479e-01  -6.394006312e-02  -3.348710388e-02  5.635583028e-02  9.370156378e-02  2.669369802e-02  -7.313612849e-02  1.146287099e-01  3.152981699e-01  -2.283699345e-03  9.834514558e-02  1.865059584e-01  -4.263126105e-02  -5.866049603e-02  1.984178424e-01  -7.157231122e-02  1.784475595e-01  -1.287700981e-01  9.691175073e-02  2.446018755e-01  -1.901606172e-01  1.136437729e-01  -1.905828714e-02  -1.621772908e-02  -1.527257413e-01  6.313675642e-02  8.347757906e-02  -6.374637783e-02  1.074270606e-01  6.996396184e-02  -5.284965411e-02  -1.202803478e-01  -9.939042479e-02  2.972645499e-02  5.457266048e-02  -1.051570028e-01  -1.997924447e-01  9.242966771e-02  1.126014441e-01  7.232455909e-02  -2.906823345e-02  -1.958345622e-01  4.189531785e-03  -5.781989172e-02  1.442817152e-01  2.077355608e-02  3.910035640e-02  -1.495697349e-01  6.809125189e-03  1.289287508e-01  1.555486172e-01  8.066195995e-02  1.788063049e-01  -6.475689262e-02  7.636237890e-02  1.855348796e-02  4.098016769e-03  -1.199730635e-01  2.017779648e-01  -9.317063540e-02  8.064432442e-02  -2.560551465e-01  -8.601062745e-02  8.642289042e-02  -1.415522397e-02  -1.354719698e-01  1.026952118e-01  -6.804983318e-02  1.462456882e-01  -8.964177221e-02  7.974957675e-02  -9.581793100e-03  -1.984556615e-01  -1.320155859e-01  -3.035078011e-02  -2.208042517e-02  -5.936597288e-02  -2.149630152e-02  1.162385941e-01  8.014771342e-02  -2.189796418e-02  7.774643600e-02  -2.865766734e-02  -7.517787814e-02  1.439371705e-02  -1.506893933e-01  -5.705247074e-02  -2.404622734e-02  -2.235873602e-02  7.608790696e-02  -2.744393609e-02  -6.875900924e-02  6.687797606e-02  8.262857050e-02  -1.025535017e-01  1.187420487e-01  -6.402481347e-02  -5.725272745e-02  9.023869783e-02  -4.278126359e-02  -9.566926397e-03  1.748401672e-01  1.066135336e-02  -6.400318444e-02  -5.318279564e-02  2.213195898e-02  -6.908322871e-02  -6.088158116e-02  2.138991505e-01  2.649157122e-02  -3.363167495e-02  -5.766126513e-02  1.012667418e-01  8.051308990e-02  9.620960802e-02  2.941967361e-02  2.391503006e-01  -1.300438344e-01  -8.422049135e-02  -1.337054670e-01  8.250625432e-02  1.866421551e-01  8.140236139e-02  -1.245213822e-01  -5.083533749e-02  7.868193090e-02  -3.472860530e-02  1.575499773e-01  -8.892924339e-02  -5.677271262e-02  3.300877521e-03  6.523964554e-02  8.358522505e-02  5.984042585e-02  -1.478511393e-01  1.930327117e-01  8.908540010e-02  3.152099997e-02  -1.521238964e-02  1.457002163e-01  8.011011034e-02  6.337957829e-02  -1.689346433e-01  6.295893341e-02  -1.037557572e-01  -2.832932957e-02  -5.548265576e-02  -3.610645980e-02  1.396309435e-01  3.949741647e-02  1.015987173e-01  -1.258067042e-01  7.916125655e-02  -9.519277513e-02  -3.500727192e-02  -5.728452466e-03  -3.558904678e-02  2.092966884e-01  3.530926630e-02  1.442731768e-01  1.388771385e-01  -3.535261005e-02  -3.984482214e-02  4.860364273e-02  -1.920082718e-01  3.652410209e-02  7.515494525e-02  1.020106152e-01  9.885410219e-02  -1.368176043e-01  -1.629048586e-01  1.731294096e-01  9.067615122e-02  -1.243737862e-01  -1.133002117e-01  1.500938386e-01  1.096400246e-02  1.124366838e-02  9.365998954e-02  -2.764020488e-02  -5.555066839e-02  1.571004838e-01  1.905706339e-02  -2.547094412e-02  -1.576897455e-03  -2.996630967e-02  1.587368548e-01  -3.190013766e-01  -9.424502403e-02  1.162732914e-01  2.284231633e-01  -1.860702783e-01  1.373508275e-01  -4.674001131e-03  3.209135234e-01  -1.356259137e-01  1.852800548e-01  -2.757798694e-02  -1.630060077e-01  -7.480127364e-02  3.361320868e-02  -1.127844080e-01  2.050190270e-01  1.588182300e-01  4.282318056e-02  -1.447910517e-01  -3.727541538e-03  4.258820042e-02  1.898118854e-01  -1.544652879e-01  2.036435902e-01  -8.584551513e-02  -5.377623066e-02  7.614599168e-02  -8.955208957e-02  -1.057523489e-01  2.448753454e-02  1.181294471e-01  1.696030051e-01  1.083051115e-01  -3.692289069e-02  8.826260269e-02  3.531431407e-02  9.900943190e-02  1.445249617e-01  -2.105488181e-01  -1.672036350e-01  7.438748330e-02  2.292311639e-01  -6.961432844e-02  2.938522398e-02  -2.214838751e-02  2.658681571e-02  5.884448066e-02  1.626774073e-01  2.352386527e-02  5.380051211e-02  1.088668257e-01  7.585275173e-02  1.228740439e-01  1.753606200e-01  1.239997074e-01  -1.297484897e-02  -6.427686661e-02  2.093419880e-01  -1.239540875e-01  -1.081086621e-01  -7.609270513e-02  -4.233011603e-02  -2.276797593e-02  1.945404336e-02  -9.985309094e-02  1.153976321e-01  -4.328966886e-02  -2.995089889e-01  -4.906526580e-02  -1.608572751e-01  7.978431135e-02  -9.043572098e-02  3.339039907e-02  8.636883646e-02  -7.907775789e-02  6.891062111e-02  1.525161117e-01  4.311390817e-01  7.571308315e-02  -1.479358673e-01  1.017950699e-01  2.937735245e-02  -2.573439293e-02  1.369564682e-01  -9.121803939e-02  4.987854883e-02  -4.139695466e-01  -1.881219633e-02  2.010094821e-01  -4.987546429e-02  -3.179278970e-02  7.812711596e-02  8.879280835e-02  5.790419132e-02  -1.324265003e-01  -9.301552922e-02  -3.878854215e-02  -1.251764745e-01  1.650978774e-01  3.432479501e-02  -1.153180227e-01  -1.314071566e-01  -3.364944831e-02  1.270764768e-01  -6.876179576e-02  -9.679649025e-02  5.233664811e-02  8.051359653e-02  -4.271530360e-02  2.208493464e-02  -1.537684351e-01  9.433158487e-02  1.449964494e-01  1.228453666e-01  7.375284284e-02  -7.918502390e-02  4.533054680e-02  -2.126231231e-02  1.598441899e-01  4.487671331e-02  -7.859752327e-02  -4.584832117e-02  1.067018602e-02  -6.241912022e-02  -2.611173689e-02  2.242962718e-01  -1.365528107e-01  -9.513122588e-02  -9.928692877e-02  7.184553146e-02  -1.508515608e-02  5.818195269e-02  9.851667285e-02  -1.038994715e-01  6.413011812e-03  6.264931709e-02  4.990981892e-02  3.480948880e-02  -4.919423535e-02  -1.053465605e-01  2.248551399e-01  7.102422416e-03  -6.637891382e-02  1.636680402e-02  2.254624665e-01  1.879786327e-02  2.990139090e-02  -7.050152868e-02  -3.914376348e-02  7.827962935e-02  7.344044745e-02  -7.546851784e-02  6.470385194e-02  -2.763407119e-02  1.276110560e-01  -5.821465701e-02  1.025485992e-01  9.724771231e-02  8.209086955e-03  5.135652423e-02  -6.448529661e-02  -1.874158084e-01  1.208998635e-02  3.400701657e-02  -2.006040886e-03  -1.627589315e-01  -4.798312113e-02  3.660716116e-02  -1.125226989e-01  2.165576816e-02  -1.557655782e-01  -1.008969843e-01  3.814634308e-02  1.695198193e-02  1.701328307e-01  1.120281871e-02  -2.683349885e-02  6.022707373e-02  1.271924525e-01  -5.554446205e-02  -1.699378714e-02  7.620888948e-02  -7.699969411e-02  -1.109418646e-01  1.200816408e-01  1.612614840e-01  -1.863166108e-03  1.989304088e-02  -1.593029648e-01  -8.114593476e-02  -1.399641763e-02  1.021600664e-01  -4.018141702e-02  6.352324504e-03  1.109194383e-01  -1.585579216e-01  -2.454521321e-02  -1.376528293e-01  -9.329132736e-02  3.565029800e-02  -3.539165854e-02  -8.797071874e-02  -3.336260095e-02  -5.744666234e-02  -1.297447383e-01  1.781678200e-01  -9.445485473e-02  1.364884824e-01  1.524221450e-01  4.753078520e-02  -1.327497326e-02  -3.017193824e-02  1.550491713e-02  1.741533279e-01  5.407337099e-02  7.044267654e-02  2.528448775e-02  2.660074644e-02  5.584593862e-02  -9.463729709e-02  6.451585889e-02  7.586692274e-02  6.592655182e-02  1.577529162e-01  6.148838997e-02  3.740775213e-02  6.152024865e-02  -1.282374561e-02  1.041589454e-01  -2.590858936e-02  1.425289959e-01  1.026412919e-01  4.996585101e-02  -5.806382280e-03  7.584763318e-02  -7.401900738e-02  1.752065867e-01  1.871771514e-01  -1.169810817e-01  -5.028423667e-02  9.592523426e-02  -1.048986241e-01  -8.056569099e-02  -5.323025584e-02  1.200229898e-01  -5.422059447e-02  -1.770930737e-02  -1.915820539e-01  1.169868484e-01  -2.175465599e-02  -6.348547339e-02  -3.533515264e-04  1.836066991e-01  1.410356611e-01  8.934949338e-02  9.884544648e-03  1.131404638e-01  -4.172313213e-02  3.194263279e-01  4.220996425e-02  -1.558173001e-01  6.832059473e-02  -1.084031388e-01  -1.179694608e-01  3.035227023e-02  -1.325003058e-01  5.476402864e-02  6.668491662e-02  1.622584090e-02  1.127669513e-01  -8.218986541e-02  -1.881793588e-01  -4.915595055e-02  9.188508987e-02  -1.692049801e-01  5.766471475e-02  -6.443119049e-02  9.189277142e-02  8.859653026e-02  -1.349947751e-01  -9.783481061e-02  -1.494974345e-01  -2.000551485e-02  -9.626241401e-03  1.249435246e-01  6.853276491e-02  -2.947215736e-02  -9.408621490e-02  1.683891416e-01  1.022939384e-01  -4.882118478e-02  1.900762320e-01  -9.599111229e-02  -1.409627795e-01  7.725403458e-02  3.877409920e-02  7.117220014e-02  9.553615004e-02  -5.982790887e-02  1.117706448e-01  -2.257386036e-02  1.283672899e-01  -8.974987268e-02  -6.792286038e-02  2.615654469e-02  3.607277200e-02  2.882436290e-02  7.980633527e-02  -2.508721873e-02  -2.354553714e-02  1.208081022e-01  1.212968081e-01  -3.479309753e-02  4.894991219e-02  -1.746914908e-02  -2.727782726e-02  -4.151333414e-04  2.033197135e-01  -1.839136630e-01  2.211273089e-02  -3.601330891e-02  -1.059948057e-01  4.590356722e-02  2.065116614e-01  -1.585996337e-02  1.305900961e-01  -5.357721075e-02  -1.268028319e-01  5.949457735e-02  1.133454069e-01  1.331575215e-01  -4.163047671e-02  -8.960565552e-03  -1.325896755e-02  -3.901348636e-02  4.403615743e-02  -1.443812996e-01  1.257915050e-01  -8.444160968e-02  1.096933056e-02  8.146807551e-02  -8.988164365e-02  1.367127895e-01  -6.153365970e-02  -1.391184032e-01  4.579170421e-02  -9.915965050e-02  1.194660366e-01  2.123650536e-02  -1.063561067e-02  -2.062760526e-03  3.552620858e-02  -1.139053181e-01  1.187187731e-01  -2.080187500e-01  4.380691051e-02  3.533214331e-02  8.782301843e-02  2.011461742e-02  4.764625803e-02  -1.164398417e-01  1.604281515e-01  9.580674022e-02  -1.277100146e-01  1.908673160e-02  -9.055677801e-02  5.600553006e-03  4.285454378e-02  -2.129763365e-03  -5.822911486e-02  -3.656699508e-02  9.083650261e-02  -9.768670052e-02  4.837836325e-02  1.059651896e-01  -4.777614400e-02  -6.784453988e-02  2.211487107e-02  8.318810165e-02  -2.034699358e-02  5.113162100e-02  -1.074991673e-01  -2.752503194e-02  -1.132104620e-01  8.885969222e-02  6.515950710e-02  -9.760313481e-02  -1.965049654e-01  -1.881789044e-02  2.257723920e-02  -1.405523811e-02  -2.496365756e-01  5.836884305e-02  -6.646547467e-02  -1.634770185e-01  1.429446340e-01  -2.672876045e-02  1.525693480e-02  1.463389546e-01  -1.574096233e-01  2.803479694e-02  -6.130930502e-03  -3.839850053e-02  -1.517910510e-03  -1.277598273e-02  -5.805662274e-02  9.430464357e-02  1.026028395e-01  1.247194707e-01  5.373584107e-02  -1.283425242e-01  -8.979129791e-02  -9.415142238e-02  9.424650669e-02  -1.559846997e-01  -8.603631519e-03  -5.668987334e-02  1.199785769e-01  2.958627231e-02  2.882212587e-02  -2.249312103e-01  1.125622317e-01  1.603849679e-01  7.392323762e-02  -2.578550018e-02  9.276077151e-02  8.126728982e-02  4.026350006e-02  -7.306637615e-02  4.724115133e-02  -5.850860849e-02  -4.613945261e-02  8.971493691e-02  -1.588477194e-02  1.060637161e-01  7.173749059e-02  1.011931375e-01  4.373592511e-02  9.931194782e-02  -9.757021815e-02  -2.436301112e-01  6.715440750e-02  -8.154833317e-02  -7.334817946e-02  9.658928216e-02  -1.202519760e-01  2.700381167e-02  3.588709235e-02  -5.048329011e-02  -3.196094185e-02  -3.690890595e-02  6.842766702e-02  1.310783066e-02  1.177109182e-01  2.612949908e-02  -1.155903488e-01  -9.312313050e-02  1.100828350e-01  -6.198068708e-02  -6.127433106e-02  6.640422507e-04  -3.245725334e-01  6.574208383e-03  2.169180103e-02  -3.279757872e-02  7.102197409e-02  1.169055253e-01  -1.210343018e-01  -1.000657231e-01  8.153011650e-02  2.104836851e-01  -2.168335617e-01  -2.622304261e-01  8.504518867e-02  5.332198460e-03  1.668976843e-01  -3.786282614e-02  -2.721359022e-02  -6.327034533e-02  1.104550287e-01  -1.941235960e-01  2.424395084e-01  -2.782098055e-01  2.303513438e-01  -7.805793732e-02  